{"inputSize": 63, "labels": ["A", "B", "C", "D", "E", "F", "G", "H", "I", "J", "K", "L", "M", "N", "O", "P", "Q", "R", "S", "T", "U", "V", "W", "X", "Y", "Z", "SPACE", "DELETE"], "layers": [{"units": 128, "activation": "relu", "kernel": [[0.10802292823791504, -0.0431029349565506, 0.15403509140014648, 0.020767807960510254, 0.13075408339500427, -0.09137889742851257, 0.09458032250404358, -0.16847339272499084, -0.007959619164466858, -0.05753633379936218, -0.03129780292510986, 0.14183545112609863, -0.1766480952501297, -0.002483189105987549, 0.05868107080459595, 0.014878198504447937, 0.11091458797454834, 0.14493906497955322, -0.16573463380336761, -0.15199872851371765, -0.17081071436405182, 0.021604925394058228, 0.02440035343170166, 0.08242973685264587, 0.052891358733177185, 0.03727278113365173, 0.14662304520606995, 0.0347566157579422, -0.16414040327072144, -0.1662222295999527, -0.031779155135154724, -0.12212072312831879, -0.09543945640325546, -0.023729994893074036, 0.10246866941452026, -0.17437556385993958, 0.017978638410568237, 0.17160865664482117, -0.08391346782445908, 0.11364594101905823, -0.16184575855731964, -0.10961665213108063, 0.17114290595054626, 0.13496771454811096, -0.03447480499744415, -0.05232971906661987, -0.00904153287410736, -0.11219280958175659, -0.05673712491989136, 0.14180636405944824, -0.013552173972129822, 0.11808103322982788, -0.050273194909095764, -0.1276266872882843, 0.16720640659332275, -0.14260642230510712, 0.16448873281478882, -0.006696298718452454, -0.02245470881462097, 0.11960214376449585, 0.082064688205719, 0.0643647313117981, 0.019837230443954468, 0.08963975310325623, -0.1033816710114479, -0.009425431489944458, 0.049503520131111145, -0.03261026740074158, -0.1450757086277008, 0.1416475772857666, -0.011165231466293335, 0.11446201801300049, -0.08008135110139847, 0.026301279664039612, -0.07641749829053879, 0.11061134934425354, -0.04588979482650757, -0.15476347506046295, 0.12738260626792908, -0.05385604500770569, 0.011647343635559082, -0.13276001811027527, -0.15982751548290253, 0.15455380082130432, -0.06482186913490295, -0.13884884119033813, -0.011796221137046814, -0.1480230987071991, 0.13296276330947876, -0.15000571310520172, 0.09207585453987122, 0.06445436179637909, -0.002987697720527649, -0.08689779043197632, -0.17623022198677063, -0.0328720360994339, -0.08505149185657501, 0.03405080735683441, -0.12765474617481232, -0.14478561282157898, 0.158530592918396, -0.11226515471935272, 0.08742129802703857, -0.16971160471439362, 0.16114577651023865, 0.05845990777015686, -0.08494547009468079, 0.04445858299732208, -0.12424519658088684, -0.1452832818031311, 0.0065070390701293945, 0.1505524218082428, 0.009169399738311768, -0.0836222767829895, -0.1638801395893097, -0.1084403395652771, -0.07897472381591797, 0.16940811276435852, 0.14719367027282715, 0.020639851689338684, -0.1504497528076172, 0.02699980139732361, 0.0468304306268692, 0.1597042977809906, -0.03293086588382721, -0.007131129503250122, -0.008382141590118408, 0.012154266238212585], [-0.0657462403178215, 0.020525768399238586, -0.12104341387748718, -0.06468546390533447, -0.021234244108200073, 0.057404324412345886, -0.1437859833240509, -0.018009021878242493, -0.17237193882465363, -0.010053455829620361, 0.04074731469154358, 0.07200881838798523, -0.016315609216690063, 0.06350205838680267, -0.1645348221063614, -0.03886164724826813, -0.12138663232326508, 0.09496098756790161, -0.08857882022857666, 0.005269452929496765, 0.07281407713890076, 0.05439794063568115, -0.08111613988876343, 0.05319616198539734, -0.10889464616775513, -0.02463078498840332, -0.08768613636493683, 0.005068302154541016, 0.03190718591213226, -0.04671831429004669, 0.03361213207244873, -0.13545142114162445, -0.08031359314918518, -0.10481008142232895, 0.11179745197296143, 0.0531768798828125, 0.003301873803138733, 0.11798164248466492, 0.06821992993354797, 0.09766539931297302, 0.042415499687194824, 0.11089399456977844, -0.09646055847406387, -0.1642117202281952, -0.012804388999938965, -0.10709086060523987, -0.058636076748371124, 0.030641883611679077, 0.1442941129207611, 0.058160096406936646, -0.014293521642684937, 0.07829758524894714, 0.14359110593795776, 0.09896776080131531, 0.07435157895088196, -0.17592212557792664, -0.1262134313583374, 0.08908885717391968, 0.08938056230545044, 0.11836498975753784, 0.09040364623069763, -0.04791897535324097, 0.1241123378276825, -0.060444340109825134, 0.12711647152900696, -0.1035211980342865, -0.04266667366027832, -0.03153026103973389, 0.1653173267841339, -0.12303557991981506, -0.030655741691589355, -0.1555555760860443, 0.16649407148361206, -0.16189810633659363, -0.1669798195362091, 0.09005999565124512, 0.05682341754436493, 0.0606476366519928, -0.04671265184879303, 0.03626084327697754, 0.16949164867401123, -0.02928107976913452, -0.04841591417789459, 0.08141875267028809, -0.17076334357261658, -0.15458033978939056, 0.06284652650356293, 0.15403252840042114, 0.0948544442653656, -0.1758432686328888, 0.1447448432445526, 0.04268209636211395, 0.04642924666404724, 0.08302062749862671, 0.12390780448913574, -0.0947478786110878, -0.020571619272232056, 0.1605038046836853, -0.09852958470582962, -0.03206197917461395, -0.14645566046237946, -0.06541304290294647, -0.16600461304187775, 0.12448593974113464, -0.11986415088176727, 0.0061238110065460205, 0.16053494811058044, -0.10097939521074295, 0.11954668164253235, -0.1178276538848877, -0.14079545438289642, -0.06759097427129745, 0.045198336243629456, 0.00832366943359375, 0.06478101015090942, 0.07898423075675964, 0.06199170649051666, -0.05110916495323181, 0.06725752353668213, -0.01768524944782257, 0.09666401147842407, 0.1360257863998413, 0.011010870337486267, 0.1400439441204071, 0.033367425203323364, 0.032300129532814026, -0.0029409676790237427, -0.12025084346532822], [-0.15106366574764252, -0.11911243945360184, -0.08133021742105484, -0.16262492537498474, 0.1405676007270813, 0.05061057209968567, -0.09394795447587967, 0.1094292402267456, -0.01449255645275116, 0.1643659770488739, 0.11307817697525024, 0.06130629777908325, -0.1330782175064087, -0.13243037462234497, -0.0022033601999282837, 0.014853596687316895, 0.13714158535003662, 0.04126809537410736, -0.13822871446609497, 0.024734854698181152, 0.037736549973487854, 0.08224424719810486, 0.022765815258026123, 0.14785614609718323, -0.060909710824489594, 0.11055684089660645, -0.15199999511241913, 0.17129772901535034, -0.04770417511463165, -0.03560788929462433, -0.0829906165599823, 0.06834399700164795, 0.13336557149887085, 0.10849866271018982, 0.010913550853729248, -0.11205602437257767, -0.10741311311721802, 0.14668142795562744, -0.09788622707128525, -0.10781890898942947, 0.03958094120025635, 0.017547830939292908, 0.1600499451160431, 0.12616828083992004, 0.0428997278213501, 0.06051047146320343, 0.025825634598731995, -0.08652326464653015, 0.06262069940567017, 0.0817364752292633, 0.11128184199333191, -0.03920409083366394, -0.085605189204216, 0.15959325432777405, 0.0729554295539856, 0.03553110361099243, 0.027109622955322266, -0.17192532122135162, -0.16298402845859528, -0.08089323341846466, 0.07987698912620544, 0.11810663342475891, -0.15595228970050812, 0.15080618858337402, 0.17390313744544983, -0.13134518265724182, 0.10535883903503418, 0.03474901616573334, 0.062051162123680115, 0.1731381118297577, 0.08662810921669006, -0.044139668345451355, 0.049332886934280396, -0.17715944349765778, 0.16064268350601196, -0.14563274383544922, -0.01797272264957428, -0.12645341455936432, 0.008402302861213684, 0.10348489880561829, 0.16035407781600952, 0.11215054988861084, 0.12602734565734863, 0.16974622011184692, 0.1549300253391266, 0.08230578899383545, -0.09136330336332321, 0.08285054564476013, -0.10316188633441925, -0.08517742156982422, -0.011833488941192627, -0.09478063136339188, 0.05511115491390228, 0.09109708666801453, -0.07506632804870605, -0.1610131561756134, -0.07970213145017624, 0.14047712087631226, -0.057824186980724335, 0.10540831089019775, -0.16196319460868835, -0.026362597942352295, -0.09533508121967316, -0.0996222272515297, -0.06222788244485855, -0.037133872509002686, -0.07450688630342484, -0.12013396620750427, 0.11883190274238586, 0.047766923904418945, 0.16953831911087036, 0.022800371050834656, 0.07930454611778259, 0.06257560849189758, -0.016825273633003235, -0.03784455358982086, -0.07498020678758621, -0.09028849750757217, -0.019576296210289, -0.05180889368057251, 0.028935372829437256, -0.06381475925445557, 0.1113508939743042, 0.05238933861255646, -0.08227812498807907, 0.16532588005065918, -0.13773304224014282, -0.1434144228696823], [0.07559851557016373, 0.009818208403885365, 0.0828598141670227, -0.13237044215202332, -0.05236424133181572, -0.10831780731678009, 0.2824823260307312, 0.22163869440555573, -0.08953837305307388, -0.0032274157274514437, 0.013817615807056427, -0.09716290235519409, 0.012815719470381737, 0.09895923733711243, 0.26564550399780273, -0.0016725065652281046, -0.5804975628852844, -0.181316539645195, -0.6182612776756287, 0.09355203062295914, 0.22878701984882355, -0.14349031448364258, -0.5047003626823425, 0.18498067557811737, 0.42341750860214233, -0.06645111739635468, -0.37989094853401184, 0.08783937245607376, -0.03967053443193436, -0.18524625897407532, -0.14186769723892212, -0.1340249627828598, -0.17017348110675812, -0.13714557886123657, -0.00647150119766593, 0.11403078585863113, 0.8075522184371948, -0.03032640367746353, -0.39462292194366455, 0.3779977560043335, 0.5630683898925781, 0.10220664739608765, -0.0359375923871994, -0.03718596324324608, -0.12661729753017426, -0.10681571066379547, -0.11667926609516144, -0.06129167973995209, -0.16713355481624603, -0.1970127671957016, -0.030530570074915886, 0.05751166492700577, 0.16716307401657104, -0.21796458959579468, 0.1812606006860733, 0.6623421907424927, 0.39817073941230774, -0.12473965436220169, 0.18565425276756287, 0.4233560562133789, 0.00220200652256608, -0.1030731052160263, -0.14783982932567596, -0.23359304666519165, -0.10700206458568573, -0.0706704705953598, -0.25708433985710144, 0.4215294420719147, 0.6995144486427307, 0.0013468563556671143, -0.1630556434392929, 0.0951341912150383, 0.040488820523023605, -0.12109991163015366, -0.06731841713190079, 0.15386910736560822, -0.009877081029117107, 0.0024873106740415096, 0.39837756752967834, -0.01365132536739111, -0.41039973497390747, 0.014101799577474594, -0.2298731803894043, -0.1349114030599594, 0.08990098536014557, 0.047855038195848465, -0.18226803839206696, 0.2173076719045639, -0.2539869546890259, 0.9850618243217468, -0.04882315546274185, -0.047821495682001114, -0.1158553883433342, -0.1954668164253235, 0.2721909284591675, 0.21102014183998108, 0.5877190828323364, 0.04461493715643883, 0.15006138384342194, 0.005144864786416292, 0.04521656781435013, -0.3916635513305664, -0.02026349864900112, -0.12135907262563705, 1.1194140911102295, 0.25991368293762207, -0.23077037930488586, 0.07632394880056381, -0.503173291683197, -0.8716374039649963, -0.03585595265030861, 0.5426144003868103, -0.0899701714515686, 0.4917968809604645, 0.053224027156829834, 0.740673840045929, -0.05488961562514305, 0.3395092189311981, 0.1568358987569809, -0.13846921920776367, -0.7460669279098511, 0.2882551848888397, -1.1762079000473022, 0.3143150210380554, -0.9330530166625977, -0.10397816449403763, 0.03976370021700859, -0.12283608317375183], [-0.48136577010154724, -0.5936651825904846, 0.31574249267578125, 0.5763638019561768, 0.1153189167380333, 0.36703604459762573, -0.12574435770511627, 0.9560925364494324, 0.1656278520822525, -0.46302253007888794, -0.2587099075317383, 0.5703048706054688, 0.2780286371707916, 0.21594896912574768, -0.5871580243110657, 0.5043683648109436, -0.07930434495210648, -0.4150518774986267, -0.19441509246826172, 0.5241352319717407, -0.13609278202056885, -0.19544431567192078, 0.24918042123317719, -0.5685659646987915, -0.10111235827207565, 0.2123289853334427, -0.4202861189842224, 0.8635488748550415, 0.004149258136749268, 0.0205970648676157, -0.36357393860816956, -0.4988408386707306, -0.11138866096735, 0.5332409143447876, -1.0701290369033813, -0.24766792356967926, 0.04629409685730934, 0.23469816148281097, -0.4544849693775177, 0.18941307067871094, -0.4245343804359436, -0.3248409628868103, 0.04110458493232727, -0.5150367617607117, 0.36251357197761536, -0.10192494839429855, 0.7535463571548462, 0.06641105562448502, -0.12219115346670151, -0.10597144067287445, -0.029345514252781868, -0.21209542453289032, -0.4033297002315521, -0.6406335830688477, -0.811927080154419, 0.10345922410488129, -0.5014203786849976, -0.12805208563804626, -0.6663166284561157, 0.10381268709897995, -0.22041669487953186, -1.1504212617874146, -0.012703890912234783, 0.45802927017211914, -0.07110695540904999, -0.1711171567440033, 0.06827797740697861, -0.3569350242614746, 0.12731128931045532, 1.3478535413742065, -0.0272238627076149, 0.14929203689098358, 0.24289646744728088, -0.4128681719303131, -0.18463905155658722, -0.5400559306144714, 0.6576230525970459, -1.119141936302185, 0.3669719099998474, -0.3834257423877716, -0.6096154451370239, -0.06435535848140717, 0.030311647802591324, 0.05578084662556648, -0.5088162422180176, 0.6111141443252563, 0.028020687401294708, -0.09820451587438583, -0.28562504053115845, -0.000900968152564019, -0.35766562819480896, -0.2359553873538971, -0.3397388458251953, -0.6579952239990234, -0.11252421140670776, 0.19895943999290466, 0.3081333041191101, -0.2935542166233063, -0.33617034554481506, 0.3376983404159546, 0.06285172700881958, -0.11831079423427582, -0.769810140132904, -0.02609914541244507, 0.2522265911102295, 0.6065113544464111, -0.014751166105270386, 0.14667944610118866, -0.22473423182964325, -0.48624029755592346, 0.18296587467193604, 0.27002087235450745, -0.3926052749156952, 0.1394713968038559, -0.3699699640274048, -0.1478775590658188, 0.21009209752082825, -0.37541112303733826, -0.3938213586807251, 0.28864753246307373, 0.22233638167381287, 0.11203793436288834, 0.34049510955810547, -0.2863548696041107, -0.26688259840011597, 0.4200426936149597, 0.1186627522110939, 0.2473621517419815], [-0.07744049280881882, 0.05715181306004524, 0.3569673001766205, -0.5114216804504395, -0.11416032910346985, -0.5727921724319458, -0.15658368170261383, 0.10175923258066177, -0.025888701900839806, -0.17460568249225616, 0.29102298617362976, 0.49368032813072205, 0.5321434140205383, -0.02602735161781311, -0.2202589064836502, 0.8452306389808655, 0.16855184733867645, -0.14299727976322174, 0.20478026568889618, -0.1703673005104065, -0.11951681971549988, -0.022179678082466125, 0.02763580158352852, 0.16227294504642487, 0.4646488130092621, -0.6360484957695007, 0.07616322487592697, -0.1078166514635086, -0.11219462007284164, 0.0482059083878994, 0.09972734749317169, 0.36919814348220825, 0.8204753398895264, -0.010928349569439888, -1.2007330656051636, -0.04558784142136574, -0.11878135055303574, -0.31059956550598145, -0.08831582218408585, -0.11569325625896454, 0.23926350474357605, 0.11351954191923141, -0.13701312243938446, 0.16350775957107544, 0.10433804243803024, 0.43255144357681274, -0.12902583181858063, -0.20008039474487305, 0.090288445353508, -0.023726092651486397, -0.3381873667240143, 0.32952114939689636, 0.4553878605365753, -0.24412015080451965, 0.023420535027980804, -0.2055412083864212, 0.4204534590244293, -0.08811088651418686, -0.31794944405555725, -0.5088633894920349, 0.024772517383098602, -0.05207892507314682, 0.1556917279958725, 0.15533196926116943, 0.3565143644809723, 0.13660210371017456, 0.008225331082940102, 0.06467055529356003, -0.21021831035614014, -0.16766372323036194, 0.42264002561569214, -0.059783801436424255, -0.025550395250320435, 0.25988808274269104, -0.015673579648137093, -0.3884267807006836, 0.09572499245405197, -0.4030436873435974, 0.5488393306732178, 0.6169374585151672, -0.22546784579753876, 0.18881317973136902, 0.3513878881931305, 0.09900622069835663, -0.6425771117210388, 0.24245373904705048, -0.3624129593372345, 0.11503713577985764, -0.045222777873277664, -0.3370389938354492, 0.2079252451658249, 0.1782686412334442, 0.4457622766494751, 0.19658654928207397, -0.10183000564575195, 0.5638456344604492, -0.16731248795986176, 0.4645664393901825, 0.04030074179172516, -0.19722722470760345, 0.01679452508687973, -0.8088952898979187, 0.006957071367651224, 0.07595972716808319, -0.14695598185062408, -0.01514632161706686, -0.06835293024778366, -0.6698848605155945, -0.1387941539287567, 0.34573742747306824, 0.5201945304870605, -0.16713842749595642, 0.44933611154556274, 0.24892264604568481, 0.3849877715110779, 0.5099356770515442, 0.6958180069923401, 0.19002319872379303, 0.4394925534725189, -0.07634014636278152, -0.3774355351924896, -0.08740314841270447, -0.0908171609044075, 0.39330169558525085, -0.3062107264995575, -0.486386239528656, -0.08480121195316315, 0.3696288466453552], [0.07205758988857269, -0.10190832614898682, -0.026974890381097794, 0.30507683753967285, -0.24680961668491364, 0.19378739595413208, 0.25749650597572327, 0.09985563158988953, -0.04375845193862915, 0.1172269731760025, -0.006179420277476311, -0.17826764285564423, 0.0671999379992485, 0.09086190909147263, 0.33518898487091064, 0.08914664387702942, -1.4299074411392212, -0.025488926097750664, -0.40995723009109497, 0.04687279090285301, -0.04412972554564476, -0.19440752267837524, -1.0682474374771118, 0.02503887191414833, 1.1346096992492676, -0.02140565775334835, -0.5414902567863464, -0.0911773070693016, 0.3090551495552063, -0.3948191702365875, 0.14519786834716797, -0.0396973080933094, 0.1691877394914627, 0.029563602060079575, -0.08429443091154099, -0.08252039551734924, 0.24206294119358063, -0.6248629093170166, 0.3785264790058136, 0.4317026734352112, 0.1454346776008606, 0.17513130605220795, -0.17002321779727936, -0.47473660111427307, 0.03309401497244835, 0.11533408612012863, -0.07708011567592621, -0.5516125559806824, 0.41651591658592224, -0.03994700685143471, -0.028813138604164124, 0.17460782825946808, -0.14671358466148376, -0.22990985214710236, -0.0858551561832428, 0.2398870587348938, -0.008405615575611591, 0.6502586007118225, -0.09019098430871964, 0.13280202448368073, 0.03163296729326248, 0.14995457231998444, -0.5056858062744141, 0.09509429335594177, -0.42454028129577637, 0.027683399617671967, -0.12316638976335526, 0.8121069073677063, 0.7161369323730469, 0.11542725563049316, 0.1430421620607376, 0.497599333524704, -0.05806545168161392, 0.03731846436858177, 0.0021243083756417036, -0.1296638548374176, -0.1063397228717804, -0.03115895576775074, 1.0619934797286987, -0.17776867747306824, 0.09771591424942017, -0.1106032133102417, -0.14301544427871704, 0.04153851419687271, 0.029960868880152702, 0.05278496816754341, 0.1580485850572586, 0.34184277057647705, -0.1857101023197174, 0.5537047982215881, -0.017154302448034286, -0.09754481911659241, -0.09365903586149216, 0.115360327064991, -0.09537714719772339, -0.018024137243628502, 1.283197045326233, 0.5013216733932495, -0.25759562849998474, 0.07467952370643616, -0.047524672001600266, 0.14624637365341187, 0.15781448781490326, -0.4678749442100525, 0.4631149172782898, -0.19173084199428558, -0.2963860332965851, 0.042432088404893875, -0.15380117297172546, -0.4191362261772156, -0.04023745283484459, 0.34666451811790466, 0.16320013999938965, 0.8045318126678467, 0.1450100988149643, 1.249655842781067, -0.06752466410398483, 0.5124164819717407, 0.00250632525421679, -0.03539410978555679, -0.561622142791748, 0.5499247312545776, -0.5795416831970215, -0.2523025572299957, -0.5610861778259277, -0.13833555579185486, 0.13374102115631104, -0.11506236344575882], [-0.01657741330564022, -0.45614010095596313, 0.6795167922973633, -0.05121631547808647, -0.12891362607479095, -0.151502326130867, -0.1033293604850769, 0.21906982362270355, 0.1903729885816574, -0.38778266310691833, 0.09036389738321304, 0.6602678298950195, 0.02656690776348114, -0.06687673181295395, -0.31018099188804626, 0.8693417310714722, -0.41533491015434265, -0.25237807631492615, -0.3549801707267761, -0.024263666942715645, 0.08036156743764877, 0.26186251640319824, -0.07237602025270462, -0.11535760760307312, 0.23649033904075623, 0.0406871922314167, -0.02829117700457573, 0.4387935698032379, -0.22555968165397644, -0.20730742812156677, 0.13619613647460938, -0.19747622311115265, 0.1023155227303505, 0.31952551007270813, -1.0321145057678223, 0.3397834599018097, 0.10711712390184402, -0.03769766539335251, -0.2859061658382416, 0.18636292219161987, 0.11726641654968262, 0.1885521560907364, -0.6488064527511597, -0.008604087866842747, 0.21775293350219727, 0.10844077169895172, 0.17312581837177277, -0.14127390086650848, 0.04111756384372711, 0.476120263338089, -0.09455668181180954, 0.11487074941396713, 0.201902374625206, -0.2986677885055542, 0.25657787919044495, 0.04173344746232033, -0.49891871213912964, 0.3661738634109497, -0.15179897844791412, 0.4536231756210327, 0.3044717311859131, -0.5497916340827942, 0.1099114939570427, 0.25546208024024963, 0.3737281262874603, -0.2583916485309601, 0.06693213433027267, -0.35777992010116577, -0.4179951846599579, 0.4441627264022827, 0.0012814011424779892, -0.11229616403579712, 0.8247756958007812, -0.2982026934623718, -0.3107452392578125, -0.5474542379379272, 0.8109607100486755, -0.845521867275238, 0.566398024559021, 0.10419760644435883, -0.7176774144172668, 0.041070811450481415, 0.07527081668376923, 0.028891222551465034, -0.5741260051727295, 0.2954881489276886, 0.3873799741268158, 0.165413036942482, -0.35874471068382263, -0.32577255368232727, -0.1827675998210907, 0.10061336308717728, -0.006161506753414869, 0.06837613135576248, -0.681936502456665, 0.26078325510025024, -0.02430739253759384, -0.13499340415000916, 0.18185590207576752, 0.3807961940765381, 0.2197169065475464, 0.19708317518234253, -0.14936935901641846, 0.03920472413301468, -0.19355565309524536, 0.7052027583122253, 0.03057447262108326, 0.04651566967368126, 0.011626510880887508, -0.44876381754875183, 0.12525001168251038, -0.1537056714296341, 0.3531172573566437, -0.019268861040472984, -0.11820374429225922, -0.05269387364387512, 0.39005783200263977, -0.05576993525028229, -0.14878281950950623, 0.3511112630367279, -0.3482853174209595, 0.1584072709083557, -0.37154778838157654, 0.13871566951274872, -0.1365346908569336, -0.025705670937895775, -0.5027520060539246, 0.35575568675994873], [0.29654765129089355, 0.1531224548816681, 0.0739254280924797, -0.1933988779783249, 0.33711495995521545, -0.36365580558776855, 0.034787874668836594, -0.048018936067819595, -0.1375221163034439, -0.0014441992389038205, 0.0497283898293972, 0.14285799860954285, 0.2520112693309784, 0.0936615988612175, 0.026286378502845764, 0.157429039478302, -0.12826207280158997, 0.031665779650211334, 0.08112108707427979, -0.1203136071562767, 0.03633576259016991, 0.1764295995235443, -0.2040371596813202, 0.2977879047393799, -0.230403870344162, -0.21826118230819702, -0.22532398998737335, -0.38267019391059875, 0.26864713430404663, -0.32447028160095215, -0.4062814712524414, 0.15031559765338898, 0.38900038599967957, -0.08332441747188568, -0.3147381842136383, -0.254220575094223, -0.11859624832868576, -0.22071482241153717, 0.114405557513237, -0.013528982177376747, -0.08555655181407928, -0.12061019241809845, -0.3843192160129547, -0.20866994559764862, -0.1463489532470703, 0.15381546318531036, -0.21213731169700623, -0.01799619197845459, -0.09533243626356125, -0.0034550554119050503, -0.3283638060092926, -0.14082887768745422, 0.3864235281944275, -0.11007422208786011, -0.15707068145275116, 0.02423005737364292, 0.11679345369338989, -0.2396317571401596, -0.2979223132133484, -0.28385061025619507, 0.2350616753101349, 0.0990171730518341, 0.028947241604328156, -0.260623037815094, 0.1353389173746109, 0.489788293838501, 0.19392141699790955, 0.0016051855636760592, 0.11250695586204529, -0.3719109892845154, 0.22532469034194946, -0.07602015137672424, -0.16186906397342682, 0.06424427777528763, 0.04365327209234238, -0.2878969609737396, 0.04739248380064964, -0.4183434545993805, -0.17565935850143433, -0.10027078539133072, 0.04820181056857109, 0.1695341020822525, 0.10548011213541031, -0.15530775487422943, -0.3370860815048218, 0.3207639157772064, -0.1721946895122528, 0.3717147707939148, 0.1357404589653015, -0.15283793210983276, -0.02596445381641388, 0.20224858820438385, 0.09808703511953354, 0.22027556598186493, -0.20656445622444153, 0.2791920304298401, -0.19703292846679688, 0.018318209797143936, 0.06484954804182053, -0.14791782200336456, -0.006615274120122194, -0.7395662069320679, 0.23201371729373932, 0.24649864435195923, 0.09372396767139435, -0.2381507009267807, -0.24110005795955658, -0.24057266116142273, -0.151072159409523, 0.5620526075363159, 0.20792531967163086, 0.3374300003051758, 0.015913382172584534, 0.05568526312708855, 0.020660048350691795, -0.10047727823257446, -0.02348434552550316, -0.12029949575662613, -0.1997642070055008, -0.12348784506320953, 0.09145957976579666, -0.06552237272262573, 0.1377941519021988, -0.09303189069032669, -0.2858128845691681, -0.2864953875541687, 0.2435670644044876, 0.343622088432312], [-0.07750552892684937, 0.3056979775428772, -0.09497465193271637, -0.011053092777729034, 0.054144203662872314, -0.1449470818042755, 0.6240848302841187, 0.012896565720438957, 0.4653153121471405, 0.08794627338647842, 0.244944766163826, -0.12081558257341385, -0.18211835622787476, -0.04685520753264427, 0.2762170732021332, 0.03561774641275406, -0.6091750264167786, 0.14410334825515747, 0.44076719880104065, -0.2800258696079254, -0.6785041689872742, 0.28735411167144775, -0.18377360701560974, -0.05083085969090462, 0.4099389314651489, -0.06176764890551567, -0.7855106592178345, 0.11545497179031372, -0.02256743609905243, -0.1456574946641922, -0.1228250190615654, -0.05150456354022026, 0.039690762758255005, 0.1079116016626358, -0.08752407133579254, 0.07705137133598328, 0.10228817909955978, -0.3013822138309479, 0.6847864389419556, 0.5829809904098511, -0.6766988039016724, -0.12076302617788315, -0.16210967302322388, -0.8140090703964233, -0.027241308242082596, -0.015511694364249706, -0.008276592008769512, -0.8621872067451477, 0.5435040593147278, 0.00840167049318552, 0.12643703818321228, -0.3718618154525757, 0.0039080847054719925, 0.11833216995000839, -0.31516847014427185, -0.26985570788383484, -0.5468803644180298, 0.7505478262901306, 0.01722119189798832, -0.12299088388681412, -0.08292143046855927, 0.04297870025038719, -0.2818443775177002, 0.2680554986000061, -0.46577104926109314, 0.005763181019574404, -0.48626869916915894, 0.42120328545570374, -0.0036220955662429333, -0.1632307469844818, 0.26420924067497253, 0.3359650671482086, 0.045846063643693924, -0.037644896656274796, 0.12429853528738022, -0.05094628408551216, 0.06611000746488571, -0.13340704143047333, 0.6211327314376831, -0.018489545211195946, 0.10589099675416946, -0.3071967363357544, 0.005465518217533827, 0.03737446665763855, -0.14108353853225708, -0.14940263330936432, -0.028744155541062355, 0.15693601965904236, -0.15017646551132202, -0.2536969780921936, -0.10639314353466034, 0.37344202399253845, -0.3521289527416229, 0.11715707182884216, -0.19040049612522125, 0.16017891466617584, 0.5052602887153625, 0.92867112159729, -0.22106823325157166, 0.1452898234128952, 0.09697819501161575, -0.09457338601350784, -0.09989737719297409, -0.20211173593997955, 0.15460814535617828, -0.09479209780693054, -0.2508523464202881, -0.22099363803863525, 0.624836266040802, -0.11705319583415985, 0.10344048589468002, -0.13771827518939972, -0.09432670474052429, 0.010210630483925343, 0.052525777369737625, 0.6348257660865784, -0.13916268944740295, 0.46449124813079834, -0.11496280878782272, -0.06411072611808777, 0.2556951344013214, -0.545128583908081, -0.37905752658843994, -0.04688699170947075, -0.059705205261707306, -0.03928481042385101, 0.00732029415667057, 0.017173483967781067], [0.4970671832561493, -0.4983940124511719, 0.3197665214538574, 0.04027079790830612, 0.09162938594818115, -0.5320057272911072, -0.2130475491285324, 0.3570151627063751, -0.024295710027217865, -0.46385657787323, 0.10438904166221619, -0.24121074378490448, 0.34392812848091125, 0.16805312037467957, 0.0820937305688858, 0.17570535838603973, -0.3105275332927704, -0.5453544855117798, -0.39298179745674133, 0.38913995027542114, 0.03475606068968773, 0.2830129563808441, -0.31797677278518677, 0.5682567954063416, -0.06108072027564049, 0.20400433242321014, 0.1533018946647644, -0.3375934362411499, -0.11257687956094742, -0.27150759100914, 0.5963053107261658, -0.04632812365889549, 0.6542635560035706, 0.13431911170482635, -0.9686353802680969, 0.0025928819086402655, -0.1292276531457901, -0.10052087157964706, 0.19774280488491058, 0.009255064651370049, 0.22673623263835907, 0.6614730954170227, -0.30609995126724243, -0.1428253948688507, 0.22474069893360138, 0.3708721399307251, -0.113822802901268, -0.12500089406967163, 0.1020541787147522, 0.9186540842056274, -0.5820863246917725, 0.009388580918312073, -0.3957316279411316, -0.07316144555807114, 0.35476332902908325, 0.3142966330051422, -0.028561249375343323, 0.016083523631095886, 0.21058140695095062, 0.7587352395057678, 0.5250461101531982, -0.4550876319408417, -0.026007533073425293, 0.0010332516394555569, 0.06771653145551682, -0.35973551869392395, -0.08129805326461792, -0.3102430999279022, -0.31612786650657654, 0.37350624799728394, 0.07025143504142761, -0.2668924927711487, -0.1072881892323494, 0.6251611113548279, 0.19638241827487946, -0.22585542500019073, 0.13534411787986755, -0.48709362745285034, -0.19320152699947357, 0.37805312871932983, 0.0719321221113205, -0.11915237456560135, -0.4547007977962494, 0.009530548937618732, 0.17475198209285736, 0.559662401676178, -0.4003535211086273, 0.19128166139125824, 0.30090680718421936, -0.19007468223571777, -0.33344706892967224, 0.182512104511261, 0.06208931654691696, -0.3720681667327881, 0.12657086551189423, 0.3364730775356293, -0.13723723590373993, 0.028709519654512405, 0.15573135018348694, 0.19848905503749847, 0.20987077057361603, -0.14247436821460724, 0.5112072229385376, -0.19791558384895325, -0.285880446434021, -0.4063337445259094, -0.2379123717546463, 0.012129424139857292, 0.31240716576576233, -0.21619148552417755, -0.34116846323013306, -0.19239729642868042, -0.10693296045064926, -0.11393995583057404, -0.058371689170598984, -0.27475136518478394, 0.3389134109020233, -0.19778874516487122, -0.23910866677761078, -0.2995932102203369, -0.07157176733016968, 0.32362350821495056, -0.23154976963996887, -0.034732893109321594, -0.27332592010498047, -0.9270952343940735, 0.3704364001750946, 0.3262975215911865], [-0.07020898163318634, 0.11972171068191528, -0.00047950600855983794, 0.2129334807395935, 0.2585972249507904, -0.11143767088651657, 0.13302935659885406, -0.04649675637483597, -0.052728958427906036, 0.21042492985725403, -0.14897692203521729, -0.17732004821300507, 0.058766331523656845, -0.19956505298614502, 0.2822318375110626, 0.16030575335025787, -0.0010721508879214525, -0.09542157500982285, 0.016994167119264603, -0.04702325537800789, -0.06137830391526222, 0.132785826921463, -0.09372780472040176, 0.10411646217107773, -0.05280955880880356, -0.27789708971977234, -0.03801320120692253, 0.002546735340729356, 0.6160697340965271, -0.33574607968330383, -0.4570867419242859, 0.21825239062309265, -0.14040128886699677, 0.017910102382302284, -0.23661236464977264, -0.4820616841316223, 0.034113649278879166, -0.29862719774246216, 0.36719968914985657, 0.037922829389572144, -0.21341590583324432, -0.09761521220207214, -0.054300423711538315, -0.27279016375541687, 0.07744014263153076, 0.02178318426012993, 0.024176588281989098, 0.04095809906721115, -0.007377338595688343, -0.43412625789642334, -0.04626256972551346, -0.1292545348405838, 0.16734258830547333, 0.13118115067481995, 0.19264350831508636, 0.10198082774877548, 0.04463706165552139, -0.18342389166355133, -0.1896481066942215, -0.18737025558948517, 0.21988044679164886, -0.004456008784472942, -0.06095898896455765, -0.7424485683441162, -0.023017803207039833, 0.25381022691726685, -0.09582697600126266, -0.2229650616645813, 0.14219561219215393, -0.4857079088687897, -0.26276323199272156, 0.2122887820005417, -0.0386364720761776, 0.02515190839767456, 0.11610595881938934, -0.1340663731098175, 0.35030150413513184, -0.06869690865278244, -0.142828106880188, -0.04116382077336311, 0.02690127305686474, -0.0337548702955246, 0.019207295030355453, -0.07490568608045578, 0.15622730553150177, 0.046471282839775085, 0.04437391087412834, -0.04651036113500595, 0.2529120147228241, -0.26732173562049866, -0.22117188572883606, 0.07402443885803223, -0.11956486105918884, 0.21951596438884735, -0.19140206277370453, -0.16861988604068756, -0.17021319270133972, -0.10738199949264526, -0.2325911670923233, 0.09744832664728165, 0.3406239151954651, -0.5258857607841492, 0.07101647555828094, -0.22250336408615112, -0.1579113006591797, -0.2507348954677582, -0.14074574410915375, -0.30008238554000854, -0.1550186425447464, 0.3183368146419525, -0.18519936501979828, 0.34631454944610596, -0.09360116720199585, -0.15004217624664307, -0.539378821849823, 0.02882341668009758, -0.046986352652311325, -0.35216501355171204, -0.3551582098007202, -0.183847576379776, 0.07034347206354141, 0.06802935153245926, 0.17918981611728668, -0.3212308883666992, -0.3524479269981384, -0.19441603124141693, 0.1325778365135193, 0.23730215430259705], [-0.15258438885211945, 0.023973938077688217, 0.18715307116508484, -0.5156528949737549, 0.15677690505981445, -0.28880828619003296, 0.5788031220436096, -0.08387690782546997, 1.5029692649841309, -0.24419154226779938, 1.1060577630996704, 0.1705997884273529, 0.10000097006559372, 0.027819165959954262, 0.46139609813690186, 0.1484663337469101, 1.5308740139007568, -0.13763311505317688, 1.4669142961502075, -0.16691197454929352, -1.8058242797851562, 1.3022890090942383, 1.344014048576355, -0.13713417947292328, -1.1631836891174316, 0.09070023149251938, -1.3622337579727173, -0.005242622457444668, -0.5128125548362732, 0.40722033381462097, 0.08335793763399124, 0.10142714530229568, -0.07383587211370468, 0.022681426256895065, 0.16173221170902252, -0.13326627016067505, 0.4816019535064697, 1.061808705329895, 0.8338054418563843, 1.2749080657958984, -1.96993088722229, -0.031129587441682816, 0.1915997564792633, 0.4531624913215637, 0.12277860939502716, -0.02198241464793682, -0.029254265129566193, -1.247269630432129, 0.5749524235725403, 0.1072397232055664, -0.2154804915189743, -0.7684141397476196, 0.0245103370398283, 0.28230857849121094, -0.10503046959638596, -0.3856006860733032, -0.7778192162513733, 0.4325725734233856, 0.019972331821918488, -0.23493291437625885, 0.04675345495343208, -0.12953560054302216, -0.6626250147819519, -0.07717030495405197, -0.5734099745750427, -0.0031216584611684084, -0.20458106696605682, -0.6789906620979309, -0.7996430397033691, 0.14771464467048645, 0.16119082272052765, 0.34008270502090454, 0.059805210679769516, -0.18921126425266266, -0.12455390393733978, -0.1792435348033905, 0.013359636068344116, -0.1412225365638733, -0.7574154734611511, -0.044191185384988785, 0.15741318464279175, -0.2968606948852539, 0.14090315997600555, 0.1551962047815323, 0.015699336305260658, 0.0911254733800888, -0.025042129680514336, -0.3473430573940277, 0.07754581421613693, -0.28608471155166626, -0.02666630782186985, 1.0392125844955444, -0.4614085555076599, -0.05130777880549431, -0.1614956110715866, -0.10461360216140747, -1.3321765661239624, 1.3206645250320435, -0.5589322447776794, -0.08628786355257034, -0.07251082360744476, -0.4938631057739258, -0.06785178929567337, 0.633921205997467, -0.6188728213310242, 0.17079894244670868, 0.02193361520767212, 0.22216954827308655, 1.7148613929748535, -0.01996026188135147, -0.1375272423028946, -0.5662553906440735, -0.08930475264787674, -0.524664044380188, -0.10768530517816544, -1.655104637145996, -0.08300535380840302, 0.8077946901321411, -0.03243250772356987, 0.09680528193712234, 1.0011420249938965, -1.7434109449386597, -0.176786869764328, 0.14419126510620117, 0.4344508945941925, -0.06642033904790878, -0.050696637481451035, 0.0902448520064354], [0.03946443274617195, -0.95633864402771, 0.14094722270965576, -0.40507569909095764, -0.8608397841453552, -0.34280866384506226, -0.05229008197784424, 1.2346010208129883, -0.5494195818901062, -0.021702349185943604, -0.11253431439399719, -0.5830367207527161, 0.4684050679206848, -0.1603836864233017, -0.14996947348117828, -0.5114082098007202, 0.835780680179596, -0.9711809754371643, -0.23522008955478668, 1.1083858013153076, -0.3013518154621124, 0.13745173811912537, 0.9792081713676453, 0.0617348775267601, 0.2761072516441345, 0.4809947609901428, -0.3752211332321167, -0.3213963508605957, -1.3180667161941528, 1.3361555337905884, 1.3797929286956787, -0.2822657823562622, 1.2840193510055542, -0.39062923192977905, -0.3995324373245239, 0.5216465592384338, -0.35868239402770996, 0.30731818079948425, 0.012222853489220142, 0.04399149492383003, -0.09981801360845566, 1.2686444520950317, 1.5004665851593018, 0.3508158326148987, -0.3235262334346771, 0.3216571509838104, -0.5251338481903076, 0.024742774665355682, -0.06209464743733406, 0.6541160941123962, -0.7982490658760071, -0.22513528168201447, -1.0286312103271484, 0.5931933522224426, -0.01707647182047367, 0.5321016907691956, 0.1669549196958542, -0.38622260093688965, 0.7136569619178772, 1.1884042024612427, 0.753909170627594, 0.3195813000202179, 0.19460709393024445, 0.24284549057483673, 0.0723675861954689, -1.2649054527282715, 0.12033407390117645, 0.9839627146720886, 0.8597447276115417, 0.8126929402351379, -0.22736096382141113, 0.08579717576503754, -0.5617438554763794, 0.7243426442146301, 0.16757656633853912, 0.17943377792835236, -0.9680155515670776, -0.12560172379016876, -0.07735946774482727, 0.02572103962302208, 0.5258335471153259, 0.01681438833475113, -1.2839421033859253, 0.5298084616661072, 0.6552438735961914, 0.5290937423706055, -0.3934635818004608, -0.1609944850206375, -0.4299764335155487, 0.32371702790260315, -0.839019775390625, -0.37741315364837646, -0.5013320446014404, -1.0313353538513184, 0.9059375524520874, 0.8584730625152588, 0.2819513976573944, -0.3625498414039612, 0.1823941022157669, -0.5279288291931152, -0.7522165179252625, -0.20915231108665466, 0.2835291028022766, -0.3975083827972412, -0.08520052582025528, -0.6077156066894531, 0.501680850982666, 0.056516699492931366, 0.02728889510035515, 0.2534034252166748, -0.25616031885147095, -1.0500036478042603, 0.20265784859657288, 0.5809355974197388, -0.3758680522441864, 0.6008797883987427, 0.5944559574127197, -0.05529777333140373, 0.37920448184013367, -0.7612414956092834, 0.09011733531951904, -0.31731078028678894, -0.07005047053098679, -0.09866943210363388, -0.30671998858451843, -1.1263774633407593, 0.7935258746147156, 0.3185323178768158], [-0.3800123631954193, -0.10057367384433746, 0.0286561306566, 0.694639265537262, 0.058518167585134506, 0.41958823800086975, -0.09620393812656403, 0.05881624296307564, 0.4353916645050049, 0.32170888781547546, -0.06281199306249619, -0.2323893904685974, -0.15263918042182922, -0.24719706177711487, 0.26377415657043457, -0.09337985515594482, -0.03305819258093834, 0.015383996069431305, 0.2510932683944702, -0.02913477271795273, 0.47707289457321167, -0.08886141330003738, 0.1922553926706314, -0.28245842456817627, 0.032721713185310364, -0.3730076253414154, 0.14337454736232758, 0.1654575616121292, 1.2847391366958618, 0.16309279203414917, -0.22311492264270782, 0.3748697340488434, -0.04052865132689476, -0.13560718297958374, -0.1216198280453682, -0.12559156119823456, -0.14354325830936432, 0.2814483940601349, 0.4438696801662445, -0.07121573388576508, 0.04965563863515854, -0.04709156975150108, 0.21955183148384094, 0.008011124096810818, 0.5970224142074585, -0.1297736018896103, 0.023516498506069183, 0.19941937923431396, -0.09023928642272949, -0.635341465473175, 0.2689054310321808, -0.2251461148262024, -0.17421764135360718, 0.3773212134838104, 0.6105002164840698, 0.12348981201648712, -0.051073890179395676, -0.09601736813783646, -0.03478369116783142, -1.944488030858338e-05, 0.10933039337396622, 0.35594305396080017, -0.28967782855033875, -0.7082148194313049, -0.28938284516334534, -0.12253490835428238, 0.016633303835988045, -0.10065281391143799, 0.03828977420926094, -0.09970580786466599, -0.3867090344429016, -0.04155397042632103, -0.15834985673427582, 0.10545938462018967, 0.2775127589702606, -0.12496818602085114, 0.18119150400161743, -0.24549373984336853, 0.06043926998972893, -0.19935449957847595, -0.3939127027988434, -0.23706504702568054, -0.44103002548217773, 0.07422381639480591, 0.35555607080459595, 0.6348814964294434, 0.12340188026428223, -0.2948755621910095, 0.25244516134262085, -0.2966446280479431, -0.32675617933273315, 0.04792477563023567, -0.016991829499602318, -0.2110063135623932, 0.18705511093139648, 0.3023005425930023, 0.24850676953792572, -0.12354566901922226, -0.14547765254974365, 0.18506506085395813, 0.5272397994995117, -0.16590625047683716, -0.41437146067619324, -0.05770845711231232, -0.16525334119796753, 0.03637188673019409, 0.35812702775001526, 0.39839428663253784, 0.24463056027889252, 0.16614854335784912, -0.20644010603427887, 0.17437660694122314, -0.07109855115413666, 0.29164546728134155, -0.4120863676071167, -0.0030797028448432684, -0.07475808262825012, -0.03715764731168747, 0.018807288259267807, -0.23456944525241852, -0.06276343017816544, -0.03143184632062912, -0.08616550266742706, -0.38745641708374023, -0.45705950260162354, -0.4701545834541321, 0.0009224109817296267, 0.10872542858123779], [-0.08849489688873291, 0.0012064110487699509, 0.16832485795021057, -0.09271463006734848, -0.19851042330265045, 0.5871750712394714, 0.08523155003786087, -0.1481824517250061, 0.3236798346042633, 0.14031217992305756, 0.008642101660370827, -0.08731122314929962, -0.13320982456207275, 0.20248356461524963, 0.12824034690856934, 0.026151085272431374, -0.28393909335136414, -0.06561530381441116, 0.06797568500041962, -0.23080341517925262, -0.00886019878089428, 0.36672884225845337, -0.4800303876399994, 0.01229615043848753, 0.44810986518859863, 0.16162626445293427, -0.15399253368377686, -0.06062482297420502, 0.0487031415104866, 0.0889057070016861, -0.1316308081150055, 0.0586656853556633, -0.1060723215341568, -0.047028545290231705, 0.2394622266292572, -0.06311536580324173, -0.2835812270641327, -0.19771011173725128, -0.04115910455584526, 0.37540265917778015, 0.010901322588324547, -0.1337338089942932, 0.07178633660078049, 0.19135014712810516, -0.060445163398981094, -0.05193118751049042, 0.05513592064380646, -0.5866619944572449, -0.03785086050629616, -0.04279320687055588, 0.04766162484884262, -0.09855902194976807, -0.09097425639629364, -0.3577103018760681, -0.10987654328346252, 0.05633464828133583, 0.3206173777580261, -0.02857528068125248, 0.18971464037895203, 0.06826184689998627, -0.071222685277462, 0.00014980242121964693, -0.0724869817495346, -0.20697630941867828, -0.050251513719558716, 0.050749413669109344, -0.27384841442108154, -0.26873528957366943, 0.14285321533679962, 0.10366671532392502, 0.13656935095787048, 0.4749717116355896, -0.04222096875309944, 0.06643465906381607, 0.10570919513702393, 0.13672146201133728, -0.012873792089521885, 0.17583627998828888, 0.30151110887527466, -0.033468879759311676, 0.009801280684769154, -0.06440618634223938, 0.09088706225156784, -0.02556040696799755, 0.00024995236890390515, 0.1957649141550064, 0.061500709503889084, 0.13542033731937408, -0.22004997730255127, -0.10815991461277008, 0.1214568093419075, 0.0077944002114236355, -0.2926280200481415, 0.03803360462188721, 0.31313055753707886, -0.08882229030132294, 0.9754257798194885, 0.14235123991966248, -0.12319449335336685, -0.01992899551987648, 0.15509134531021118, 0.6295874118804932, 0.019336525350809097, -0.2966872453689575, 0.5761380195617676, -0.09351765364408493, 0.22381813824176788, -0.04143210127949715, -0.13875490427017212, -0.23098522424697876, -0.011027010157704353, 0.3293428421020508, -0.10125719755887985, 0.5122941732406616, -0.18974700570106506, -0.14664983749389648, -0.1273004561662674, 0.10229146480560303, 0.028035970404744148, -0.03287876024842262, -0.8229478001594543, -0.02330956794321537, -0.8682761192321777, 0.24664364755153656, -0.187943235039711, -0.17981977760791779, 0.15013262629508972, 0.06763731688261032], [-0.4676896631717682, -0.29756686091423035, 0.058599766343832016, -0.31351345777511597, 0.4419344961643219, 0.401552677154541, 0.19480739533901215, -0.42693474888801575, -0.03989117592573166, -0.3192528188228607, 0.22801023721694946, 0.2837132513523102, 0.21212224662303925, -0.06094397231936455, -0.15420249104499817, 0.3247644305229187, -0.14904800057411194, 0.024988986551761627, 0.04067401587963104, -0.20493420958518982, -0.23393012583255768, -0.05453791096806526, -0.40339571237564087, -0.31331706047058105, 0.00823671743273735, 0.9908753037452698, 0.02543678879737854, -0.03910065069794655, -0.09918694943189621, -0.4148654639720917, -0.12318643182516098, 0.3920552432537079, 0.20570379495620728, -0.12739765644073486, -0.25925347208976746, -0.23946796357631683, 0.5013712644577026, 0.4831411838531494, -0.15637263655662537, 0.11579863727092743, 0.002658034674823284, 0.1355466991662979, -0.5656583905220032, -0.2945348024368286, 0.08070053160190582, 0.3123166859149933, -0.32170096039772034, 0.00040896510472521186, -0.1403925120830536, -0.47581130266189575, -0.06874722242355347, 0.07839443534612656, 0.6622765064239502, -0.03394750878214836, 0.26923835277557373, 0.2854152023792267, -0.14126569032669067, -0.03842819854617119, 0.17097409069538116, 0.16631197929382324, 0.23537027835845947, -0.7897509336471558, -0.10560666769742966, 0.07168056815862656, 0.17530463635921478, -0.25151199102401733, -0.18696652352809906, -0.47832539677619934, -0.09550368785858154, 0.0306837297976017, -0.07514911144971848, 0.03535080701112747, -0.19809077680110931, -0.4350760579109192, -0.3042662441730499, -0.16879108548164368, 0.3956716060638428, -0.09953472018241882, -0.027022510766983032, 0.06959187984466553, -0.9475459456443787, -0.09881772845983505, 0.9557487368583679, -0.07976128906011581, -0.11287390440702438, -0.07532485574483871, 0.20877677202224731, 0.023380672559142113, -0.22471490502357483, 0.07003123313188553, 0.0860176831483841, -0.012605391442775726, -0.09353329986333847, -0.3857857882976532, -0.491037517786026, -0.15502358973026276, 0.09655274450778961, 0.016463685780763626, -0.2114725410938263, 0.03568436950445175, 0.04119187220931053, 0.8314902782440186, -0.24419401586055756, 0.26699092984199524, 0.24511690437793732, -0.10419997572898865, -0.04538312181830406, 0.25045645236968994, -0.04463934525847435, 0.20720572769641876, -0.19148056209087372, 0.07908909767866135, -0.07695811241865158, -0.26660266518592834, 0.36944815516471863, -0.027146484702825546, -0.1821456402540207, -0.2758956551551819, -0.21670380234718323, 0.1873583197593689, 0.12888891994953156, 0.014195163734257221, 0.4607688784599304, 0.2065245807170868, 0.33283695578575134, 1.4129287004470825, -0.4791007936000824, 0.14537234604358673], [-0.12616358697414398, -0.09359423071146011, -0.06702899932861328, 0.38091373443603516, 0.006270379759371281, 0.46976199746131897, -0.44849348068237305, 0.07248503714799881, -0.23304390907287598, 0.03909587860107422, -0.21185536682605743, 0.11648660898208618, -0.07552244514226913, -0.3952919840812683, -0.08624304831027985, -0.3145037591457367, 0.2163984179496765, 0.4332461357116699, -0.24172133207321167, -0.15249399840831757, 0.015312977135181427, 0.0779055580496788, -0.05634421482682228, -0.15699715912342072, 0.3252337872982025, -0.2015639990568161, -0.07645595818758011, 0.0358806811273098, -0.5840718746185303, 0.47062966227531433, -0.11479944735765457, 0.17617584764957428, -0.3816872835159302, -0.046031590551137924, 0.1815740466117859, 0.7065320014953613, 0.03468317165970802, 0.3095388114452362, -0.02377721108496189, -0.23490631580352783, 0.0033522574231028557, -0.2146061360836029, -0.1292199343442917, 0.05947650969028473, 0.33423465490341187, -0.297249436378479, 0.11965591460466385, 0.05648888275027275, -0.020192984491586685, 0.2192213237285614, 0.7083945274353027, -0.10586376488208771, -0.17692847549915314, 0.14611832797527313, 0.21237245202064514, -0.030351007357239723, 0.014409025199711323, 0.18248888850212097, 0.5000581741333008, 0.3403952121734619, -0.28468307852745056, 0.2692345678806305, -0.24596288800239563, 0.6672222018241882, -0.3005106747150421, -0.4704866111278534, -0.4472871720790863, 0.04451346397399902, -0.03651729226112366, 0.2974322736263275, -0.15299630165100098, 0.12131699919700623, 0.12054542452096939, 0.09626169502735138, -0.15870705246925354, 0.10430615395307541, 0.27387428283691406, 0.2636524438858032, 0.16117219626903534, -0.17697890102863312, 0.145623117685318, -0.19014158844947815, 0.18292270600795746, -0.224014014005661, -0.551865816116333, 0.03220043703913689, 0.37395209074020386, -0.27719950675964355, -0.2131923884153366, 0.3993431329727173, 0.38557085394859314, -0.38541534543037415, -0.37502628564834595, -0.3548526465892792, 0.1540679633617401, -0.1362345665693283, 0.22606533765792847, -0.033220723271369934, -0.34351688623428345, -0.054008182138204575, 0.04622330144047737, 0.5123465061187744, -0.014875770546495914, -0.2984139025211334, -0.04075589403510094, 0.5889651775360107, 0.08812887221574783, 0.5486507415771484, 0.07273568212985992, -0.02054854854941368, -0.35063934326171875, -0.04559050500392914, -0.23179000616073608, 0.2634187936782837, 0.06091207638382912, 0.15276795625686646, -0.0582001768052578, -0.23063120245933533, 0.5351113677024841, -0.015836581587791443, 0.25603702664375305, 0.10595602542161942, 0.40596482157707214, -0.18202351033687592, 0.372843474149704, 0.5360628962516785, -0.11659052968025208, -0.4086243212223053], [0.16532866656780243, -0.17098906636238098, -0.041333965957164764, -0.4934072196483612, -0.10711201280355453, 0.32550597190856934, 0.03076813369989395, 0.09558121860027313, -0.45177626609802246, 0.12868398427963257, 0.5103352069854736, 0.051648955792188644, 0.05286674574017525, -0.15726879239082336, 0.06609088182449341, -0.07059035450220108, -0.0159355066716671, 0.14088095724582672, 0.4458029866218567, 0.05006555840373039, 0.2967333495616913, 0.2102482169866562, -0.03447692468762398, -0.022240959107875824, -0.2374378740787506, -0.07556696981191635, 0.14894434809684753, 0.1522265076637268, -0.025654710829257965, 0.19410094618797302, 0.12433484941720963, -0.06573706865310669, 0.11866912990808487, -0.18400762975215912, -0.07649575918912888, 0.005601559765636921, -0.34501317143440247, -0.2672137916088104, -0.33745628595352173, -0.6232738494873047, 0.6138593554496765, 0.01973303221166134, -0.017623331397771835, -0.22177056968212128, -0.10290177166461945, 0.11726723611354828, 0.05769892409443855, 0.30377084016799927, -0.767171323299408, -0.13448910415172577, 0.025971509516239166, -0.6250194311141968, 0.11611191183328629, 0.1932990550994873, -0.07562926411628723, -0.1772974133491516, -0.2112276256084442, -0.6942506432533264, -0.06728541105985641, 0.13686174154281616, -0.17070965468883514, -0.09032220393419266, 0.8327085971832275, -0.16001787781715393, 0.3796435594558716, -0.09140153229236603, -0.061782460659742355, -0.07483264058828354, -0.11912461370229721, 0.09449316561222076, -0.3291122317314148, 0.2012789100408554, -0.049294907599687576, 0.16123132407665253, 0.13601645827293396, 0.0031283036805689335, 0.02311142534017563, 0.09390173107385635, 0.04033537209033966, -0.10350503772497177, -0.021836057305336, -0.8054211139678955, 0.05249498784542084, 0.09376555681228638, 0.19734571874141693, 0.0168561190366745, 0.1451132744550705, -0.40298208594322205, -0.1855154037475586, -0.6723687648773193, 0.08523790538311005, 0.5637202262878418, 0.2923765182495117, -0.09399250894784927, -0.1834896057844162, 0.05636949464678764, -0.11847730726003647, -0.6305122971534729, 0.21112942695617676, -0.08196018636226654, -0.12969796359539032, 0.4576062560081482, 0.03381286561489105, 0.758836030960083, -0.6973679661750793, 0.03780992329120636, -0.014475605450570583, 0.176840141415596, -0.5812416076660156, 0.896966278553009, -0.14427848160266876, -0.04412369430065155, -0.06651511043310165, -0.11476916074752808, -0.04224182292819023, 0.4919641613960266, 0.021209878847002983, -0.11613508313894272, 0.16193677484989166, -0.33845654129981995, 0.7601698637008667, 0.08567970246076584, 0.010815350338816643, 0.4913102686405182, 0.41073983907699585, -0.03890993818640709, 0.15264374017715454, -0.11001065373420715], [-0.14629000425338745, -0.235209122300148, -0.21062761545181274, -0.3043114244937897, 0.04025974124670029, 0.14719592034816742, 0.18473656475543976, -0.29482346773147583, -0.2852960526943207, -0.33255863189697266, -0.06972165405750275, 0.18638747930526733, 0.13890747725963593, -0.2641240954399109, 0.4196193218231201, 0.17590105533599854, -0.03110375814139843, -0.10478818416595459, 0.02011246792972088, 0.18651282787322998, -0.009587532840669155, 0.1588919758796692, -0.20395530760288239, -0.11605916172266006, 0.011069843545556068, 0.6770037412643433, -0.16523051261901855, -0.10503851622343063, -0.02114943601191044, -0.18627610802650452, 0.098897784948349, 0.06234931945800781, -0.17719152569770813, -0.27012819051742554, 0.6799026727676392, -0.1897887885570526, -0.23155154287815094, 0.1042751595377922, 0.21938276290893555, -0.03192061558365822, 0.10987433046102524, 0.09249065071344376, -0.5218490362167358, -0.07399316132068634, -0.2057892084121704, 0.019895952194929123, -0.18231892585754395, -0.014205599203705788, 0.036384109407663345, -0.18081992864608765, -0.2164018601179123, -0.029240066185593605, 0.18852105736732483, 0.3392229676246643, 0.21377035975456238, -0.7423432469367981, -0.14686666429042816, -0.07781407237052917, 0.3714599907398224, -0.4398725926876068, -0.22888486087322235, 0.3545624613761902, 0.043350543826818466, -0.23447327315807343, 0.07504955679178238, 0.298654705286026, -0.03566259518265724, -0.18024379014968872, -0.2675040066242218, -0.22545520961284637, -0.008379771374166012, 0.23300856351852417, 0.1749214082956314, 0.24215880036354065, -0.08707118779420853, 0.989064633846283, 0.09669934213161469, 0.6167566180229187, -0.018904704600572586, 0.20440050959587097, -0.12500661611557007, 0.00961266178637743, 0.2075796127319336, -0.1144699677824974, 0.2013700157403946, 0.04367300122976303, 0.02395409718155861, -0.0786798745393753, 0.3350285291671753, 0.18945814669132233, -0.21784396469593048, -0.0640670508146286, 0.0766628235578537, 0.12959639728069305, -0.046257369220256805, -0.2714936137199402, -0.027664758265018463, 0.07212900370359421, -0.09862320125102997, -0.3456200063228607, -0.30047887563705444, 0.458503395318985, -0.08816704899072647, 0.03157375007867813, 0.2478725016117096, -0.33240729570388794, -0.2675396203994751, 0.09107521921396255, 0.036144059151411057, 0.06473121047019958, -0.154447540640831, -0.12540490925312042, -0.19256624579429626, -0.062417831271886826, -0.08653635531663895, -0.08145979046821594, -0.02480555884540081, -0.2214709222316742, -0.07972782105207443, 0.05200949311256409, 0.20989692211151123, 0.012157770805060863, 0.1778363138437271, -0.1552877128124237, 0.07360932976007462, 0.21403758227825165, 0.028119100257754326, 0.02819294109940529], [0.29589441418647766, 0.00878375768661499, 0.18702779710292816, -0.20689593255519867, -0.04245588928461075, -0.09118959307670593, 0.06198075786232948, 0.19964031875133514, -0.4780494272708893, -0.08614695817232132, 0.007591653615236282, 0.18347008526325226, -0.04213947802782059, -0.03177578002214432, 0.12729375064373016, 0.20273223519325256, 0.22344261407852173, -0.07286405563354492, 0.002693165559321642, 0.07039270550012589, -0.1973537802696228, -0.09622876346111298, 0.21768151223659515, -0.027436191216111183, 0.08131808787584305, 0.0024309842847287655, 0.26966455578804016, 0.01836792193353176, -0.12013301253318787, 0.1907770335674286, 0.38466066122055054, -0.2637457251548767, 0.19596515595912933, 0.1272841840982437, 0.38062217831611633, -0.31643688678741455, -0.15664613246917725, -0.1334764063358307, 0.11206543445587158, 0.06261802464723587, 0.13204440474510193, 0.08736357092857361, 0.018450384959578514, 0.15710929036140442, -0.22606080770492554, 0.19637905061244965, -0.3518730700016022, -0.16421401500701904, -0.11327586323022842, -0.007735699415206909, -0.13404154777526855, 0.08094202727079391, -0.2628966271877289, -0.07788309454917908, 0.028055954724550247, -0.17367471754550934, 0.39077308773994446, 0.018335403874516487, -0.06344440579414368, 0.07594837248325348, 0.06528830528259277, 0.2544078826904297, -0.008700917474925518, 0.43671679496765137, 0.05174385383725166, -0.03504380211234093, 0.14716430008411407, 0.10965432226657867, -0.0662732794880867, 0.13588054478168488, 0.05988157168030739, 0.10871399194002151, -0.08054853975772858, -0.01862599514424801, -0.0984010249376297, 0.05119441822171211, -0.21737009286880493, 0.32860633730888367, -0.002592930570244789, -0.16359741985797882, 0.21294115483760834, 0.005801707971841097, -0.009708127938210964, -0.09625652432441711, -0.10190282016992569, -0.3347131907939911, -0.06874223053455353, -0.05142156779766083, -0.019581731408834457, 0.11870916932821274, 0.22464779019355774, 0.03363741561770439, 0.17438910901546478, -0.024392493069171906, -0.03352533280849457, -0.36266374588012695, 0.09800969064235687, -0.04248207435011864, 0.09414669126272202, -0.12274055182933807, -0.1714208573102951, 0.15912604331970215, 0.2869088053703308, -0.03904009237885475, 0.3251415193080902, -0.15894508361816406, 0.13124139606952667, -0.5493456721305847, 0.1755666881799698, 0.25351712107658386, 0.21477735042572021, -0.06185917556285858, 0.006028409115970135, 0.22627420723438263, 0.32213276624679565, 0.043078817427158356, 0.4273264706134796, 0.22648468613624573, 0.08131194114685059, 0.13769331574440002, -0.12800553441047668, -0.13975408673286438, 0.05052243173122406, -0.0816943570971489, -0.028270993381738663, 0.26015403866767883, 0.05321221426129341, -0.28186625242233276], [-0.12731410562992096, -0.14341403543949127, 0.12722818553447723, -0.04902724176645279, 0.3010426461696625, 0.45258384943008423, -0.9811568856239319, 0.06637029349803925, -0.6344309449195862, -0.18402665853500366, 0.828629732131958, 0.12767185270786285, 0.014457196928560734, -0.12719914317131042, -0.034208063036203384, 0.09269525855779648, 0.24482715129852295, 0.030373316258192062, 0.19345702230930328, 0.2115871012210846, 0.32483726739883423, -0.4082653522491455, -0.18325772881507874, -0.07335368543863297, -0.37808695435523987, 0.0006221011281013489, 0.23149727284908295, -0.07632064074277878, -0.0942997857928276, 0.00456877751275897, -0.05326381325721741, 0.10255234688520432, -0.0701679214835167, -0.052774783223867416, -0.08313046395778656, -0.003905491204932332, -0.28212353587150574, -0.39397647976875305, -0.15438854694366455, -0.9343052506446838, 0.289667546749115, 0.15585990250110626, 0.20386803150177002, -0.5265927910804749, 0.11349735409021378, -0.016945958137512207, 0.23219341039657593, 0.8571417331695557, -1.1563572883605957, 0.07307466119527817, -0.017050907015800476, -1.0189127922058105, -0.14323167502880096, 0.3624749183654785, 0.16888363659381866, -0.1957823932170868, -0.04821731150150299, -0.5686413049697876, -0.15142565965652466, -0.15146073698997498, 0.0815567597746849, 0.08474460244178772, 1.013615608215332, 0.09184350073337555, 1.0194461345672607, 0.02186364121735096, 0.6749431490898132, 0.24819253385066986, 0.14338575303554535, -0.12670613825321198, -0.835515558719635, -0.39054158329963684, -0.0874241292476654, -0.01009091641753912, -0.12235910445451736, -0.0572131983935833, -0.008118846453726292, 0.15914872288703918, 0.25625038146972656, 0.08940894901752472, -0.10501043498516083, -0.777069628238678, -0.005951362662017345, -0.22989757359027863, -0.14670923352241516, -0.12100793421268463, 0.01816476508975029, -1.0696526765823364, -0.15597201883792877, -0.48593372106552124, -0.007313711568713188, 0.6432278156280518, 0.035407669842243195, -0.20247213542461395, -0.12154848873615265, 0.18201734125614166, -0.5722278952598572, -0.4167531728744507, 0.9149028658866882, -0.19413325190544128, 0.015412596985697746, 0.2871789336204529, -0.022146254777908325, 0.7738950252532959, -0.8025693893432617, 0.12691569328308105, -0.07468406111001968, -0.06379552185535431, -0.23601780831813812, 0.5955317616462708, 0.08700573444366455, -0.49447253346443176, -0.019319025799632072, -0.5761173367500305, -0.12209275364875793, 0.5280982851982117, 0.06370283663272858, -0.29035264253616333, 0.11181362718343735, 0.052293166518211365, 0.8244978189468384, 0.30635833740234375, 0.6431232690811157, 1.0561110973358154, 0.3360799551010132, 0.16828104853630066, 0.08960019797086716, -0.008892457000911236], [-0.32584479451179504, 0.06030118092894554, -0.5202500820159912, 0.1644151210784912, -0.014657563529908657, 0.4100082814693451, 0.059218741953372955, -0.40492114424705505, -0.11874163150787354, 0.019887425005435944, 0.11793182790279388, 0.09709447622299194, -0.29378291964530945, -0.42997848987579346, 0.3842303454875946, 0.24944236874580383, 0.06148229539394379, 0.18936973810195923, -0.10303236544132233, 0.35705170035362244, 0.023708121851086617, 0.040546488016843796, -0.14631973206996918, -0.25406062602996826, 0.010035346262156963, 0.14683927595615387, 0.06136509031057358, 0.2359812706708908, 0.004451834596693516, -0.05257774516940117, -0.03960631042718887, 0.1806953251361847, -0.5134433507919312, -0.0066754575818777084, 0.6360058188438416, 0.25651800632476807, -0.15325592458248138, 0.16190455853939056, 0.4663972556591034, -0.09120731055736542, 0.08848881721496582, 0.27816182374954224, -0.24455784261226654, 0.4230897128582001, -0.5011127591133118, -0.3147384822368622, 0.33431896567344666, 0.059435032308101654, 0.03954639658331871, 0.3301791250705719, 0.3494635820388794, 0.12109454721212387, -0.11878377199172974, 0.37006065249443054, 0.168103888630867, -0.24246510863304138, 0.018483268097043037, 0.18296770751476288, 0.1916193664073944, -0.12927334010601044, -0.730069637298584, 0.5061181783676147, 0.14725416898727417, 0.11823666840791702, -0.2147035151720047, 0.04712703078985214, -0.02943403087556362, 0.21876180171966553, 0.02712988667190075, -0.3359855115413666, -0.12180642038583755, -0.04401877894997597, 0.17180463671684265, 0.2554089426994324, 0.07526785135269165, 0.14848974347114563, -0.139143168926239, 0.5797333717346191, 0.3115862309932709, -0.027843795716762543, -0.14297451078891754, -0.13971717655658722, -0.34912025928497314, -0.03506816551089287, 0.26517218351364136, -0.11590087413787842, -0.02101789601147175, 0.18343758583068848, 0.3403448164463043, 0.27062007784843445, -0.21165306866168976, 0.14492905139923096, -0.1255132555961609, 0.025128569453954697, 0.27519237995147705, -0.06317012012004852, 0.05235542729496956, 0.058578770607709885, -0.02639191783964634, -0.7183646559715271, -0.344750314950943, -0.04569464549422264, -0.02237042970955372, 0.14208100736141205, 0.2583604156970978, -0.10730741173028946, -0.20342224836349487, 0.32195159792900085, 0.0320633202791214, -0.03017621673643589, 0.1744774580001831, -0.43589210510253906, -0.050381291657686234, -0.3375476598739624, 0.15829697251319885, 0.003969745244830847, -0.59322190284729, 0.1128397211432457, 0.059364259243011475, -0.3305211365222931, 0.15634813904762268, 0.11067402362823486, 0.03415920212864876, 0.11286924034357071, 0.3444863557815552, 0.5343515872955322, -0.20009902119636536, -0.5478610396385193], [-0.16776300966739655, -0.22014236450195312, -0.0953235849738121, -0.2426256239414215, -0.21908921003341675, 0.2097577005624771, 0.2167050838470459, 0.07327216118574142, -0.026577439159154892, -0.13588225841522217, 0.19702504575252533, 0.10439442098140717, -0.051374707370996475, 0.019245928153395653, -0.1347493976354599, -0.08133524656295776, 0.10154617577791214, -0.21600261330604553, 0.12831121683120728, 0.0371820405125618, 0.10661052167415619, -0.0459505170583725, 0.21104007959365845, -0.09595860540866852, -0.10222294926643372, 0.2017822265625, 0.025805622339248657, 0.12199144810438156, 0.004473990760743618, 0.36069798469543457, 0.6748448610305786, -0.423748642206192, 0.38703882694244385, 0.13570165634155273, 0.15223896503448486, -0.22466164827346802, -0.23511722683906555, 0.14783093333244324, 0.10081566870212555, 0.019931109622120857, 0.3481805622577667, 0.3082064986228943, 0.18505804240703583, 0.2990421950817108, 0.0034803650341928005, 0.2937854826450348, -0.3580990135669708, 0.07809048891067505, 0.2515571117401123, -0.20747628808021545, -0.20141395926475525, 0.15006524324417114, 0.027318263426423073, -0.20998695492744446, 0.24832111597061157, -0.14591726660728455, 0.3335137665271759, 0.08533380925655365, -0.10428877174854279, 0.2444574385881424, 0.07945200800895691, 0.017207467928528786, 0.03137562796473503, 0.09888631850481033, 0.19861632585525513, -0.05506581813097, 0.29314982891082764, 0.11723838001489639, -0.06873303651809692, 0.32732129096984863, 0.38669753074645996, -0.26680049300193787, -0.1338569074869156, -0.31045329570770264, -0.09337511658668518, 0.32236921787261963, -0.19355010986328125, 0.306627094745636, 0.05526566132903099, 0.22880248725414276, 0.06300292164087296, 0.18448752164840698, -0.18493324518203735, -0.05918325483798981, 0.18708711862564087, -0.08364167809486389, -0.22132927179336548, 0.39132922887802124, -0.14659862220287323, 0.05277746170759201, 0.041184667497873306, 0.0799294263124466, 0.3306964337825775, 0.0419066920876503, 0.055286508053541183, 0.18820756673812866, -0.14795412123203278, 0.2915273904800415, 0.21886302530765533, 0.23979449272155762, -0.21742036938667297, 0.2494828850030899, -0.23205174505710602, 0.019178170710802078, 0.07059506326913834, -0.10879189521074295, -0.0540589913725853, -0.24338330328464508, 0.4041745066642761, 0.17910771071910858, 0.13694751262664795, -0.09358128160238266, 0.0964813157916069, -0.12037374079227448, 0.48248976469039917, 0.0698157399892807, 0.23922868072986603, 0.07793112844228745, 0.09052934497594833, 0.12061257660388947, -0.011936808936297894, -0.29208993911743164, 0.14612044394016266, 0.37481561303138733, -0.18819352984428406, -0.13291099667549133, 0.11981914937496185, -0.035239774733781815], [-0.058714840561151505, 0.27516818046569824, -0.014939850196242332, 0.21834735572338104, 0.6043745279312134, 0.4028540849685669, -2.0590362548828125, -0.022702768445014954, -0.28761768341064453, 0.1151273176074028, 0.7402766942977905, -0.03750649467110634, 0.2676233649253845, -0.26724013686180115, -0.07148953527212143, -0.24779878556728363, 0.1874898225069046, -0.00413341773673892, -0.06388291716575623, 0.6994566917419434, -0.07332771271467209, -0.4915868043899536, 0.11052662134170532, -0.05531816557049751, -0.9180561304092407, -0.0890820175409317, 0.4014643132686615, -0.1960204839706421, -0.3201119601726532, -0.23313014209270477, -0.218388170003891, 0.19960206747055054, 0.055430348962545395, 0.13455212116241455, 0.05250650644302368, 0.09197692573070526, 0.01968875341117382, -0.5738745331764221, 0.3627673387527466, -1.5408647060394287, -0.3050748109817505, 0.1915132999420166, -0.12286394089460373, -0.9720083475112915, 0.31193193793296814, 0.20593982934951782, 0.08033499866724014, 1.4432377815246582, -1.534030795097351, 0.0906384214758873, -0.14911997318267822, -1.1715668439865112, -0.03581255301833153, 0.6282700896263123, 0.15390092134475708, -0.18199162185192108, 0.33333155512809753, 0.15547245740890503, -0.0012711845338344574, -0.013917941600084305, -0.02955949492752552, 0.005319051444530487, 1.336556077003479, 0.3293168842792511, 1.7384083271026611, 0.24266527593135834, 1.7144640684127808, 0.3265432119369507, 0.4589499235153198, -0.12201549857854843, -1.3498671054840088, -0.7687820792198181, -0.010113011114299297, -0.05162147432565689, -0.16255608201026917, 0.16015706956386566, -0.0901004746556282, 0.1819087415933609, 0.33348146080970764, 0.557770311832428, -0.0034737451933324337, 0.059116434305906296, 0.07409217208623886, -0.19973407685756683, 0.018972402438521385, -0.4770049452781677, -0.11855744570493698, -1.5369889736175537, 0.06805052608251572, -0.1411731094121933, -0.12780116498470306, 0.7141984701156616, -0.043564483523368835, 0.2031971961259842, -0.24581007659435272, 0.18878667056560516, -0.6893065571784973, -0.4006614685058594, 1.419466257095337, -0.013543851673603058, -0.10632819682359695, 0.005365514196455479, -0.1641518622636795, 1.2806370258331299, -0.40353626012802124, -0.24426737427711487, 0.27010422945022583, -0.12165629118680954, 0.28035813570022583, 0.28786972165107727, 0.024707306176424026, -0.8735701441764832, 0.005582328885793686, -0.8253805637359619, -0.050671085715293884, 0.7679997682571411, 0.30237916111946106, -0.06663231551647186, -0.1573527455329895, 0.08057482540607452, 0.7609379291534424, 0.3336077630519867, 0.9403582215309143, 1.3716552257537842, 0.5459948182106018, 0.5523412227630615, -0.013149292208254337, 0.05388304591178894], [0.34114474058151245, 0.43589258193969727, -0.8579908013343811, -0.16627225279808044, 0.18589048087596893, 0.468772828578949, 0.2625633776187897, -0.36199960112571716, -0.10724706202745438, 0.7083717584609985, -0.03385327011346817, 0.27924489974975586, 0.07533912360668182, -0.9695290923118591, 1.1174112558364868, 0.25596755743026733, 0.10299957543611526, 0.5165106058120728, 0.09151143580675125, 0.6154225468635559, -0.16504690051078796, -0.2885426878929138, 0.007717362605035305, 0.6316410899162292, 0.1224289983510971, -0.2897980511188507, -0.1741723120212555, 0.57890385389328, 0.29172006249427795, -0.4573958218097687, -0.6331661939620972, 0.06287632137537003, -0.8891748785972595, 0.15397073328495026, 0.24101950228214264, 0.6702686548233032, -0.04595257714390755, 0.18326164782047272, 0.6397290825843811, -0.2100948691368103, -0.12329034507274628, 0.06429991871118546, -0.08048877120018005, 0.31573399901390076, -0.924273669719696, -1.009382724761963, 0.9417005181312561, -0.13404518365859985, 0.20527906715869904, 0.6166541576385498, 0.1468975841999054, 0.2017802596092224, -0.219057098031044, 0.15715500712394714, 0.12974049150943756, 0.10590114444494247, 0.10454044491052628, 0.06693235039710999, 0.7860209345817566, 0.4830383360385895, -1.3613437414169312, 0.27100038528442383, 0.5005670785903931, 0.32998669147491455, -0.579555094242096, 0.2699398994445801, 0.32547202706336975, 0.5018911957740784, -0.04311917722225189, -0.4017615020275116, 0.08489697426557541, -0.3444891571998596, 0.5139049291610718, -0.152759850025177, 0.5727626085281372, -1.1080033779144287, -0.8541605472564697, 0.11237338185310364, 0.05563351511955261, 0.5549463033676147, 0.08618265390396118, -0.1031336635351181, -0.4999079704284668, -0.6037517786026001, 0.6122660040855408, 0.4134557843208313, 0.5121015906333923, 0.05376359820365906, 1.1028636693954468, -0.04831449314951897, 0.03192193806171417, 0.2260812520980835, -0.1706920564174652, 0.31459495425224304, 0.15459299087524414, 0.3118710219860077, -0.0019778453279286623, -0.1928999423980713, -0.34862813353538513, -0.8939971923828125, -0.4451903998851776, -0.31540048122406006, 0.7410588264465332, 0.34989428520202637, 0.09069795161485672, 0.09350921213626862, -0.6810364127159119, 0.29977476596832275, -0.16983270645141602, -0.06404069811105728, 0.3208182752132416, -0.24068012833595276, 0.35992470383644104, -0.7055935859680176, -0.40507909655570984, -0.18761764466762543, -0.5585421919822693, -0.10960785299539566, 0.11010545492172241, 0.1612691730260849, -0.34615689516067505, -0.1439121514558792, 0.07563912123441696, 0.14686650037765503, 0.09179286658763885, 0.8095076680183411, -0.6292452812194824, -0.8282232880592346], [-0.05370035395026207, 0.04099157080054283, -0.04812587797641754, -0.19825680553913116, 0.1688944399356842, 0.12911130487918854, 0.3676970899105072, -0.0023451538290828466, 0.133074089884758, -0.0471419021487236, 0.5082530379295349, 0.40134546160697937, 0.06786894798278809, 0.0738501101732254, -0.16607995331287384, -0.169389545917511, -0.11393830925226212, -0.07018641382455826, 0.27168649435043335, 0.34602949023246765, 0.05916673690080643, -0.049960095435380936, -0.15376926958560944, -0.07545911520719528, -0.13647927343845367, 0.3044620752334595, 0.09083402901887894, 0.2737361788749695, 0.19918712973594666, 0.12786419689655304, 0.4700345993041992, -0.2611599564552307, 0.2274361252784729, 0.1820128709077835, 0.16361835598945618, -0.1469382494688034, -0.03140200674533844, 0.21489888429641724, 0.17433707416057587, 0.27922022342681885, 0.12943413853645325, 0.19884811341762543, -0.15927009284496307, 0.44613149762153625, -0.0776718482375145, -0.037259817123413086, -0.04204823821783066, 0.15308243036270142, 0.3687114119529724, -0.3133208751678467, 0.05939078330993652, 0.39981478452682495, -0.08275444060564041, -0.169524148106575, 0.3511357605457306, -0.13143157958984375, 0.18086504936218262, -0.04641343653202057, -0.030148742720484734, 0.024037975817918777, -0.1536082774400711, -0.07545352727174759, 0.06696391105651855, 0.1623319685459137, 0.3340151309967041, 0.18898047506809235, 0.3133770227432251, 0.0007065904792398214, -0.0879664197564125, 0.1973842978477478, 0.32858800888061523, -0.47887638211250305, -0.08894315361976624, -0.16436830163002014, -0.008515490218997002, 0.5793321132659912, -0.2486681044101715, 0.25035277009010315, 0.004328115377575159, 0.23583444952964783, 0.042972490191459656, 0.18097563087940216, -0.2702116072177887, -0.09826105833053589, 0.25310492515563965, 0.030198125168681145, 0.021147470921278, 0.27353185415267944, -0.15408717095851898, -0.08030090481042862, 0.22543959319591522, 0.19808268547058105, 0.04303494840860367, -0.008731001988053322, 0.030069148167967796, 0.3925788998603821, -0.07433586567640305, 0.08991945534944534, 0.5022134184837341, 0.2953144311904907, 0.016828862950205803, -0.028753237798810005, -0.11738511174917221, 0.3167338967323303, 0.0256010964512825, 0.08217073976993561, -0.01534393522888422, -0.09083975106477737, 0.1911812126636505, 0.10675038397312164, 0.4113697409629822, 0.21738122403621674, 0.2308913916349411, -0.15881875157356262, 0.231556236743927, 0.18653470277786255, 0.1397579163312912, -0.067592091858387, 0.05994405597448349, 0.06837798655033112, -0.09660570323467255, 0.09104321897029877, 0.05139816924929619, 0.4781225323677063, 0.036735158413648605, -0.22084924578666687, -0.12772482633590698, 0.005951273255050182], [-0.08886531740427017, 0.05090249702334404, 0.021597063168883324, -0.052906882017850876, -0.027430161833763123, 0.5843632817268372, 0.017716482281684875, -0.12346036732196808, 0.3073793649673462, -0.07837411761283875, 0.07058598846197128, -0.1413975954055786, -0.10825560241937637, 0.2884410321712494, 0.12291542440652847, -0.11345130205154419, -0.2155451774597168, 0.0420597605407238, 0.009603303857147694, -0.13925810158252716, 0.07559669762849808, 0.21268820762634277, -0.399890273809433, -0.011359985917806625, 0.24440887570381165, 0.19505614042282104, 0.10614144057035446, -0.14108623564243317, -0.20204775035381317, -0.307605504989624, -0.06565556675195694, -0.10017126053571701, -0.11025822907686234, 0.09205953031778336, -0.10368678718805313, 0.011524731293320656, -0.34261786937713623, -0.2789899408817291, -0.24352820217609406, 0.6579697132110596, -0.1387729048728943, -0.19336633384227753, -0.1297186315059662, 0.003659453010186553, 0.016357503831386566, 0.008368941023945808, -0.22931841015815735, -0.6027776002883911, 0.39583921432495117, 0.05666268244385719, 0.27575066685676575, 0.22288207709789276, 0.07954249531030655, -0.44664859771728516, -0.037655703723430634, -0.1577693074941635, 0.4956144094467163, 0.2548566162586212, -0.09857213497161865, 0.03190307319164276, 0.2771749496459961, -0.1498408019542694, -0.37999460101127625, -0.05177656188607216, -0.16582641005516052, 0.012540816329419613, -0.302225798368454, -0.016452942043542862, 0.09360937029123306, 0.00497164623811841, 0.1074901893734932, 0.31478533148765564, -0.05017295479774475, 0.1181812733411789, 0.028682053089141846, 0.1455223709344864, -0.10548029839992523, 0.20983172953128815, 0.07382157444953918, 0.04117009788751602, -0.1133900135755539, 0.13939088582992554, -0.11838497966527939, -0.04383241757750511, -0.020954472944140434, -0.11107341945171356, -0.0738898441195488, 0.22338037192821503, 0.23667605221271515, -0.39556431770324707, -0.06277981400489807, -0.023146171122789383, -0.19435347616672516, 0.06680192053318024, 0.21071767807006836, -0.2640264332294464, 0.9025408029556274, 0.06404639780521393, -0.375075101852417, -0.10528501868247986, -0.07526709139347076, 0.5716301798820496, -0.07869938015937805, -0.2278456687927246, 0.522544801235199, -0.04177383333444595, 0.2907589077949524, -0.02214166149497032, -0.013319185003638268, -0.15479320287704468, 0.1309109926223755, 0.2337568998336792, -0.029082030057907104, 0.3225161135196686, -0.16401824355125427, -0.29499366879463196, -0.17160676419734955, 0.11697188764810562, 0.01930065080523491, 0.11206752806901932, -0.543595552444458, -0.25124913454055786, -0.49562790989875793, -0.09283626079559326, 0.11805813014507294, -0.12783555686473846, -0.11880966275930405, -0.11432953923940659], [-0.6120479702949524, -0.20868629217147827, -0.3983505368232727, -0.17434075474739075, -0.13746187090873718, 0.15632465481758118, 0.20672132074832916, -0.31662240624427795, 0.175323024392128, -0.20781226456165314, 0.010476923547685146, 0.003185244044288993, 0.1901799440383911, -0.04225294291973114, -0.30849871039390564, 0.09197324514389038, 0.033520929515361786, -0.12455975264310837, 0.10208161920309067, -0.19182419776916504, -0.20683768391609192, -0.12343531101942062, -0.18201526999473572, -0.4248323440551758, -0.005720284767448902, 0.8062618374824524, 0.2175237089395523, 0.016524875536561012, -0.19827456772327423, -0.10291238874197006, -0.1363733559846878, 0.4949852228164673, 0.13837800920009613, 0.10159798711538315, 0.3642622232437134, 0.02755753882229328, 0.98601233959198, 0.3679357171058655, -0.1984768509864807, -0.06703902035951614, 0.10641147941350937, -0.008032119832932949, 0.060429006814956665, -0.22169707715511322, -0.07627859711647034, 0.3017689883708954, -0.0313313826918602, 0.1767258495092392, 0.02749013528227806, -0.7843856811523438, 0.18003715574741364, 0.15148158371448517, 0.6945269703865051, -0.23236431181430817, 0.23152659833431244, 0.639998197555542, 0.11396118998527527, 0.2967975437641144, -0.25669941306114197, 0.5110217332839966, 0.38558951020240784, -0.6905332803726196, -0.1922169029712677, -0.0329284593462944, 0.2854035198688507, -0.39921414852142334, -0.04475336894392967, -0.12654317915439606, -0.04272369295358658, -0.08643212169408798, 0.17115993797779083, -0.25698143243789673, -0.47463056445121765, -0.5279817581176758, -0.48293134570121765, 0.34356430172920227, 0.22052370011806488, 0.509373128414154, 0.02005288377404213, 0.01899665966629982, -0.6825276613235474, 0.136165052652359, 0.8523623943328857, 0.002630246337503195, -0.16191120445728302, 0.16163769364356995, 0.29366013407707214, 0.07779427617788315, -0.23371253907680511, 0.16061118245124817, -0.11403907835483551, -0.27390316128730774, 0.04012182354927063, -0.3535683751106262, -0.36252927780151367, -0.025165028870105743, 0.37930920720100403, 0.33132800459861755, -0.04573614522814751, 0.30024731159210205, -0.16585655510425568, 0.6848443150520325, -0.6571309566497803, 0.13798056542873383, 0.28549686074256897, 0.02257809042930603, 0.2501002848148346, -0.0690867081284523, 0.1508641093969345, 0.040223851799964905, 0.182679682970047, 0.10979577898979187, -0.06402455270290375, 0.11195080727338791, 0.2846951186656952, 0.07179583609104156, -0.13526448607444763, 0.15739992260932922, -0.006054703611880541, -0.022029848769307137, 0.0026919259689748287, 0.11632208526134491, 0.31254318356513977, 0.03710965812206268, 0.32214054465293884, 1.4917339086532593, -0.16134998202323914, 0.17767074704170227], [-0.13206887245178223, 0.17068426311016083, -0.3681740164756775, 0.2845423221588135, 0.19801993668079376, 0.3509507179260254, -0.23988741636276245, 0.22013087570667267, 0.1529684066772461, 0.22545328736305237, -0.00768060889095068, -0.06687550991773605, -0.27460646629333496, -0.39169982075691223, 0.16784901916980743, -0.49578630924224854, 0.2627655863761902, 0.36399388313293457, -0.4320691227912903, -0.255666047334671, -0.11016632616519928, 0.2395225316286087, -0.0973019227385521, 0.04595547541975975, 0.014648577198386192, -0.11669876426458359, -0.07840798795223236, 0.02057592011988163, -0.08353281021118164, 0.10646094381809235, -0.34461721777915955, 0.20229236781597137, -0.6102043390274048, -0.06494959443807602, 0.37730520963668823, 0.5445684790611267, -0.07023250311613083, 0.3027116656303406, -0.03151603043079376, -0.05359407514333725, -0.2539580762386322, -0.1268290877342224, -0.08913411945104599, -0.004271917510777712, 0.3603082597255707, -0.35930949449539185, -0.015029504895210266, -0.029404008761048317, -0.08691272139549255, 0.054346680641174316, 0.7239229083061218, -0.287518709897995, -0.31728145480155945, 0.2035059779882431, 0.2921660542488098, 0.25322675704956055, -0.25947993993759155, -0.05773978680372238, 0.49413537979125977, 0.26338574290275574, -0.20346111059188843, 0.4107738137245178, -0.08471643179655075, 0.22418837249279022, -0.4237995743751526, -0.1101088896393776, -0.35484427213668823, -0.13151507079601288, 0.13495244085788727, 0.3853641152381897, -0.3680826425552368, 0.15987062454223633, 0.05190509557723999, 0.19287531077861786, -0.14278461039066315, -0.08516894280910492, 0.09352253377437592, 0.3271605670452118, -0.0079873725771904, -0.207169309258461, 0.0899047777056694, -0.08295420557260513, 0.12862664461135864, 0.019985660910606384, -0.007497850805521011, -0.339979887008667, 0.37356746196746826, -0.21795637905597687, 0.001968985889106989, 0.10135065764188766, 0.1893584132194519, -0.388532429933548, -0.38286998867988586, -0.2365500032901764, -0.14694349467754364, -0.4113767445087433, -0.06803101301193237, -0.019065923988819122, -0.011638747528195381, 0.09279786795377731, 0.2667451500892639, 0.629892885684967, 0.05601657181978226, -0.18769945204257965, -0.06785818189382553, 0.5171533226966858, 0.06441289186477661, 0.4326280653476715, -0.18635930120944977, 0.06901088356971741, -0.252913236618042, 0.13161839544773102, -0.311075896024704, -0.026194989681243896, 0.19093242287635803, 0.026321494951844215, -0.31713610887527466, 0.04531704634428024, 0.010137471370398998, 0.03592940792441368, 0.1917884200811386, -0.12435310333967209, 0.18956363201141357, -0.36416947841644287, 0.3173237442970276, 0.3897256851196289, -0.24208302795886993, -0.21672940254211426], [0.2592444121837616, -0.20121191442012787, -0.08360254764556885, -0.09373853355646133, -0.07110154628753662, 0.19832706451416016, 1.099025845527649, -0.06559206545352936, 0.2323557287454605, 0.01024096179753542, -0.24107997119426727, 0.035561081022024155, -0.11338182538747787, -0.113786980509758, -0.0791168063879013, 0.09087101370096207, 0.23500552773475647, 0.09789515286684036, 0.13352613151073456, -0.0984591394662857, 0.36942681670188904, 0.2039281278848648, -0.005263878032565117, 0.1466664969921112, 0.3699902594089508, -0.2517909109592438, 0.48379358649253845, -0.0012848151382058859, 0.20904302597045898, 0.07739351689815521, 0.10875863581895828, 0.018387826159596443, -0.058013271540403366, 0.06031014770269394, -0.06643489003181458, 0.09322487562894821, 0.03231281787157059, -0.35236117243766785, -0.4226728677749634, -0.12971745431423187, 0.3999479413032532, -0.2055983692407608, 0.030851654708385468, 0.5962649583816528, -0.02508016861975193, -0.20375993847846985, 0.09633377194404602, 0.2796890437602997, 0.00456771207973361, -0.015633417293429375, -0.13477826118469238, 0.3703903555870056, 0.0776570588350296, -0.31577691435813904, 0.32567280530929565, 0.2254357933998108, 0.057086024433374405, 0.009337829425930977, 0.10865118354558945, 0.012566587887704372, -0.08762357383966446, 0.06082132086157799, -0.6111108660697937, -0.1656033843755722, -0.6825345158576965, 0.0025609727017581463, -0.8473355174064636, -0.5676723718643188, -0.4589303433895111, 0.06988661736249924, 0.3843577802181244, -0.14241629838943481, 0.19853535294532776, -0.08819634467363358, 0.1442611664533615, 0.05017923563718796, 0.08446748554706573, -0.004457398317754269, -0.12477828562259674, -0.5329744219779968, 0.024115484207868576, -0.22331853210926056, -0.18019399046897888, 0.400402694940567, -0.14806605875492096, 0.1662006378173828, -0.03627840802073479, 1.2135001420974731, -0.22255615890026093, -0.6801241636276245, 0.06725388765335083, -0.4294658303260803, 0.7267782092094421, -0.10275246202945709, -0.16500383615493774, 0.005954839754849672, 0.6803306937217712, -0.6386556625366211, -0.17368493974208832, 0.10597555339336395, -0.037783119827508926, 0.06991587579250336, -0.056485679000616074, -0.28265851736068726, -0.6979097723960876, 0.07780427485704422, -0.24038727581501007, 0.025179404765367508, -0.6188283562660217, 0.7077528238296509, 0.02171160653233528, 0.42425355315208435, -0.13733793795108795, 0.2478998899459839, 0.21320421993732452, -0.5282173156738281, 0.14802607893943787, -0.7306492924690247, -0.019023751839995384, -0.06980457901954651, 0.057750359177589417, -0.30379772186279297, 0.3526192307472229, -0.4967062175273895, 0.5748310089111328, -0.03707914426922798, -0.2844168543815613, 0.05629368871450424], [0.16328835487365723, -0.1042669340968132, 0.21015280485153198, 0.15612515807151794, -0.18213723599910736, 0.05521572753787041, 0.08692362159490585, -0.24982909858226776, 0.13079550862312317, -0.43621519207954407, -0.22404713928699493, -0.4490797817707062, -0.3621850311756134, 0.1484997719526291, 0.0637742280960083, -0.18518942594528198, 0.008856086060404778, -0.038087762892246246, 0.18617555499076843, -0.28556185960769653, 0.1128232330083847, 0.1061764806509018, 0.14521700143814087, -0.15902040898799896, 0.05963622406125069, 0.5261529684066772, -0.11231177300214767, -0.43343356251716614, 0.15330348908901215, -0.04336417838931084, 0.11472377181053162, -0.04785420000553131, -0.057068344205617905, -0.409869909286499, 0.5805321931838989, -0.21870563924312592, 0.1803479939699173, -0.09344206750392914, 0.31434401869773865, -0.013403350487351418, -0.05011722445487976, -0.018912510946393013, 0.04162353277206421, -0.09564147144556046, 0.370381236076355, -0.059726618230342865, -0.22827354073524475, 0.08037663996219635, -0.17392094433307648, 0.17478610575199127, -0.06596456468105316, -0.0534975491464138, 0.17171914875507355, -0.07054932415485382, 0.21593508124351501, -0.13878889381885529, 0.1262645423412323, 0.019287843257188797, -0.4390734136104584, -0.5478813052177429, 0.30491846799850464, 0.21959266066551208, -0.23097233474254608, -0.36718615889549255, -0.018259478732943535, 0.009333181194961071, -0.017657965421676636, -0.06935781985521317, -0.03816184774041176, -0.3144606947898865, -0.070271797478199, 0.5805521607398987, -0.22352033853530884, 0.48523104190826416, 0.1188165619969368, 0.5172296166419983, 0.3192286789417267, 0.23980791866779327, -0.129214346408844, -0.551037073135376, 0.41358092427253723, 0.08241962641477585, 0.278069406747818, -0.08058170229196548, -0.12207777053117752, -0.3239716589450836, -0.32549402117729187, -0.09176010638475418, -0.13345596194267273, 0.0839569941163063, -0.07580973953008652, -0.16119477152824402, 0.22304482758045197, -0.2875634729862213, 0.2864851653575897, -0.29165053367614746, -0.11972201615571976, -0.06118441000580788, 0.34039708971977234, 0.18638278543949127, 0.5331398844718933, 0.25721046328544617, -0.11466670781373978, 0.11425434798002243, 0.3049047291278839, 0.07665572315454483, -0.017392735928297043, -0.19356946647167206, -0.08104803413152695, 0.14512553811073303, -0.2432415932416916, 0.10721111297607422, -0.24830932915210724, -0.037616778165102005, -0.07910620421171188, 0.0971515029668808, -0.10499607771635056, 0.12862591445446014, -0.0516539067029953, -0.1923399269580841, 0.13006927073001862, 0.06540265679359436, 0.23958724737167358, -0.05271703377366066, 0.007945858873426914, -0.24116145074367523, 0.49014705419540405, 0.31516873836517334], [0.04201119393110275, 0.2419920712709427, 0.06800065189599991, -0.14850904047489166, -0.26752468943595886, 0.07019763439893723, -0.028584936633706093, -0.13083864748477936, -0.3081051707267761, 0.035421937704086304, -0.2468489110469818, -0.035772766917943954, -0.41989845037460327, -0.2037055641412735, 0.3214443027973175, -0.10475192219018936, -0.2729179859161377, 0.07673878967761993, -0.22420445084571838, -0.11014453321695328, -0.31383681297302246, 0.041112057864665985, -0.0743345320224762, 0.059349603950977325, 0.182041734457016, 0.046017806977033615, -0.19320683181285858, 0.0029524918645620346, -0.19092898070812225, -0.01690039411187172, -0.030764559283852577, -0.0043805851601064205, -0.2749546468257904, -0.010495137423276901, 0.21861888468265533, 0.07879894971847534, 0.08883339911699295, -0.089619480073452, 0.04290445148944855, -0.25282153487205505, -0.024174753576517105, 0.14684657752513885, -0.2553516924381256, 0.0005514983786270022, -0.4498221278190613, -0.2687340974807739, -0.1091199591755867, -0.14790545403957367, -0.2707148790359497, -0.10950252413749695, -0.14743344485759735, -0.020858123898506165, 0.10282934457063675, 0.07503311336040497, -0.004088997840881348, -0.023073751479387283, -0.1782800406217575, 0.28202950954437256, -0.03597765788435936, 0.230817973613739, -0.30023398995399475, 0.19313745200634003, 0.015398267656564713, 0.019231315702199936, -0.3519408404827118, 0.11227214336395264, -0.16249646246433258, -0.047569453716278076, 0.1431751400232315, -0.08624350279569626, -0.08848635852336884, 0.020125828683376312, 0.4322434961795807, -0.022832699120044708, 0.08918754011392593, 0.2845889627933502, -0.14825710654258728, 0.4848169982433319, -0.02422025240957737, 0.04991436377167702, 0.20344391465187073, -0.10204704105854034, 0.053966931998729706, -0.4298698306083679, 0.003916105721145868, -0.6085734367370605, 0.32071563601493835, 0.07007777690887451, 0.19318713247776031, -0.16051696240901947, -0.20773448050022125, -0.14513565599918365, -0.05230029299855232, 0.26933130621910095, 0.14119333028793335, -0.49552568793296814, 0.2958488464355469, -0.14769268035888672, -0.31994882225990295, -0.3332226276397705, -0.3746661841869354, 0.2845035791397095, 0.1751479208469391, -0.08038006722927094, 0.15545518696308136, -0.20868034660816193, -0.08335121721029282, 0.04037843272089958, -0.03492594510316849, 0.0851936936378479, -0.28501424193382263, -0.06338384002447128, 0.14089012145996094, -0.15297456085681915, -0.367825448513031, -0.212823748588562, 0.018453020602464676, -0.1513047218322754, -0.20990608632564545, 0.06797011196613312, 0.20109497010707855, -0.028487898409366608, -0.03819984570145607, -0.11596222221851349, -0.01133672520518303, 0.08557847142219543, -0.16496053338050842, -0.007403850089758635], [-0.02461392804980278, -0.1652931421995163, -0.01583181694149971, 0.45462852716445923, -0.28615331649780273, 0.01922251284122467, 0.614691436290741, -0.08882072567939758, 0.24738192558288574, -0.17950712144374847, -0.7318436503410339, -0.06580353528261185, -0.18444369733333588, 0.024237755686044693, -0.6783335208892822, -0.06368430703878403, -0.1344178020954132, -0.12038034945726395, -0.08600513637065887, -0.23906978964805603, 0.08114288747310638, 0.23464977741241455, -0.1438199281692505, 0.028881438076496124, 0.8957229852676392, -0.021833280101418495, 0.26456308364868164, 0.1455589085817337, 0.31608766317367554, -0.07487499713897705, 0.0352955237030983, 0.13316026329994202, 0.025517307221889496, 0.1331467181444168, 0.04986005648970604, -0.0514783151447773, -0.37976592779159546, -0.42486506700515747, -0.3003866970539093, -0.16411395370960236, 0.15716107189655304, -0.009404896758496761, 0.032162632793188095, 0.48138007521629333, -0.40779680013656616, -0.17974098026752472, -0.03889794275164604, 0.3177386224269867, 0.6701826453208923, 0.056163325905799866, 0.19319699704647064, 0.9579843282699585, 0.052647072821855545, -0.45717838406562805, 0.1720065027475357, -0.1777075082063675, -0.25571420788764954, 0.7488699555397034, 0.13284146785736084, -0.14580054581165314, 0.1423051655292511, -0.04397831857204437, -0.2543426752090454, 0.17298482358455658, -0.4280393421649933, -0.0054743424989283085, -0.5651552677154541, -0.2748817801475525, -0.2688683569431305, -0.05009772628545761, 0.767368495464325, -0.4008324444293976, -0.039405688643455505, -0.06367231160402298, -0.15645770728588104, 0.008024192415177822, -0.014522652141749859, -0.0930134728550911, 0.14811044931411743, -0.02852139063179493, -0.011953035369515419, 0.8131136298179626, -0.19807109236717224, 0.39284956455230713, -0.020571012049913406, 0.16735564172267914, -0.0746501162648201, 0.6691698431968689, 0.3359531760215759, 0.0970296710729599, 0.05524411424994469, -0.8550570011138916, 0.14064572751522064, -0.09497039765119553, -0.09804078936576843, -0.12079264223575592, 0.5238078832626343, -0.1621796190738678, -0.4883353114128113, 0.1346186399459839, 0.1134907528758049, 0.2267516851425171, 0.12154869735240936, -0.4698164463043213, -0.4642864763736725, -0.16538438200950623, -0.09872238337993622, -0.15815265476703644, -0.1503017097711563, 0.33921533823013306, -0.042800601571798325, 0.4363088607788086, 0.15133747458457947, 0.2594258487224579, 0.07246282696723938, -0.31022635102272034, 0.33080536127090454, -0.450737327337265, -0.22771374881267548, -0.06580546498298645, -0.6680801510810852, -0.28962385654449463, 0.7624303102493286, -1.034485936164856, 0.2174925059080124, 0.014516694471240044, -0.2524629533290863, 0.10176877677440643], [0.16483530402183533, -0.06458572298288345, 0.40382587909698486, 0.9443042278289795, -0.6287697553634644, 0.4549168050289154, -0.11697785556316376, 0.07078246772289276, 0.5455024242401123, 0.24427321553230286, -0.04148630052804947, -0.1888795793056488, -0.40290215611457825, 0.0017684883205220103, -0.42428040504455566, -0.49778586626052856, -0.011135492473840714, -0.035130251199007034, 0.21630319952964783, -0.38889870047569275, 0.4806104898452759, 0.12166966497898102, 0.0034312312491238117, -0.6161164045333862, -0.23557497560977936, -0.4022270739078522, 0.10099977254867554, 0.16403482854366302, 0.0944649949669838, -0.053642358630895615, -0.08565834909677505, -0.08178703486919403, -0.2644180953502655, -0.45209431648254395, 0.030856188386678696, 0.0458526648581028, 0.018805380910634995, 0.1191684752702713, 0.16533735394477844, 0.09396737813949585, 0.03742418810725212, -0.592194139957428, 0.17318177223205566, -0.186405211687088, 0.6644644737243652, -0.16461260616779327, -0.0049847629852592945, 0.018706638365983963, 0.03345850482583046, 0.2713189721107483, 0.11484310030937195, -0.35096368193626404, -0.23074837028980255, -0.1501857340335846, 0.20041003823280334, -0.2751254439353943, -0.31690332293510437, -0.05156756937503815, -0.4480792284011841, -0.04712497815489769, 0.23787447810173035, 0.8663780093193054, -0.3380982577800751, -0.05105183273553848, 0.06126164644956589, -0.4159659743309021, -0.22643114626407623, -0.40497055649757385, -0.21683049201965332, 0.22322317957878113, -0.10899542272090912, 0.2451324760913849, 0.45749881863594055, 0.5220126509666443, 0.22488096356391907, -0.19295231997966766, 0.4200148582458496, 0.3878360986709595, 0.4395846426486969, -0.7033064961433411, 0.2533305287361145, 0.05767860263586044, 0.20203272998332977, -0.04683583974838257, -0.4284130036830902, -0.3740692734718323, 0.03998513147234917, -0.19758395850658417, -0.18051950633525848, 0.31881651282310486, -0.34274807572364807, -0.06108415126800537, 0.0785488709807396, -0.11114172637462616, -0.13237856328487396, -0.501471757888794, -0.12465392798185349, 0.005543148145079613, 0.17108604311943054, 0.738267183303833, 1.2649835348129272, 0.14068476855754852, -0.6576207280158997, -0.28563541173934937, 0.18262651562690735, 0.9917688965797424, 0.37070924043655396, 0.2326844036579132, 0.20402327179908752, 0.11994404345750809, -0.45344457030296326, 0.2092965841293335, -0.10637333244085312, 0.4173860549926758, -0.15043722093105316, 0.19785141944885254, 0.24469909071922302, 0.24526910483837128, -0.08712470531463623, -0.3748089671134949, 0.273824006319046, 0.003946720622479916, 0.19703370332717896, -0.25602784752845764, 0.4395602345466614, -0.2539004981517792, 0.3651031255722046, -0.33456623554229736], [-0.21447956562042236, 0.09218975156545639, 0.05044784024357796, 0.0017466065473854542, -0.1709723323583603, 0.02899298630654812, -0.2210424542427063, -0.14692391455173492, -0.02377573773264885, 0.08638910204172134, -0.11294587701559067, 0.030122963711619377, -0.10529672354459763, 0.053253911435604095, -0.11920696496963501, 0.22231614589691162, -0.13483232259750366, 0.1706971675157547, 0.10097251832485199, 0.03601207956671715, -0.061511073261499405, 0.0679900199174881, -0.1384042501449585, -0.2984415590763092, 0.29776784777641296, 0.1356484740972519, 0.15566253662109375, 0.09514860808849335, -0.17519229650497437, -0.15155598521232605, 0.027781661599874496, 0.2038758546113968, -0.3710866868495941, -0.2680869698524475, 0.019515294581651688, 0.17445415258407593, -0.08375803381204605, -0.16432514786720276, 0.07761084288358688, -0.0770789384841919, 0.15243865549564362, -0.08699994534254074, 0.11360977590084076, 0.08069033920764923, -0.014134833589196205, -0.03524012863636017, -0.08345209062099457, 0.02386298216879368, -0.0780148133635521, -0.13293558359146118, -0.002348939422518015, -0.0643376037478447, -0.05958254635334015, 0.31984931230545044, -0.19234474003314972, -0.1815476268529892, 0.04171525686979294, 0.36026105284690857, 0.08522672951221466, -0.2036941945552826, -0.25649330019950867, 0.0885961651802063, 0.2648038864135742, 0.1932860165834427, -0.20281511545181274, -0.10034840553998947, -0.1461399346590042, -0.11748205125331879, -0.0888180285692215, -0.2676042914390564, -0.05414571985602379, -0.06962653994560242, 0.3008161187171936, 0.2068447768688202, 0.3050439953804016, 0.1389741152524948, -0.17686040699481964, 0.24121442437171936, 0.26282259821891785, 0.08209913969039917, 0.19684551656246185, -0.24240155518054962, -0.17136222124099731, 0.09109772741794586, 0.2671221196651459, -0.2559910714626312, 0.31618019938468933, -0.0779130831360817, -0.049055833369493484, 0.06682443618774414, 0.049203384667634964, 0.033337559551000595, 0.0408349484205246, 0.01309459749609232, 0.03504445031285286, -0.37917816638946533, -0.032665736973285675, -0.10915674269199371, 0.2599705159664154, -0.14352433383464813, -0.37773871421813965, 0.00982605293393135, -0.29555878043174744, 0.18252000212669373, -0.19681376218795776, 0.07000403851270676, 0.04053998738527298, 0.24236898124217987, 0.041093919426202774, -0.1261502206325531, -0.31868526339530945, -0.15418338775634766, -0.020973728969693184, 0.15919286012649536, 0.08291392028331757, -0.27326738834381104, -0.24238677322864532, 0.09106539934873581, 0.196165069937706, -0.14392125606536865, 0.1778724640607834, 0.20586322247982025, 0.020474333316087723, -0.07223915308713913, 0.16038691997528076, -0.07089263200759888, -0.2059602290391922, 0.0960937961935997], [0.013017718680202961, 0.014176029711961746, -0.03779418021440506, 0.7525124549865723, -0.27705371379852295, -0.06691037863492966, 0.17144007980823517, 0.0024394963402301073, 0.22417926788330078, -0.08120746165513992, -1.611312747001648, 0.09124225378036499, -0.027992237359285355, 0.08186333626508713, -0.7655459642410278, -0.2446722388267517, 0.0074820746667683125, 0.08039195835590363, 0.08483032882213593, -0.09292066842317581, -0.25660890340805054, 0.46729809045791626, -0.15649054944515228, 0.03575616329908371, 0.7134882807731628, 0.1698073297739029, -0.043405208736658096, -0.22563208639621735, 0.41106438636779785, 0.18314504623413086, 0.049183446913957596, 0.07950751483440399, 0.058504216372966766, 0.013787875883281231, -0.052159544080495834, 0.15664958953857422, -0.49618950486183167, -0.8918988704681396, -0.015117937698960304, -0.06915020197629929, -0.3031894862651825, 0.06155317276716232, 0.05581027269363403, 0.5502971410751343, -0.3710517883300781, -0.12948431074619293, -0.2552897334098816, 0.3938520848751068, 1.4459116458892822, 0.18090762197971344, 0.06388642638921738, 1.545617699623108, 0.2868330180644989, -0.29639932513237, 0.1581750512123108, -0.013090396299958229, -0.20986208319664001, 0.8478652238845825, -0.028085682541131973, -0.0526353120803833, 0.05094480887055397, -0.07118058949708939, 0.07291745394468307, 0.13321645557880402, -0.7468292713165283, -0.2005956470966339, -0.2995029091835022, -0.18660084903240204, -0.35972872376441956, -0.018891219049692154, 1.188003420829773, -0.6457633972167969, 0.054664161056280136, -0.1422959566116333, -0.25408148765563965, 0.12030749768018723, -0.031038377434015274, -0.16545023024082184, 0.0032428924459964037, 