{"inputSize": 63, "labels": ["A", "B", "C", "D", "E", "F", "G", "H", "I", "J", "K", "L", "M", "N", "O", "P", "Q", "R", "S", "T", "U", "V", "W", "X", "Y", "Z", "SPACE", "DELETE"], "layers": [{"units": 128, "activation": "relu", "kernel": [[0.05890452861785889, -0.0357256680727005, -0.13281051814556122, -0.09767244756221771, 0.02818840742111206, 0.14039915800094604, 0.1321587860584259, -0.17172540724277496, 0.0361616313457489, -0.008032768964767456, 0.17105364799499512, -0.0279371440410614, -0.1767253428697586, 0.10055053234100342, 0.12159347534179688, -0.003966957330703735, -0.10357406735420227, 0.056557491421699524, -0.05664204806089401, -0.06385105848312378, 0.17247319221496582, 0.06214834749698639, 0.034799590706825256, -0.035963401198387146, 0.032325878739356995, -0.13906118273735046, -0.01566857099533081, 0.1438734531402588, 0.13283562660217285, -0.011340439319610596, 0.14716318249702454, 0.14847761392593384, 0.05269460380077362, -0.09750624746084213, -0.1316780298948288, -0.09303976595401764, -0.17241352796554565, 0.025505587458610535, -0.1419036090373993, -0.11402756720781326, 0.06518025696277618, -0.01902872323989868, -0.004291757941246033, -0.015066996216773987, -0.05387260764837265, 0.138838529586792, 0.04453498125076294, 0.17000997066497803, -0.06815464049577713, -0.09372285008430481, -0.0929049625992775, 0.15798020362854004, 0.09918650984764099, 0.12755993008613586, 0.04719172418117523, 0.13222390413284302, -0.03628399968147278, 0.0019914060831069946, -0.07019907981157303, 0.0023072808980941772, 0.08029618859291077, -0.07831057161092758, -0.15866777300834656, -0.0348505973815918, 0.0594615638256073, -0.03136718273162842, 0.1095966100692749, -0.09046056121587753, 0.15290001034736633, -0.044872745871543884, -0.1619158238172531, 0.08660352230072021, 0.09688803553581238, 0.12173330783843994, -0.06750363111495972, -0.12755657732486725, 0.003573298454284668, -0.16038383543491364, 0.019715145230293274, 0.13145652413368225, -0.10277063399553299, 0.0958089828491211, 0.11606034636497498, -0.15960752964019775, -0.007951468229293823, -0.08871171623468399, -0.11537784337997437, 0.0013741999864578247, -0.03952224552631378, -0.11259036511182785, -0.14486974477767944, 0.047554075717926025, -0.08990391343832016, -0.1681775003671646, -0.0910685583949089, 0.16229954361915588, 0.0952482521533966, 0.1411665678024292, 0.12076824903488159, 0.16087844967842102, -0.1359766274690628, -0.1687159389257431, -0.09336565434932709, -0.14762955904006958, -0.06080673635005951, 0.16219180822372437, -0.05395019054412842, -0.12189418077468872, -0.01904195547103882, -0.03449459373950958, 0.025693506002426147, 0.14847880601882935, -0.05712436884641647, 0.09235656261444092, 0.1721918284893036, -0.1300840526819229, -0.162631094455719, -0.08558511734008789, 0.06886979937553406, -0.01848943531513214, 0.15023940801620483, -0.013027846813201904, -0.11402858048677444, -0.13065731525421143, 0.06750227510929108, 0.012175947427749634, -0.07885158807039261, -0.13970200717449188], [0.16804033517837524, -0.1631908416748047, -0.08499389886856079, 0.06866680085659027, -0.16930581629276276, 0.15139669179916382, -0.14013925194740295, -0.042940929532051086, 0.043646663427352905, -0.17426729202270508, -0.048611730337142944, 0.10489705204963684, 0.038565799593925476, 0.03423893451690674, 0.08900591731071472, 0.025570794939994812, -0.16669398546218872, 0.1422751247882843, -0.027057722210884094, -0.14680448174476624, -0.1068723127245903, 0.05664530396461487, 0.1050998866558075, -0.06658373773097992, -0.06861300021409988, 0.13301268219947815, -0.14941978454589844, -0.11444299668073654, -0.1520615667104721, 0.13481658697128296, 0.027259767055511475, -0.11846920847892761, -0.017565488815307617, -0.135884091258049, -0.044782862067222595, -0.04775124788284302, -0.09536652266979218, 0.01718953251838684, -0.027920618653297424, -0.15549300611019135, -0.053441159427165985, -0.06855861842632294, -0.07326026260852814, -0.14755184948444366, -0.10097335278987885, 0.06087109446525574, 0.11610382795333862, 0.07909810543060303, -0.06215713918209076, -0.057963766157627106, -0.13454964756965637, -0.09197565168142319, 0.056310877203941345, 0.17701950669288635, 0.07162795960903168, 0.04455260932445526, -0.1584060788154602, 0.08624982833862305, -0.14201778173446655, -0.09108266979455948, 0.023842811584472656, -0.005678549408912659, -0.10917193442583084, -0.15271861851215363, -0.12011701613664627, 0.07438802719116211, -0.17015624046325684, -0.002387434244155884, -0.044872790575027466, 0.14767202734947205, 0.17251810431480408, -0.12307234853506088, -0.1478581726551056, -0.16352467238903046, -0.10104629397392273, -0.047705233097076416, 0.07360029220581055, 0.056698381900787354, 0.07879158854484558, 0.1214762032032013, 0.11239901185035706, -0.1706942468881607, 0.11023280024528503, 0.007063806056976318, 0.1258527636528015, 0.009856536984443665, -0.1623186469078064, 0.1097174882888794, 0.059864699840545654, -0.1387404501438141, -0.09973648935556412, -0.07912427186965942, -0.09614840149879456, -0.01118624210357666, 0.15566599369049072, -0.17269407212734222, 0.12882736325263977, 0.09433531761169434, 0.0020863115787506104, -0.11989918351173401, 0.11024343967437744, -0.1299205720424652, -0.04051131010055542, -0.057728223502635956, 0.019184857606887817, -0.12130363285541534, -0.13157548010349274, -0.14360655844211578, -0.1749572604894638, 0.004287272691726685, -0.1688256412744522, 0.1755019724369049, -0.12078649550676346, -0.146195188164711, 0.010112449526786804, 0.07665365934371948, -0.12127135694026947, -0.05235254019498825, -0.11652867496013641, -0.12302962690591812, 0.10196119546890259, -0.04274560511112213, -0.035648033022880554, -0.09050007164478302, 0.0971384346485138, 0.12811687588691711, -0.09019704908132553, 0.14601686596870422], [0.02646447718143463, -0.15160539746284485, 0.09870991110801697, 0.10993260145187378, 0.08305245637893677, 0.07489562034606934, -0.07205750048160553, 0.06298744678497314, -0.10026652365922928, 0.11542442440986633, 0.037542372941970825, -0.09240180999040604, -0.11680816113948822, 0.01257885992527008, 0.13159629702568054, -0.019408777356147766, 0.17434203624725342, -0.08846256881952286, 0.056699395179748535, -0.1716764271259308, -0.15411558747291565, 0.014695554971694946, 0.17092075943946838, 0.09296193718910217, 0.04951564967632294, -0.14994418621063232, 0.09830600023269653, 0.061514243483543396, 0.1167144775390625, -0.06341627240180969, -0.05799908936023712, -0.13963785767555237, -0.12633121013641357, -0.07636987417936325, 0.030760928988456726, 0.11458775401115417, 0.09296157956123352, -0.10846979171037674, -0.12349757552146912, 0.008035004138946533, 0.1010221540927887, 0.15838786959648132, -0.1185072809457779, 0.10839152336120605, -0.025574252009391785, 0.06197430193424225, 0.03465647995471954, -0.03896813094615936, 0.036166056990623474, 0.10348102450370789, 0.12628287076950073, -0.04599986970424652, 0.1375133991241455, 0.09900790452957153, 0.11707010865211487, 0.17192047834396362, -0.13569718599319458, 0.06505373120307922, -0.11756135523319244, -0.1751255840063095, 0.0792863667011261, -0.026205822825431824, -0.16738155484199524, 0.11079004406929016, 0.14466843008995056, 0.15435150265693665, -0.008317530155181885, 0.0812692940235138, -0.022210344672203064, 0.1263742744922638, -0.17171619832515717, 0.14046192169189453, -0.1541878879070282, -0.02970615029335022, 0.17594283819198608, 0.016931936144828796, -0.17066121101379395, -0.16938462853431702, 0.03726157546043396, -0.0560406893491745, 0.16794851422309875, -0.12331844866275787, -0.08128411322832108, 0.1737460494041443, 0.007528766989707947, 0.1532703936100006, 0.11417156457901001, 0.06892147660255432, 0.16316750645637512, -0.04144193232059479, 0.01831960678100586, 0.15577423572540283, -0.10927977412939072, -0.09962586313486099, 0.10824510455131531, -0.07477183640003204, -0.11382950842380524, -0.05780433118343353, 0.1263299286365509, 0.1613481342792511, 0.10784080624580383, -0.009908139705657959, 0.024845704436302185, 0.0338684618473053, -0.05978132039308548, 0.1125684380531311, -0.09854598343372345, -0.020576179027557373, 0.03960396349430084, 0.04688231647014618, 0.057243406772613525, -0.1182270273566246, -0.06041724979877472, -0.16716447472572327, -0.03961952030658722, 0.11438831686973572, 0.17200130224227905, 0.05227300524711609, 0.15686476230621338, -0.16343078017234802, -0.1403786689043045, -0.15667429566383362, -0.11759224534034729, -0.03594966232776642, -0.1066339835524559, -0.012120842933654785, -0.15920358896255493, 0.17079055309295654], [-0.41427215933799744, 0.1387244313955307, -0.04749755933880806, -0.4404761791229248, -0.2168266475200653, -0.07838939130306244, -0.3979409337043762, -0.24709878861904144, -0.1927039474248886, -0.5113304257392883, 0.37140992283821106, 0.23302869498729706, -0.0036026532761752605, -0.11253080517053604, -0.030071014538407326, 0.04437638074159622, -0.36345937848091125, 0.9970354437828064, -0.10281742364168167, -0.38736212253570557, 0.05579940602183342, -0.5151224136352539, 0.1901349127292633, 1.3300461769104004, -0.7192137837409973, -0.010671421885490417, 0.4920884966850281, -0.06543483585119247, 0.48560866713523865, -0.021443460136651993, -0.9407260417938232, -0.22038094699382782, 0.08970984816551208, 0.08399800956249237, -0.24071280658245087, -0.11139733344316483, 0.7979557514190674, 0.2845444679260254, 0.8435621857643127, 0.7307142615318298, -0.035938944667577744, 0.14670544862747192, 0.40133535861968994, 0.10608407109975815, -0.08960888534784317, 0.2083793431520462, -0.8602592945098877, 0.11109273880720139, -0.09098494052886963, -0.08623563498258591, 0.1261744350194931, -0.09659525007009506, 0.44712644815444946, 0.17906759679317474, 0.18658174574375153, -0.04249614104628563, 0.21016141772270203, 0.1448875367641449, 0.0011278627207502723, 0.13219396770000458, 0.10808343440294266, -0.21859046816825867, -0.317933052778244, 0.06662458926439285, -0.3148129880428314, 0.21586564183235168, 0.3062015473842621, 0.0728423222899437, -0.11342551559209824, 0.10367131233215332, -0.020546453073620796, -0.22377806901931763, 0.04848012700676918, 0.4116913080215454, 0.019534915685653687, -0.11083655804395676, 0.9753360748291016, 0.08698786795139313, -0.20667971670627594, 0.04721235856413841, -0.9142951965332031, 0.17746002972126007, -0.2112758606672287, 0.10584571957588196, -0.2432316094636917, 0.4073469042778015, -0.21587391197681427, 0.08249396830797195, -0.10626421123743057, -0.1141166090965271, -0.21964189410209656, -0.5220509171485901, -0.016837086528539658, -0.03450492024421692, 0.08356838673353195, -0.0962357148528099, 0.05000550299882889, -0.9732534289360046, 0.02417532354593277, 0.14453907310962677, 0.04064323753118515, -0.3698482811450958, 0.0263834111392498, 0.20004792511463165, 0.023036247119307518, 0.13530269265174866, -0.044912245124578476, -0.11818857491016388, 0.0012296548811718822, -0.2010994553565979, -0.8965723514556885, -0.0748085230588913, 0.16260787844657898, 0.19033312797546387, -0.017254017293453217, -0.3717588186264038, -0.19912558794021606, 0.040048930794000626, -0.008446868509054184, -0.10528429597616196, -0.026152005419135094, 0.7863906621932983, -0.3916868269443512, 0.04945259913802147, 0.5842241644859314, -0.14938703179359436, 0.39478185772895813, 0.08868243545293808], [-0.05336485430598259, 0.17839039862155914, -0.32423537969589233, -0.46574702858924866, 0.2391371726989746, 1.2629175186157227, -0.2137530893087387, -0.4422554075717926, 0.3739146590232849, -0.12598581612110138, 0.3947620987892151, 0.2918440103530884, -0.08888499438762665, 0.218929722905159, 0.12220153957605362, -0.16489222645759583, -0.6248764991760254, 0.014548621140420437, -0.11112275719642639, -0.22696515917778015, 0.49178367853164673, -0.3069285750389099, -0.6049562692642212, 0.01193166896700859, 0.17678231000900269, -0.2441173791885376, -0.39960721135139465, -0.18100859224796295, 0.3075873553752899, 0.2298431396484375, 0.2067558914422989, -0.30679354071617126, -0.2564690411090851, -0.21776586771011353, -0.3411232829093933, -0.3429679572582245, 0.0005566430627368391, 0.11191365867853165, -0.3047132194042206, 0.40020906925201416, 0.1350584626197815, -0.21015362441539764, 0.1251067817211151, -0.6765937805175781, 0.2481536567211151, -0.057779423892498016, 0.12457296252250671, -0.9022361040115356, 0.0932268425822258, -0.6542690992355347, -0.12186581641435623, -0.21365417540073395, 0.01809159852564335, 0.14141874015331268, -0.2153121531009674, 0.1736273318529129, 0.8614200949668884, -0.1653020679950714, 0.45515578985214233, 0.058046817779541016, -0.0012609765399247408, -0.2540666460990906, -0.12531127035617828, -0.19667670130729675, 0.21648570895195007, -0.13037295639514923, -0.14611445367336273, -0.22266151010990143, -0.19913366436958313, 0.59683758020401, 0.40896207094192505, 0.2767350971698761, -0.6266382932662964, 0.46379467844963074, -0.3478876054286957, -1.1621462106704712, 0.6004923582077026, -0.1336214244365692, 0.002799433656036854, -0.9499051570892334, -0.16216444969177246, -0.37260162830352783, 0.5011016130447388, -0.030516115948557854, -0.3019104599952698, -0.2663159668445587, -0.9018656611442566, -0.38864120841026306, 0.2849699556827545, -0.41873300075531006, 0.09407790005207062, 0.17688974738121033, -0.5827232003211975, -0.21000204980373383, 0.4644094407558441, -0.5381050705909729, -0.5594519972801208, 0.11826405674219131, 0.024226147681474686, 0.2596934735774994, -0.2006767988204956, 0.2928759455680847, 0.019544271752238274, 0.17573510110378265, 0.1439741551876068, -0.2207597941160202, -0.21548791229724884, -1.2220494747161865, -0.3292929232120514, -0.27293696999549866, 0.1476655751466751, -0.01514637004584074, 0.9436087012290955, 0.22444744408130646, -0.1667966991662979, -0.46818098425865173, 0.12376366555690765, 0.688066840171814, 0.014748433604836464, -0.029442936182022095, 0.5095788836479187, 0.24551934003829956, 0.36270126700401306, 0.2310970276594162, 0.038459375500679016, -0.13925912976264954, -0.43483081459999084, 0.31262335181236267], [-0.27793267369270325, -0.07562621682882309, 0.21757537126541138, -0.02283417619764805, -0.5226262211799622, -0.41189828515052795, -0.046291809529066086, 0.37115514278411865, -0.21626771986484528, 0.09503565728664398, 0.07137417793273926, 0.3690240979194641, 0.5556263327598572, -0.25358089804649353, 0.34660351276397705, 0.20321880280971527, -0.8409942388534546, 0.023423217236995697, -0.03106505051255226, 0.5747936964035034, 0.36655285954475403, 0.29535090923309326, -0.09721626341342926, 0.27453675866127014, -0.20341317355632782, 0.40466439723968506, -0.010945017449557781, -0.5224776268005371, -0.14577728509902954, -0.3920247554779053, -0.3357098698616028, -0.03149477764964104, 0.30111008882522583, 0.13492442667484283, -0.30616816878318787, -0.5667999982833862, -0.23462067544460297, -0.0827198475599289, 0.01849224604666233, -0.20215407013893127, -0.27086108922958374, -0.07351987063884735, 0.0007496181642636657, 0.2903038263320923, -0.2709932327270508, -0.2780344486236572, 0.1892097145318985, 0.1929624080657959, -0.4744628667831421, 0.2118682861328125, 0.21693965792655945, 0.3839357793331146, 0.23099172115325928, 0.19406697154045105, -0.23252898454666138, 0.20741170644760132, -0.328044056892395, 1.0765762329101562, 0.447664737701416, 0.5530254244804382, 0.2282112091779709, 0.09664574265480042, 0.139174222946167, -0.40492334961891174, -0.3825589716434479, 0.4252954125404358, -0.431537002325058, 0.32326027750968933, -0.3321633040904999, 0.3840084969997406, 0.682231605052948, 0.1320061981678009, -0.0012510271044448018, -0.1476207971572876, -0.007602491416037083, -0.6132319569587708, -0.06935863941907883, 0.023563707247376442, 0.0018221643986180425, -0.09132266789674759, 0.35482144355773926, 0.7808152437210083, 0.33892253041267395, 0.25619786977767944, 0.43992310762405396, 0.39101237058639526, -0.3092026114463806, -0.42223161458969116, -0.2522134780883789, 0.011534040793776512, 0.5368062853813171, -0.06991253793239594, 0.13436545431613922, 0.2726837694644928, 0.6850166916847229, -0.33036619424819946, -0.1937538981437683, -0.4592844545841217, -0.36411550641059875, -0.042660631239414215, -0.49111083149909973, 0.18412454426288605, -0.1278826743364334, 0.5469935536384583, 0.008204318583011627, 0.5171782374382019, 0.2493905872106552, -0.272813081741333, 0.20305785536766052, 0.4275576174259186, -0.37611135840415955, -0.490604430437088, 0.09745543450117111, -0.3731422424316406, -0.007075645960867405, 0.09680775552988052, -0.22036153078079224, 0.2650601267814636, 0.3345469534397125, 0.18750937283039093, -0.10071691870689392, -0.021670745685696602, -0.020021848380565643, 0.3257116675376892, -0.18819564580917358, 0.8430280089378357, 0.3613411486148834, -0.12222985923290253], [-0.49885737895965576, -0.09154941886663437, -0.007840688340365887, -0.3610047996044159, -0.3362221419811249, 0.021961772814393044, -0.4292879104614258, -0.11715038865804672, 0.21852707862854004, -0.27160435914993286, 0.004352238494902849, 0.22488214075565338, 0.08326280862092972, 0.03144349902868271, -0.2580089569091797, 0.09240421652793884, 0.029328325763344765, 0.6192021369934082, 0.01770825684070587, -0.46684905886650085, -0.14006473124027252, -0.6984068751335144, 0.26748305559158325, 0.6895462870597839, -0.48325955867767334, 0.3791182339191437, 0.27701443433761597, -0.2028086632490158, 0.16431139409542084, 0.4555704891681671, -0.27839481830596924, -0.03578018397092819, -0.2614322304725647, -0.17273567616939545, -0.0431831032037735, 0.08941123634576797, 1.3507009744644165, 0.7210898995399475, 1.3961553573608398, 0.5259160995483398, 0.10500280559062958, 0.04274888336658478, 0.10597292333841324, 0.15811805427074432, -0.20016147196292877, -0.021899180486798286, -0.2104710340499878, -0.07522278279066086, 0.06431690603494644, -0.05809398740530014, -0.10631322115659714, -0.2523294985294342, 0.6390658020973206, -0.15630067884922028, 0.7226980924606323, 0.47714903950691223, -0.09255732595920563, -0.06601664423942566, -0.037197455763816833, -0.06533864885568619, 0.08610931783914566, -0.13222651183605194, -0.5080034136772156, 0.11954782903194427, -1.3667265176773071, 0.46951088309288025, -0.21831387281417847, 0.05072580650448799, -0.056730203330516815, 0.16489183902740479, -0.10341445356607437, 0.15654228627681732, 0.001805672887712717, 0.12243186682462692, 0.05729366093873978, -0.12960995733737946, 0.6119929552078247, -0.24407190084457397, -0.22107182443141937, -0.07682149112224579, -0.2991272509098053, 0.26934388279914856, 0.17060279846191406, 0.246996209025383, -0.028757423162460327, -0.21676993370056152, -0.09831418097019196, 0.009418097324669361, 0.13090397417545319, -0.06974396854639053, 0.024446915835142136, 0.20011526346206665, 0.12632529437541962, -0.12697434425354004, 0.0912531316280365, -0.07936175912618637, 0.01013469509780407, -0.44807079434394836, -0.21452315151691437, -0.14742134511470795, -0.02283349260687828, -0.47009944915771484, 0.03955628350377083, 0.20228002965450287, 0.2849719822406769, 0.4715946316719055, -0.1488729864358902, -0.24409860372543335, -0.06031002104282379, -0.001839070930145681, -0.808296799659729, 0.7531649470329285, 0.15284550189971924, -0.27047303318977356, -0.23704761266708374, -0.035606078803539276, -0.04607503488659859, 0.059622831642627716, -0.5026203989982605, 0.021972572430968285, -0.06359540671110153, 0.643962562084198, -0.26650580763816833, 0.2858072817325592, 0.608475387096405, -0.15982356667518616, 0.04567216336727142, -0.06621048599481583], [-0.08782114088535309, 0.19774103164672852, 0.2990725040435791, -0.004066448658704758, -0.3373091518878937, 0.5960850119590759, -0.07746518403291702, -0.49383971095085144, -0.1763133853673935, 0.31090283393859863, -0.07027900964021683, 0.06210695579648018, 0.30200278759002686, 0.1383204609155655, 0.892998218536377, -0.12855690717697144, -0.29144999384880066, -0.2879403233528137, -0.08487176150083542, 0.32390013337135315, 0.7664325833320618, 0.20522527396678925, -0.7440423369407654, -0.23185303807258606, 0.08211689442396164, 0.40918421745300293, 0.3667833209037781, -0.3199254870414734, 0.10347852855920792, 0.09042060375213623, 0.22127601504325867, -0.11530164629220963, 0.7359613180160522, 0.29072093963623047, -0.31557756662368774, 0.21249619126319885, 0.04109732434153557, 0.05592532455921173, -0.17707513272762299, 0.06367697566747665, -0.24260275065898895, -0.13641250133514404, -0.13735730946063995, -0.499553382396698, 0.3842219114303589, -0.3209363520145416, 0.3244817554950714, -0.03691558167338371, 0.17891676723957062, -0.20910751819610596, -0.6035096049308777, 0.12862041592597961, -0.4886450469493866, 0.37663185596466064, -0.48955729603767395, 0.06431692093610764, 0.4473622143268585, 0.0011956782545894384, 0.29499995708465576, -0.3929120898246765, -0.10012640804052353, 0.10472432523965836, 0.00610033655539155, -0.6751435399055481, -0.08011023700237274, 0.024797514081001282, -0.3715677261352539, 0.19658702611923218, -0.16413387656211853, 0.6418317556381226, 0.46423259377479553, -0.01460628304630518, 0.12605208158493042, 0.2798861265182495, -0.11691472679376602, -1.296621561050415, 0.22756044566631317, 0.1897057294845581, -0.14186590909957886, -0.28442132472991943, 0.14749903976917267, 0.13305920362472534, 0.0963352769613266, 0.12690939009189606, 0.25650614500045776, -0.0219704732298851, -0.8738150000572205, 0.5343679785728455, -0.15886344015598297, -0.06784851104021072, -0.025977985933423042, -0.06587908416986465, -0.5185608863830566, 0.3008663058280945, 0.09102935343980789, -0.4268059730529785, 0.038985978811979294, -0.4748854637145996, -0.22892500460147858, 0.5983572006225586, -0.024313082918524742, -0.15887410938739777, -0.18832439184188843, 0.13692572712898254, 0.05820105969905853, 0.1627507358789444, -0.008640917018055916, -0.25846022367477417, 0.26774364709854126, -0.24398444592952728, -0.09373928606510162, -0.21100366115570068, 0.540701150894165, -0.26467880606651306, -0.09096314013004303, -0.19077253341674805, -0.022349447011947632, 0.6657447218894958, 0.05750694125890732, 0.5282770395278931, 0.5847637057304382, -0.12037186324596405, -0.07978025078773499, 0.20812098681926727, 0.2646670639514923, -0.33814284205436707, -0.04779689013957977, 0.47617805004119873], [0.023253897204995155, 0.030947774648666382, -0.09060995280742645, -0.11515668034553528, 0.05693675950169563, -0.2940216660499573, 2.3711083485977724e-05, -0.2941954731941223, -0.39486515522003174, 0.14567318558692932, -0.16834406554698944, 0.2316858470439911, 0.3520950973033905, -0.14618878066539764, -0.0007521000225096941, 0.1343471258878708, -0.7358022332191467, 0.14179261028766632, -0.1254342943429947, 0.20336389541625977, 0.3201318085193634, -0.14844954013824463, 0.35563167929649353, 0.040231090039014816, 0.05397753044962883, -0.07723166793584824, -0.2158176451921463, -0.485115110874176, -0.15457260608673096, -0.37342068552970886, -0.1094488874077797, 0.5014039874076843, 0.09712310135364532, -0.31966108083724976, -0.0010420194594189525, -0.30340391397476196, -0.32807278633117676, 0.038029976189136505, -0.23780161142349243, 0.08935915678739548, -0.1257832944393158, 0.35865917801856995, 0.07421426475048065, -0.06543749570846558, -0.560567319393158, 0.17578141391277313, 0.018230393528938293, 0.11897516995668411, -0.11795080453157425, 0.0977315902709961, 0.2483576536178589, -0.07728852331638336, -0.1264525055885315, -0.21863600611686707, 0.09315412491559982, -0.044356703758239746, 0.12495754659175873, 0.793952465057373, 0.26526254415512085, -0.04255588725209236, 0.07988724857568741, 0.23298054933547974, 0.23390091955661774, -0.040568847209215164, -0.2056688517332077, -0.2341770976781845, -0.33200690150260925, 0.0827268734574318, 0.03516291454434395, 0.07708097994327545, 0.3959607481956482, -0.034609243273735046, -0.2144385576248169, -0.11825419962406158, -0.27961671352386475, -0.4499739110469818, -0.02975912019610405, 0.13832587003707886, -0.17770817875862122, -0.11604324728250504, -0.154293954372406, 0.11073765158653259, -0.015103504061698914, 0.02547369711101055, 0.005010849796235561, 0.08278349041938782, -0.06768102943897247, -0.40509259700775146, -0.37749701738357544, 0.12996208667755127, -0.0030631795525550842, -0.048510123044252396, 0.10952723771333694, 0.35539406538009644, 0.3677196502685547, 0.24750368297100067, 0.11634735763072968, -0.014847366139292717, 0.07618092000484467, -0.1391039341688156, -0.09929363429546356, -0.19084353744983673, -0.20457862317562103, 0.08291228860616684, 0.20191128551959991, 0.2268451601266861, 0.13968035578727722, -0.19041353464126587, 0.12670201063156128, 0.16050979495048523, 0.1485363095998764, 0.07668745517730713, -0.2630803883075714, 0.18893606960773468, 0.10848525911569595, -0.057702090591192245, 0.09294239431619644, -0.2838795483112335, 0.26595622301101685, 0.004260956775397062, -0.18770214915275574, -0.02757890708744526, -0.052829790860414505, 0.34236106276512146, -0.019310660660266876, 0.5183935165405273, 0.038148801773786545, 0.13155676424503326], [-0.23587995767593384, -0.028088677674531937, -0.0036402991972863674, 0.32809752225875854, -0.30691730976104736, 0.13795554637908936, 0.4469967782497406, -0.10381685197353363, 0.032669004052877426, 0.3180314004421234, -0.06175560876727104, -0.2850519120693207, -0.047199804335832596, -0.16160500049591064, 0.10963311046361923, -0.010319058783352375, 0.05200213938951492, -0.0013656881637871265, 0.17545682191848755, -0.1472754180431366, 0.20145925879478455, -0.5024460554122925, 0.008500323630869389, -0.3088470697402954, -0.875249981880188, 0.057540420442819595, -0.3364860713481903, -0.048068638890981674, 0.07002463936805725, -0.2008296251296997, 0.022713368758559227, 0.10273393243551254, -0.1563459187746048, 0.42490023374557495, 0.08584680408239365, -0.1412734091281891, 0.4218285381793976, -0.3793661892414093, 0.5789949893951416, 0.5920597910881042, -0.18388617038726807, -0.15074215829372406, -0.39435669779777527, 0.14530408382415771, 0.0910087376832962, 0.005274096969515085, 0.6765230298042297, -0.04754051938652992, 0.11772164702415466, 0.01128642912954092, 0.150087371468544, -0.2008209079504013, 0.023836668580770493, -0.2879909574985504, 0.5893740653991699, 0.5140119194984436, 0.0701017677783966, -0.07181473821401596, 0.20814895629882812, 0.11453117430210114, 0.5628300309181213, -0.04640182852745056, -0.21696937084197998, -0.07712996006011963, -0.4468162953853607, 0.43010345101356506, -0.13031819462776184, 0.07962027192115784, 0.07714791595935822, 0.09478707611560822, -0.03249761462211609, 0.13683775067329407, 0.0636485368013382, -0.2748596668243408, 0.398253858089447, -0.02940940670669079, 0.2779708802700043, 0.0725969672203064, -0.2787017524242401, -0.09028267860412598, 0.4418428838253021, -0.06336992233991623, -0.11025738716125488, -0.5591984391212463, -0.6891112327575684, -0.7042580842971802, 0.13040445744991302, 0.02098958007991314, -0.010486787185072899, -0.040947478264570236, -0.4002975821495056, 0.5927926898002625, 0.7239673137664795, 0.04583277180790901, -0.048830851912498474, -0.0472857803106308, -0.03472914546728134, -0.5337008237838745, 0.29477399587631226, 0.110933817923069, -0.10401283204555511, -0.23499149084091187, -0.012941948138177395, 0.5253841280937195, 0.37534892559051514, 0.5066220164299011, -0.04787325859069824, -0.06104458123445511, -0.052647918462753296, 0.11480331420898438, -0.49901092052459717, 0.6503373384475708, -0.1558990180492401, -0.6266824007034302, 0.08011740446090698, -0.0847344696521759, -0.08528965711593628, -0.0681535005569458, -0.14945313334465027, 0.1282469779253006, 0.09179122745990753, 0.13918574154376984, -0.5148971676826477, 0.34900447726249695, -0.26932424306869507, 0.03770902007818222, -0.6911996603012085, 0.11384234577417374], [-0.2624858021736145, -0.34950947761535645, -0.12847642600536346, 0.15709750354290009, -0.02077081985771656, -0.09580279886722565, -0.09261191636323929, -0.19928200542926788, -0.8254951238632202, 0.4204947352409363, 0.5527773499488831, 0.12508663535118103, -0.12556563317775726, 0.28721192479133606, 0.18498791754245758, 0.5021011829376221, 0.23166869580745697, -0.19457130134105682, 0.6387900114059448, 0.16674493253231049, 0.10708579421043396, 0.0033316740300506353, -0.04456576704978943, 0.08889584988355637, 0.09635835140943527, 0.30687475204467773, 0.22471462190151215, 0.09801545739173889, -0.3960403501987457, 0.07372000813484192, -0.07760965079069138, -0.491899311542511, 0.8957985043525696, 0.29380351305007935, -0.6964594721794128, 0.25476235151290894, -0.31819862127304077, -0.033456429839134216, -0.18372632563114166, 0.1952710896730423, -0.1878708302974701, 0.5838027596473694, 0.2231932133436203, -0.15659086406230927, 0.013166744261980057, 0.08127904683351517, 0.20263764262199402, 0.41164863109588623, -0.2010660171508789, 0.3736555278301239, -0.14334045350551605, 0.12244594842195511, 0.056716833263635635, 0.1342615932226181, -0.016209520399570465, 0.03619813919067383, 0.09533664584159851, -0.12069712579250336, -0.24778491258621216, -0.513268232345581, 0.1707078069448471, 0.3514178693294525, 0.02358085848391056, -0.051663123071193695, -0.38100531697273254, -0.05460253357887268, -0.19169111549854279, 0.07815734297037125, -0.007466656621545553, 0.4369107782840729, 0.3945187032222748, -0.09507457166910172, 0.16400110721588135, 0.8313331007957458, 0.11734884977340698, -0.740145742893219, -0.11184874922037125, -0.31683313846588135, -0.14368349313735962, 0.4871911108493805, 0.06532096117734909, 0.1955973356962204, 0.4666115641593933, 0.19857782125473022, 0.2766723930835724, 0.2144250124692917, -0.43612930178642273, 0.15332487225532532, -0.0003552955749910325, -0.09345293790102005, 0.2781498432159424, -0.16393348574638367, -0.014449807815253735, 0.5339788794517517, 0.3221757113933563, 0.46336501836776733, 0.29118213057518005, -0.4255105257034302, -0.31408530473709106, -0.052977509796619415, -0.13813146948814392, 0.043376076966524124, -0.6011285185813904, 0.162140354514122, 0.31653204560279846, 0.26318201422691345, 0.028204895555973053, 0.821576714515686, 0.3562580645084381, -0.22450047731399536, -0.11818023025989532, 0.26050645112991333, 0.548332929611206, -0.07437890022993088, -0.42199644446372986, 0.024088647216558456, -0.25683078169822693, -0.4192737638950348, 0.20000100135803223, -0.025421496480703354, -0.2990977466106415, 0.00406205840408802, 0.17138582468032837, 0.3249815106391907, 0.1709136664867401, -0.5546884536743164, -0.05936626344919205, 0.09072833508253098], [0.008776059374213219, -0.0901617705821991, -0.14508719742298126, 0.10209628939628601, 0.009084697812795639, -0.23470820486545563, 0.28176039457321167, -0.07091520726680756, -0.5396299958229065, 0.17543992400169373, -0.28839367628097534, 0.0793900117278099, 0.17745326459407806, 0.09949708729982376, -0.15119895339012146, 0.02595645748078823, -0.39214184880256653, 0.16345436871051788, -0.10710011422634125, -0.0743926391005516, 0.18950200080871582, -0.05249001085758209, 0.5234872102737427, -0.24999596178531647, -0.04383773356676102, -0.32462769746780396, -0.2618846893310547, -0.13815273344516754, -0.21276383101940155, 0.16052639484405518, -0.40524643659591675, 0.6597228646278381, -0.12459161877632141, -0.19669842720031738, 0.11540409177541733, -0.136190265417099, 0.01647539623081684, 0.17292074859142303, 0.10564886033535004, -0.1958286315202713, -0.054792001843452454, 0.1099395826458931, 0.04147211089730263, -0.10394170880317688, -0.1959870308637619, 0.18288764357566833, -0.2591075301170349, 0.057085826992988586, -0.37406402826309204, 0.5135915279388428, -0.21884962916374207, -0.281534343957901, 0.152398943901062, -0.26271653175354004, 0.3732595145702362, -0.16141892969608307, 0.004317129962146282, 0.626878559589386, 0.1223723441362381, -0.20491792261600494, 0.09701453894376755, 0.13729959726333618, 0.43789446353912354, -0.040171068161726, -0.2388305366039276, -0.2622121572494507, -0.11009672284126282, -0.06601715087890625, 0.5480056405067444, -0.2184363156557083, 0.1452564001083374, 0.044144440442323685, -0.18042024970054626, -0.13869722187519073, -0.0684402659535408, -0.19376401603221893, 0.10849307477474213, -0.03728168457746506, -0.05863664299249649, 0.047371745109558105, -0.09525339305400848, -0.3703233599662781, 0.18499796092510223, 0.2006652057170868, -0.15267309546470642, 0.1445401906967163, 0.07563459873199463, -0.17850261926651, -0.22599361836910248, 0.15964901447296143, -0.3528127372264862, -0.4443432688713074, -0.1389637440443039, 0.07845550030469894, 0.1266087144613266, -0.010226692073047161, 0.314113974571228, -0.07180426269769669, 0.04365404322743416, 0.0466136559844017, -0.00032472587190568447, -0.2017754763364792, -0.007291275076568127, 0.17671221494674683, -0.24589666724205017, 0.06622494757175446, -0.20180287957191467, 0.001140659092925489, -0.20236487686634064, 0.22858567535877228, 0.10317599773406982, 0.016868069767951965, -0.4903433322906494, 0.219896599650383, -0.1791403740644455, 0.11329514533281326, 0.21563048660755157, -0.03095467947423458, -0.1710011512041092, -0.28366658091545105, 0.0022526353131979704, -0.04594622924923897, 0.003794299205765128, 0.10949646681547165, -0.01736554689705372, 0.0355670303106308, -0.21605725586414337, 0.24397148191928864], [-0.33024078607559204, 0.051893919706344604, 0.06702524423599243, 1.73477041721344, 0.3564448058605194, -0.07707122713327408, 0.4235198199748993, 0.1026361957192421, -0.1255372017621994, 1.0616343021392822, -0.01717885211110115, -0.37476646900177, 0.036409005522727966, 0.046954166144132614, -0.10634341835975647, 0.10235383361577988, 0.1219806969165802, -0.8794893622398376, 0.2590501606464386, 0.1634717881679535, -0.01385488174855709, 1.3241559267044067, -0.01872752420604229, -1.7942023277282715, -0.7367439866065979, -0.17147047817707062, -1.6262085437774658, 0.11856675893068314, 0.14430293440818787, -0.0936351791024208, 0.571423351764679, 0.04123421758413315, 0.06795325875282288, 1.4495632648468018, 0.03348636254668236, 0.051074761897325516, -1.5698131322860718, -1.8894412517547607, -1.5657514333724976, 0.8637500405311584, 0.042945496737957, -0.022821836173534393, -0.2324354648590088, -0.123286671936512, 0.15035967528820038, -0.17245908081531525, 1.7632933855056763, -0.008959108032286167, -0.11737076938152313, 0.07339879125356674, -0.12022540718317032, 0.4052148759365082, -0.5572148561477661, -0.47253260016441345, 1.0355736017227173, 0.681077778339386, -0.09074912965297699, 0.03468499332666397, -0.09257383644580841, -0.12206863611936569, 0.45562809705734253, 0.2520209550857544, 0.25810036063194275, -0.027359459549188614, 1.545643925666809, -0.40264588594436646, 0.14114685356616974, 0.040385931730270386, 0.15891076624393463, -0.0387052483856678, 0.09089230746030807, 0.07180149108171463, -0.12798462808132172, -0.19453194737434387, 1.542104721069336, 0.009596510790288448, -0.515479326248169, 0.12136690318584442, -0.8884274363517761, 0.0996529757976532, 1.2808600664138794, -0.15944761037826538, 0.09685134887695312, -1.6468160152435303, -0.9875725507736206, -0.9887397885322571, -0.04809366166591644, 0.02023262158036232, 0.12071505934000015, -0.03999520465731621, -1.3688921928405762, 0.6203027963638306, 0.886025607585907, 0.16707850992679596, -0.10892090201377869, -0.06976370513439178, -0.03087877482175827, -0.2874716818332672, -0.04521689563989639, -0.12715893983840942, -0.17917323112487793, 0.4585586190223694, -0.24802148342132568, 1.6044880151748657, 0.27196863293647766, 0.1556689739227295, -0.32465752959251404, -0.10129011422395706, 0.05343814939260483, -0.2720501124858856, 0.015205539762973785, 1.1124905347824097, -0.021234819665551186, -0.6396734118461609, -0.0015122677432373166, -0.5737068057060242, -0.0664566159248352, 0.10882647335529327, 0.19641579687595367, -0.1156364157795906, -0.1217443123459816, -0.36580732464790344, -0.307001531124115, -0.10896583646535873, -1.4233390092849731, -0.03397451341152191, -0.4614160358905792, 0.0029438959900289774], [0.23299027979373932, -0.6600522398948669, 0.5061853528022766, -0.34922897815704346, -0.10036024451255798, 0.03258206322789192, -0.19016222655773163, 1.5678669214248657, -0.6121320128440857, 0.31575554609298706, 1.6290524005889893, 0.4571897089481354, -0.10148362070322037, -0.9210579991340637, -0.7608574032783508, 0.8854655027389526, 1.106178641319275, 0.19883213937282562, 1.3783254623413086, 0.051251184195280075, -1.0673691034317017, 0.32684314250946045, -0.5402824878692627, -0.08542869240045547, -0.0742219015955925, -0.26395344734191895, -0.36866825819015503, 0.9693036675453186, -0.19545713067054749, -0.1242375373840332, 0.17885547876358032, -1.470028281211853, 0.45491182804107666, -0.5159817337989807, -0.5366904735565186, 0.7375025749206543, 0.2607690691947937, -0.6337319612503052, 0.900550127029419, -0.36970075964927673, 0.1615687757730484, -0.13828705251216888, 1.6101359128952026, 0.989700436592102, 0.49671754240989685, 0.5056503415107727, -0.23199380934238434, 0.3791240453720093, -0.6335095763206482, -0.6603736877441406, -0.6238151788711548, -0.0718735009431839, 1.1776663064956665, -0.5139191150665283, -0.18182359635829926, -0.21010559797286987, -0.49664708971977234, 0.32650992274284363, -0.21199806034564972, 0.9606455564498901, 0.05197117477655411, 0.7368865013122559, -0.8807615041732788, 1.3345295190811157, 0.2470492124557495, 0.07168067246675491, 1.138507604598999, 0.05784939229488373, -1.012101650238037, 0.8744154572486877, 0.1096281036734581, -0.042145710438489914, 0.29042690992355347, 1.1846685409545898, -0.41346314549446106, -0.5006412863731384, -0.6245344877243042, -0.5427008867263794, -0.3106611371040344, 0.37885066866874695, -0.22715617716312408, 0.31279656291007996, 1.144934892654419, -0.224919393658638, -0.29561686515808105, 0.14953701198101044, -0.08176614344120026, 0.2355334311723709, 0.7590839266777039, -0.24327410757541656, 0.008048415184020996, -0.3090355098247528, -0.5335999131202698, 0.9807029366493225, 0.8006892204284668, 0.19872097671031952, 0.3957134485244751, -0.5094354748725891, -0.5791857838630676, -0.2530958950519562, -0.24940581619739532, 1.10146164894104, -0.7006567120552063, -0.43985068798065186, -0.09913031756877899, -0.16409650444984436, 0.010087541304528713, 0.9694191813468933, 0.4228956699371338, -0.9064899682998657, -0.12147456407546997, -0.18617533147335052, 0.5941038727760315, -0.0744241252541542, -0.690467357635498, -0.22298859059810638, -1.3647698163986206, -0.5811659097671509, -0.26917245984077454, -0.41780930757522583, -0.7088809609413147, -0.15353041887283325, 0.19588853418827057, 0.0065899561159312725, -0.45723384618759155, -0.6301897764205933, 0.23816624283790588, -0.6035076379776001], [0.024454660713672638, 0.03354421257972717, 0.026978248730301857, 0.31603655219078064, 0.3419172167778015, 0.16728200018405914, 0.3190229833126068, 0.13703188300132751, -0.10537000745534897, 0.2376640886068344, 0.07526293396949768, 0.3681946396827698, -0.25422894954681396, 0.06527448445558548, 0.016245368868112564, 0.3586876690387726, -0.35575687885284424, -0.18568581342697144, 0.027215298265218735, 0.19448791444301605, 0.015592716634273529, 0.14982807636260986, 0.6011775732040405, 0.006368793547153473, -0.2970753312110901, -0.1784123182296753, 0.2517238259315491, 0.04742574691772461, -0.10565211623907089, 0.6726605296134949, -0.09642825275659561, 0.26800379157066345, -0.4581822156906128, 0.09182057529687881, -0.10695943236351013, -0.2428341656923294, 0.44581446051597595, 0.22250790894031525, 0.25841110944747925, -0.3534606695175171, -0.07455221563577652, -0.4824179410934448, 0.41140082478523254, -0.05624910444021225, 0.6860976815223694, 0.5695241093635559, -0.10628857463598251, -0.3207666277885437, -0.1566973626613617, 0.5354593396186829, -0.5704749822616577, 0.0803774744272232, 0.09656652808189392, -0.18138723075389862, 0.5068191289901733, -0.08916417509317398, 0.571450412273407, 0.7774800062179565, -0.2825954854488373, -0.2728908360004425, -0.05903935432434082, 0.2257946878671646, 0.13736583292484283, -0.15056145191192627, 0.29390254616737366, -0.006785034202039242, 0.08055033534765244, -0.2558162212371826, 0.9844160079956055, 0.009283422492444515, 0.3108222782611847, -0.036567606031894684, 0.30853962898254395, -0.045662522315979004, 0.3052472472190857, -0.2655965983867645, 0.28278791904449463, -0.08124671876430511, 0.20778174698352814, 0.28946295380592346, -0.18556629121303558, -0.3486701548099518, 0.25375136733055115, 0.29995012283325195, -0.03898799419403076, 0.13581517338752747, -0.01650112308561802, 0.49122458696365356, 0.01553050335496664, -0.15168209373950958, -0.2428383231163025, -0.3308066129684448, -0.1500835418701172, -0.1359848529100418, 0.3025965392589569, -0.32240235805511475, 0.3941693603992462, -0.13924287259578705, 0.08814869076013565, 0.21621093153953552, -0.14233750104904175, 0.3017447292804718, 0.4292549788951874, 0.23085246980190277, -0.2648477554321289, 0.021998757496476173, -0.14832589030265808, 0.031689878553152084, 0.1573314070701599, -0.08053995668888092, 0.4087240695953369, 0.1618877500295639, -0.39280763268470764, 0.03304038941860199, -0.15045271813869476, 0.2122153341770172, 0.7140786051750183, -0.17650209367275238, -0.09362383931875229, -0.2423524409532547, -0.18826520442962646, -0.12526915967464447, 0.11604475975036621, -0.023179860785603523, 0.021244945004582405, -0.23785680532455444, -0.40935176610946655, 0.15209729969501495], [-0.31718453764915466, -0.029243582859635353, 0.16317105293273926, 0.07326676696538925, -0.6232010722160339, -0.009044176898896694, -0.6413954496383667, -0.035288937389850616, 0.07461673766374588, 0.4602315425872803, 0.07594709098339081, 0.08252793550491333, 0.04736851155757904, -0.17669066786766052, -0.0729660838842392, 0.015210853889584541, 0.19348350167274475, 0.932363748550415, 0.21469421684741974, 0.07718998193740845, 0.11014245450496674, -0.14059770107269287, -0.0016813045367598534, 0.06448345631361008, -0.0022880316246300936, 0.11377670615911484, 0.005391014274209738, -0.08780678361654282, 0.16696251928806305, 0.4254934787750244, -0.06427847594022751, 0.06718533486127853, -0.0690438523888588, -0.029508987441658974, -0.10318350791931152, -0.15236477553844452, 0.5981484055519104, 0.18163321912288666, 0.19577337801456451, 0.027290407568216324, -0.008057625964283943, 0.04977136850357056, -0.021621093153953552, -0.08530570566654205, -0.1380721479654312, 0.08966528624296188, -0.3113434612751007, 0.1217360571026802, 0.08635421842336655, -0.05611312389373779, -0.09166953712701797, 0.03559143841266632, 0.2412576973438263, -0.10198988020420074, -0.5401530861854553, -0.010712570510804653, -0.06434828788042068, -0.06503752619028091, 0.0008961178245954216, 0.06814686208963394, 0.4718305468559265, 0.044830191880464554, -0.5176398754119873, -0.13653527200222015, -0.7078311443328857, 0.09621863812208176, -0.010332999750971794, -0.05540916696190834, 0.07619015127420425, 0.005859792698174715, 0.010578250512480736, -0.11162805557250977, -0.1534624546766281, -0.307395339012146, 0.020543651655316353, -0.029334355145692825, 0.48014742136001587, -0.01888321153819561, -0.1719309389591217, -0.025033628568053246, -0.2856760621070862, -0.03425450250506401, -0.04899699240922928, 0.3307100832462311, -0.4948357343673706, -0.15655337274074554, 0.03760867565870285, 0.1404394805431366, 0.05048234760761261, 0.07732655853033066, -0.4802938401699066, -0.2762581408023834, 0.5381994843482971, 0.02657267637550831, -0.10352020710706711, 0.0009236360201612115, 0.15325213968753815, 0.4219887852668762, 0.16684439778327942, 0.02220156230032444, -0.012207739986479282, -0.2907347083091736, 0.12201392650604248, -0.006257703527808189, 0.18661871552467346, 0.26446935534477234, -0.06576207280158997, 0.055218424648046494, -0.0018582370830699801, -0.016257690265774727, -0.2134205400943756, 0.5674741864204407, -0.038011640310287476, -0.5433233380317688, 0.00985292810946703, -0.3319695293903351, 0.06607112288475037, -0.08066847175359726, -0.25204357504844666, -0.21024154126644135, -0.02936110459268093, 0.45179060101509094, -0.5867679715156555, -0.005399689543992281, -0.14498072862625122, -0.01152202021330595, -0.12409532070159912, 0.04218999296426773], [-0.07552162557840347, -0.11339946836233139, 0.008039547130465508, -0.11942209303379059, -0.1263379007577896, -0.1493002474308014, 0.06428135186433792, -0.6807719469070435, 0.24574197828769684, -0.05094515532255173, -0.15071582794189453, -0.37905529141426086, -0.5074072480201721, 0.8802579641342163, 0.19460166990756989, 0.14942683279514313, 0.17612339556217194, -0.1617390513420105, 0.09903360158205032, 0.14523592591285706, 0.5265598893165588, -0.03718728944659233, -0.4584749639034271, -0.03211225941777229, 0.3615269064903259, 0.06782986223697662, -0.12174535542726517, -0.11650925874710083, 1.0334787368774414, -0.06412459909915924, 0.6306346654891968, -0.06803358346223831, -0.49451690912246704, -0.17805474996566772, -0.44666987657546997, 0.14226527512073517, 0.1673377901315689, 0.030158452689647675, 0.03485913574695587, 0.024925634264945984, -0.5244988203048706, -0.2623181939125061, 0.17456744611263275, -0.4767114222049713, 0.003962201531976461, 0.10666735470294952, 0.22150298953056335, -0.9590611457824707, 0.027245547622442245, -0.34557387232780457, 0.07534948736429214, -0.09114212542772293, -0.45176732540130615, 0.24400632083415985, -0.3065524101257324, -0.04420944303274155, 0.0801621749997139, -0.4112696349620819, -0.10709907859563828, 0.12023881822824478, -0.07311850786209106, 0.28629499673843384, 0.16182680428028107, -0.6815475821495056, 0.3003424108028412, -0.09481814503669739, -0.2232607752084732, -0.18104377388954163, -0.3945203125476837, -0.061609022319316864, 0.4674832820892334, -0.2617112696170807, -0.028187479823827744, -0.11027564853429794, -0.33094239234924316, 0.02357611060142517, 0.327414333820343, 0.4050251245498657, -0.10015379637479782, -0.12478145211935043, 0.3117002546787262, 0.2798040807247162, -0.37816882133483887, -0.030180536210536957, 0.023093339055776596, -0.2212233543395996, -0.6576250195503235, -0.07155391573905945, -0.5932663679122925, -0.45839616656303406, -0.10540926456451416, 0.01820138655602932, -0.07268673181533813, 0.26765695214271545, -0.1064370721578598, -0.16307932138442993, -0.2271689772605896, 1.007029414176941, -0.167581707239151, -0.15920962393283844, -0.2023053914308548, -0.3299057185649872, 0.3021607995033264, -0.07483597844839096, -0.14770936965942383, -0.04605649784207344, 0.0918317660689354, -0.7937795519828796, 0.3325226306915283, 0.7944222688674927, -0.011119358241558075, 0.026431424543261528, -0.04261060059070587, -0.039925627410411835, 0.2962636947631836, -0.4231361150741577, -0.043840616941452026, -0.4188225269317627, 0.19911716878414154, 0.044394027441740036, 0.3028896749019623, -0.0022954540327191353, 0.06395994126796722, -0.04556763544678688, 0.12734179198741913, 0.5306800603866577, -0.1649070382118225, 0.11470121890306473], [0.08384384959936142, 0.369081050157547, -0.10050056874752045, -0.18161918222904205, 0.2681390941143036, 0.37173041701316833, -0.0001516455813543871, -0.3295069932937622, 0.75067138671875, 0.13705985248088837, -0.33021286129951477, -0.45448142290115356, -0.38007116317749023, 0.004830431193113327, -0.22838802635669708, -0.4974268674850464, -0.07475946843624115, 0.22699250280857086, -0.0028293346986174583, -0.348793625831604, 0.07147282361984253, -0.07242552936077118, -0.45942258834838867, -0.05703260377049446, 0.2586783170700073, -0.11161690950393677, 0.09925630688667297, 0.15243390202522278, 0.549615204334259, 0.3682371973991394, 0.3211980164051056, -0.39077028632164, 0.0618966668844223, 0.055692896246910095, 0.4341251850128174, 0.2445649951696396, 0.12797565758228302, 0.11604814976453781, -0.04145093262195587, 0.23264218866825104, 0.19942986965179443, -0.11434274166822433, -0.17520321905612946, -0.3579307198524475, 0.6063385605812073, -0.5980381369590759, 0.11244317144155502, -0.1254069209098816, 0.3165508806705475, -0.5739045739173889, 0.45388805866241455, 0.004605487920343876, 0.03931385278701782, 0.34584832191467285, -0.1538911759853363, -0.2834790349006653, 0.09476830810308456, 0.12957000732421875, -0.44172513484954834, 0.1246732771396637, -0.22032535076141357, -0.35451534390449524, -0.13539326190948486, 0.02990647405385971, 0.4207078218460083, -0.09568653255701065, 0.13925707340240479, -0.22889070212841034, -0.3202710449695587, -0.010091833770275116, 0.18317261338233948, 0.4415270686149597, 0.576384425163269, -0.18367986381053925, 0.09070982038974762, 0.11926063895225525, 0.14299476146697998, -0.13867813348770142, -0.02198106050491333, -0.08670413494110107, 0.3846706449985504, 0.3006795644760132, -0.13798047602176666, -0.2849298417568207, -0.056556377559900284, 0.059355419129133224, 0.04490116238594055, 0.3244936764240265, 0.02973959408700466, -0.20164808630943298, -0.3889254331588745, 0.16122496128082275, -0.2398613840341568, 0.7770640254020691, -0.17906735837459564, 0.080059714615345, -0.0009693898027762771, 0.44183045625686646, 0.22216585278511047, 0.008112350478768349, 0.4655744433403015, 0.4331396222114563, 0.5722523927688599, -0.31929469108581543, -0.19924046099185944, 0.02977273054420948, -0.06008956953883171, -0.09724248200654984, -0.42665719985961914, 0.20793776214122772, 0.3365548849105835, 0.3273572027683258, 0.2968723177909851, 0.01971241645514965, -0.06373865902423859, -0.02378799580037594, -0.03315531462430954, 0.11750441789627075, -0.127628356218338, 0.18404433131217957, 0.13389694690704346, 0.33868077397346497, -0.33689582347869873, -0.1985759735107422, 0.07607006281614304, -0.37707072496414185, -0.2106330394744873, -0.04687697812914848], [0.025094328448176384, -0.03874516114592552, 0.23430214822292328, 0.2760430574417114, 0.42694172263145447, -0.049477655440568924, -0.271672785282135, 0.2468850314617157, -0.14889264106750488, 0.28698062896728516, 0.013866527937352657, 0.23603057861328125, -0.08307823538780212, 0.00019884476205334067, 0.07598766684532166, 0.12957637012004852, -0.07127493619918823, -0.16178038716316223, 0.26059532165527344, 0.3752311170101166, 0.11420392245054245, -0.7606045007705688, -0.015828581526875496, -0.13869349658489227, 0.3622714579105377, -0.7733221650123596, 0.4003145396709442, 0.03713219612836838, 0.2510750889778137, 0.11079944670200348, 0.3823689818382263, 0.011559579521417618, 0.23543992638587952, -0.15415090322494507, 0.09095302224159241, 0.11804069578647614, 0.18713903427124023, -0.13445180654525757, 0.2780291736125946, -0.5111979842185974, 0.18718662858009338, 0.004674472846090794, -0.07003062218427658, 0.03218446671962738, 0.06050799787044525, 0.17312881350517273, -0.12445950508117676, -0.016034245491027832, -0.06369367241859436, -0.029842495918273926, 0.13609547913074493, -0.5332918167114258, -0.08943258225917816, 0.33080628514289856, -0.8059529066085815, -0.6154441237449646, -0.13305127620697021, 0.029771147295832634, 0.01682351529598236, -0.07843785732984543, 0.38243579864501953, -0.040236253291368484, -0.27392271161079407, -0.04660341516137123, -0.17024901509284973, 0.26563867926597595, 0.0355866514146328, 0.0829429030418396, -0.15116828680038452, 0.08194629102945328, 0.05649688094854355, 0.07826347649097443, 0.25077342987060547, -0.25423118472099304, -0.33346956968307495, -0.07036694139242172, -0.4946245551109314, 0.7388416528701782, -0.7094403505325317, -0.03297170624136925, -0.8489828109741211, 0.08077070116996765, -0.15969151258468628, 0.24273517727851868, 0.4491705000400543, -0.09284846484661102, 0.045764826238155365, 0.049423426389694214, -0.2018996924161911, 0.024537404999136925, -0.44882825016975403, 0.26655274629592896, -0.08202583342790604, 0.01395675539970398, 0.05827413126826286, 0.19081372022628784, 0.042913615703582764, 0.2444407194852829, 0.013534286059439182, 0.06581559777259827, -0.026968201622366905, 0.14011508226394653, -0.3134579062461853, -0.06365890055894852, -0.03400275856256485, -0.571189820766449, 0.6741508841514587, -0.04808587208390236, 0.03687402233481407, 0.09720596671104431, 0.8343530893325806, 0.06581200659275055, -0.04515596851706505, -0.11554048955440521, -0.01969643495976925, -0.5682165026664734, 0.08968745172023773, -0.03127575293183327, 0.7219511866569519, -0.028484022244811058, 0.019046146422624588, -0.7445517778396606, 0.004883016925305128, -0.3449037969112396, -0.016412930563092232, -0.02118331380188465, 0.34095439314842224, -0.0002264482609461993], [-0.1528634876012802, -0.041558295488357544, 0.05544048920273781, 0.11498560756444931, -0.06908627599477768, -0.40369662642478943, 0.19421686232089996, -0.24045996367931366, -0.18376889824867249, 0.12050916999578476, -0.28529441356658936, -0.27467697858810425, -0.5589771866798401, 0.17249354720115662, -0.02444331720471382, 0.025677964091300964, 0.5973756313323975, -0.14839361608028412, 0.10091511905193329, 0.11250946670770645, 0.1730078011751175, -0.15738670527935028, 0.37036269903182983, -0.15849334001541138, 0.18468616902828217, 0.06739696115255356, -0.1274859607219696, -0.07168653607368469, 0.38498538732528687, 0.10577176511287689, 0.2301817089319229, 0.29071030020713806, 0.38286900520324707, -0.0323452390730381, -0.27251896262168884, 0.3633142411708832, -0.10949679464101791, 0.26596498489379883, -0.23651359975337982, -0.09157951176166534, -0.2701233923435211, 0.057025596499443054, -0.009285792708396912, -0.17345502972602844, -0.1349613219499588, -0.18169666826725006, -0.041194844990968704, -0.02902134321630001, -0.2128293812274933, 0.1457999348640442, -0.0721127912402153, -0.11492830514907837, 0.01670875959098339, 0.08414112031459808, 0.23121806979179382, -0.12201389670372009, -0.5304802656173706, 0.196977898478508, -0.29523965716362, -0.4588291347026825, -0.032563503831624985, -0.23954032361507416, 0.08256571739912033, -0.06277764588594437, -0.15816886723041534, -0.050233323127031326, -0.23948857188224792, -0.18618397414684296, 0.1781020611524582, -0.3628119230270386, 0.12848210334777832, -0.2169828712940216, 0.09375260025262833, 0.09080149233341217, -0.23320573568344116, 0.8492948412895203, 0.2117195576429367, 0.18429502844810486, -0.19037221372127533, 0.21202534437179565, 0.039486464112997055, 0.019297504797577858, -0.2104894518852234, 0.0810125395655632, -0.1625199317932129, 0.23239096999168396, 0.11407781392335892, -0.1494998335838318, -0.057355474680662155, -0.222092404961586, 0.045819368213415146, -0.1591169387102127, -0.05485140159726143, 0.8146203756332397, -0.20647567510604858, 0.151245579123497, 0.2971794307231903, 0.6200960278511047, 0.05291382223367691, -0.5626630187034607, 0.005879162345081568, -0.2694579064846039, -0.21908524632453918, -0.029977796599268913, 0.053495585918426514, 0.18429060280323029, -0.2858758270740509, -0.12182609736919403, 0.17932704091072083, 0.6150658130645752, 0.2414189875125885, -0.13041050732135773, -0.06796042621135712, -0.07411523163318634, 0.15545803308486938, 0.05913392826914787, 0.16529154777526855, -0.4813423156738281, -0.06735642999410629, -0.038206469267606735, 0.2268252670764923, -0.16414132714271545, -0.2293592244386673, 0.0905974954366684, 0.04445923864841461, -0.07880772650241852, -0.14150817692279816, -0.3164221942424774], [0.048737458884716034, -0.1792452037334442, 0.011631490662693977, -0.18140991032123566, -0.10120896995067596, -0.14430119097232819, 0.06874434649944305, 0.1490393429994583, -0.05985560268163681, -0.07513635605573654, 0.09819663316011429, -0.005228012800216675, 0.014311806298792362, -0.20574066042900085, 0.07979051023721695, -0.015436207875609398, 0.20918788015842438, 0.20779158174991608, -0.05058258771896362, 0.15442442893981934, -0.17057578265666962, -0.04058906435966492, -0.03029862977564335, -0.15888062119483948, -0.11129569262266159, 0.12276884913444519, -0.054645463824272156, -0.15876702964305878, 0.327345609664917, -0.04109477996826172, 0.3273187577724457, -0.00884181447327137, -0.002868347568437457, -0.21374963223934174, 0.24807310104370117, -0.28206148743629456, -0.12490863353013992, -0.06338465958833694, 0.07381530106067657, -0.1833307296037674, 0.3000240623950958, 0.11503709107637405, 0.1871863305568695, -0.019520463421940804, -0.01822938583791256, -0.24795176088809967, 0.16742700338363647, 0.24587152898311615, 0.03478984907269478, -0.14279569685459137, -0.06961631774902344, -0.02698746882379055, 0.04559594765305519, -0.2585280239582062, 0.02774881385266781, 0.13919612765312195, -0.3376830518245697, 0.1024475023150444, -0.08948228508234024, 0.25892338156700134, 0.0063567012548446655, -0.044508181512355804, -0.04725956171751022, 0.2850041687488556, -0.09972036629915237, 0.19248035550117493, -0.16756975650787354, 0.1169637069106102, -0.47940731048583984, 0.04760027676820755, -0.21811456978321075, -0.2288830727338791, -0.12514863908290863, 0.00875353254377842, -0.1675674170255661, 0.2656674385070801, -0.21786391735076904, 0.12506915628910065, -0.18061460554599762, -0.31009411811828613, 0.0629587173461914, 0.36420324444770813, 0.022620629519224167, 0.0668380856513977, 0.10817264020442963, 0.06641852110624313, 0.11264201998710632, -0.27044644951820374, 0.48912540078163147, 0.15849246084690094, 0.003300058888271451, -0.06721551716327667, 0.21365557610988617, 0.01578148826956749, -0.4302379786968231, 0.10637448728084564, 0.09072455018758774, 0.27652424573898315, -0.31619933247566223, 0.0633934810757637, 0.26216059923171997, 0.15511372685432434, -0.24731303751468658, -0.24789179861545563, 0.20562046766281128, -0.04002181440591812, -0.23021934926509857, 0.0006975703872740269, 0.1891804188489914, -0.03340483084321022, -0.019127141684293747, -0.10187558084726334, 0.1536329835653305, -0.05218978598713875, -0.10301545262336731, -0.1031736433506012, -0.4027048945426941, -0.033803541213274, -0.09604612737894058, -0.09308347851037979, 0.20072001218795776, -0.06569476425647736, -0.01928022690117359, 0.025798827409744263, -0.31356319785118103, 0.17704500257968903, -0.04233253002166748, -0.3943614065647125], [0.2531120479106903, 0.08765996992588043, 0.1184498593211174, 0.13981667160987854, 0.43109631538391113, -0.16049884259700775, 0.25044891238212585, 0.12080511450767517, -0.07196162641048431, -0.13302724063396454, -0.24667243659496307, 0.554508626461029, -0.07214676588773727, 0.05350646376609802, 0.029699908569455147, -0.21170073747634888, -0.11192528903484344, -0.4623642563819885, -0.22429700195789337, 0.9698702692985535, -0.03602064400911331, -1.160191535949707, 0.06073327362537384, 0.0871490016579628, 0.5391359925270081, -1.1198002099990845, 0.2681761682033539, 0.04505092650651932, -0.043412946164608, -0.5161958932876587, 0.5166161060333252, -0.08741581439971924, -0.0682520717382431, -0.21782945096492767, 0.05228690803050995, -0.07576649636030197, -0.08776478469371796, -0.43430593609809875, 0.30814701318740845, -0.3621352016925812, 0.13894023001194, -0.009017000906169415, -0.02134346216917038, -0.17400090396404266, 0.06889685988426208, -0.15000896155834198, -0.0181390643119812, 0.045725204050540924, -0.09252338111400604, -0.023691894486546516, -0.12071948498487473, -1.0479565858840942, -0.08433911204338074, 0.23802104592323303, -0.0339072048664093, -1.0832798480987549, -0.18278254568576813, 0.027917837724089622, 0.056313931941986084, -0.03614494949579239, -0.8586726188659668, -0.1920800656080246, 0.14293208718299866, -0.0003389146295376122, 0.2457209974527359, 1.1194719076156616, 0.04016796499490738, -0.19444189965724945, -0.025190657004714012, -0.09943868964910507, -0.04249100387096405, 0.12029318511486053, 0.19942787289619446, 0.3501662313938141, -0.29412662982940674, -0.10030663758516312, -0.6797964572906494, 1.1392563581466675, -0.171656996011734, -0.2447676956653595, 0.0713062658905983, -0.2813189625740051, -0.06797422468662262, -0.04618468135595322, 0.32265496253967285, 0.016304727643728256, -0.04787537083029747, 0.04220446199178696, -0.028722453862428665, 0.01372308749705553, 0.18555088341236115, -0.06275773793458939, -0.08731820434331894, -0.16251352429389954, -0.03585242107510567, 0.028504759073257446, -0.043633051216602325, 0.45077699422836304, 0.13172359764575958, -0.1131058856844902, 0.08725634217262268, 0.19413448870182037, -0.071047842502594, -0.19713468849658966, -0.926579475402832, -0.49165403842926025, 1.108725905418396, 0.08495212346315384, 0.03861112892627716, 0.16912853717803955, 0.5919172763824463, -0.5314689874649048, -0.13022936880588531, 0.5003799200057983, 0.0009736442007124424, 0.18589860200881958, -0.014894086867570877, -0.07702578604221344, 1.0839614868164062, -0.011752182617783546, 0.14712384343147278, -0.5269160270690918, 0.8371211290359497, -0.932219922542572, 0.15879414975643158, 0.1113477498292923, 0.7818111777305603, 0.06400636583566666], [-0.35527971386909485, 0.2241353839635849, 0.3843801021575928, -0.05715251341462135, 0.127885103225708, 0.6362875699996948, -0.027570536360144615, -0.05695723742246628, 0.3013721704483032, -0.23207803070545197, -0.18358869850635529, -0.2971056401729584, -0.2971700429916382, -0.23078998923301697, -0.3345264494419098, -0.5596811175346375, 0.2750996947288513, -0.11554841697216034, -0.185169517993927, 0.07468293607234955, -0.40777432918548584, 0.02628147602081299, 0.031849294900894165, 0.12981845438480377, 0.14070630073547363, -0.06448815017938614, 0.010592196136713028, 0.4754754900932312, 0.2725692093372345, 0.04560856521129608, 0.023966263979673386, 0.2058895230293274, 0.25815895199775696, 0.2011745572090149, 0.029749194160103798, 0.14025156199932098, -0.0788305476307869, 0.04321311041712761, 0.01532182190567255, 0.02040121704339981, 0.39298227429389954, -0.43954506516456604, -0.43939244747161865, -0.26252979040145874, -0.16168712079524994, 0.1564519703388214, -0.020243143662810326, -0.15823452174663544, -0.05770329758524895, 0.021303821355104446, -0.19040802121162415, -0.044906020164489746, 0.02137003466486931, 0.6085264086723328, 0.13710065186023712, 0.12117943167686462, -0.477532297372818, 0.1314772069454193, 0.25672611594200134, 0.16593576967716217, -0.03766107186675072, -0.4891887903213501, -0.06376633793115616, -0.12471902370452881, 0.08136496692895889, -0.027109995484352112, 0.6341530680656433, -0.7145336866378784, -0.19141466915607452, -0.364311158657074, -0.07036027312278748, 0.36809056997299194, 0.159000962972641, -0.03163262829184532, 0.20911473035812378, 0.16373243927955627, -0.09621844440698624, 0.07154534012079239, 0.1680227369070053, 0.4527643322944641, -0.23884417116641998, -0.30178889632225037, -0.2629135847091675, 0.10819019377231598, -0.12899228930473328, 0.08376350998878479, 0.12752197682857513, 0.39717745780944824, -0.22751545906066895, -0.08145202696323395, 0.11625923216342926, 0.24641816318035126, 0.29373636841773987, 0.6746247410774231, -0.21766391396522522, 0.09167632460594177, 0.5012670159339905, 0.11152507364749908, 0.1918102502822876, 0.07875561714172363, -0.002794945379719138, -0.15914642810821533, 0.18350805342197418, -0.058488018810749054, 0.25727301836013794, -0.11522785574197769, 0.20947152376174927, -0.08509469777345657, -0.5954532027244568, -0.17101900279521942, 0.04836403951048851, -0.1641080230474472, 0.018878044560551643, -0.3497452139854431, -0.5448967814445496, 0.12838678061962128, -0.0850861445069313, -0.03364897891879082, 0.008025633171200752, 0.2894213795661926, 0.09671016782522202, 0.06640781462192535, 0.06801062822341919, -0.17050527036190033, -0.1932455152273178, -0.4582349956035614, 0.21948543190956116, -0.755760133266449], [0.06544919312000275, -0.16073845326900482, 0.11474491655826569, -0.19329234957695007, -0.19263304769992828, 0.004064339678734541, -0.15638749301433563, 0.45925673842430115, -0.13822373747825623, -0.24091702699661255, 0.31307610869407654, 0.06059976667165756, 0.2622970640659332, -0.1622258424758911, 0.35765984654426575, 0.18082791566848755, 0.3853960633277893, -0.09479374438524246, 0.39542636275291443, 0.29211944341659546, -0.04765399917960167, 0.14545519649982452, 0.09086249023675919, 0.19209662079811096, -0.22900451719760895, 0.3218786418437958, 0.011263896711170673, 0.21761038899421692, 0.36036384105682373, -0.22564052045345306, 0.021585537120699883, -0.15271702408790588, -0.29537418484687805, 0.23929943144321442, 0.1738157868385315, -0.035093385726213455, 0.0025822557508945465, -0.1730959266424179, -0.0922427698969841, -0.20856505632400513, 0.21608023345470428, -0.062034230679273605, 0.08152968436479568, 0.04105035215616226, -0.008217991329729557, -0.025716835632920265, -0.027209101244807243, -0.13407045602798462, -0.05077939108014107, -0.14170749485492706, 0.03817851096391678, 0.31764233112335205, 0.04919631779193878, -0.043861038982868195, 0.2938699424266815, 0.18255388736724854, 0.01709534227848053, 0.4798271656036377, 0.07157870382070541, 0.26524046063423157, 0.42445194721221924, -0.10982741415500641, -0.0670100599527359, 0.15732963383197784, -0.10516390949487686, 0.3437848389148712, 0.09493411332368851, 0.11057937890291214, -0.17113544046878815, 0.17834053933620453, -0.5047741532325745, -0.2656515836715698, -0.24780213832855225, 0.3394925892353058, -0.015383644960820675, 0.38536301255226135, -0.19677558541297913, 0.11522179841995239, -0.034299951046705246, -0.1613684892654419, 0.03923117741942406, 0.2813800275325775, 0.14604493975639343, 0.08166619390249252, 0.24396240711212158, 0.07848040759563446, 0.1041288897395134, -0.27431657910346985, 0.17964082956314087, 0.005421658977866173, 0.5355973243713379, 0.009822575375437737, 0.16784267127513885, -0.3313288688659668, -0.013660242781043053, -0.044526148587465286, -0.29438766837120056, 0.0013554815668612719, -0.32319509983062744, 0.08271041512489319, 0.06744818389415741, -0.018109465017914772, -0.2896859645843506, 0.33724454045295715, 0.2950770854949951, -0.1734359860420227, 0.28935718536376953, -0.07085961103439331, 0.2853550314903259, -0.22025203704833984, 0.16025638580322266, -0.17400503158569336, 0.20024241507053375, -0.13611546158790588, 0.026745829731225967, 0.012286028824746609, 0.025870468467473984, 0.32878944277763367, 0.11512226611375809, 0.11980588734149933, -0.04174576699733734, -0.13979658484458923, 0.05385570973157883, 0.31163495779037476, -0.31272751092910767, 0.18052059412002563, 0.48027557134628296, -0.02608863078057766], [0.9822059869766235, -0.03559207171201706, -0.14801020920276642, 0.16022297739982605, 0.37237417697906494, 0.09601549804210663, 0.8377812504768372, -0.07309430837631226, 0.18499164283275604, -0.5851733684539795, -0.005467157810926437, 0.6872062087059021, -0.024543408304452896, -0.020162997767329216, 0.1947636604309082, 0.06516361981630325, 0.04350152984261513, -0.4610966742038727, -0.37291309237480164, 1.6842306852340698, -0.17000681161880493, -1.3617230653762817, -0.2380717396736145, 0.449685662984848, 0.3971564471721649, -1.2795939445495605, -0.12012164294719696, -0.02195804938673973, -0.47787004709243774, -1.2263535261154175, 0.9965426921844482, 0.051489509642124176, 0.1922057420015335, 0.15736760199069977, 0.046520866453647614, 0.03167686611413956, -0.35751208662986755, -1.04142165184021, 0.1068621426820755, -0.2110445201396942, 0.11003421992063522, -0.10220678150653839, -0.1522565335035324, -0.06770545244216919, 0.01124501135200262, -0.018009185791015625, 0.21539516746997833, -0.010953840799629688, -0.003707019379362464, 0.10908422619104385, 0.10631882399320602, -1.7275906801223755, 0.013762280344963074, -0.15358726680278778, 0.3800247609615326, -1.5870901346206665, 0.08202572911977768, -0.21185407042503357, -0.002827421994879842, -0.07159611582756042, -2.0405924320220947, 0.013495134189724922, 0.5207029581069946, -0.01750931888818741, 0.6230450868606567, 1.251171588897705, -0.049627650529146194, 0.036805182695388794, 0.0061064246110618114, 0.000584455206990242, -0.0846937894821167, -0.18368743360042572, 0.10863933712244034, 0.808563232421875, -0.011181019246578217, 0.1543819159269333, -0.8515486121177673, 1.499008059501648, 0.8696153163909912, -0.006582675967365503, 1.1091938018798828, -0.0524621456861496, 0.05938045680522919, -0.5049557685852051, -0.19311359524726868, -0.11647497117519379, 0.016666654497385025, -0.047242917120456696, -0.12386121600866318, 0.01731376349925995, 1.4014766216278076, -0.8927843570709229, -0.33241114020347595, -0.03113282099366188, 0.202067032456398, 0.008994923904538155, 0.002199120819568634, 0.6132534742355347, 0.18326327204704285, 0.0341656468808651, 0.001407366362400353, 0.5892997980117798, -0.021620802581310272, -0.2837580740451813, -1.8460577726364136, -0.5851112008094788, 1.4995758533477783, 0.09315118193626404, -0.046129919588565826, 0.05575985088944435, 0.4223441779613495, -1.245966911315918, -0.02055387943983078, 1.0070914030075073, 0.04814517870545387, 0.5498471260070801, 0.010092586278915405, -0.014494499191641808, 1.7665412425994873, 0.04776011034846306, 0.09678158164024353, -0.7458798885345459, 1.6440818309783936, -1.4041906595230103, 0.14838716387748718, 0.22800986468791962, 1.3627879619598389, -0.07481721043586731], [-0.6260788440704346, 0.7711073160171509, 0.5237302184104919, -0.04422421008348465, -0.18888267874717712, 0.5393385291099548, 0.37186339497566223, -0.11641573160886765, -0.21233125030994415, -0.3170590102672577, -0.05919748544692993, -0.15790635347366333, -0.21011342108249664, -0.12414457648992538, -0.5152587294578552, -1.149776577949524, -0.10192640870809555, 0.23498527705669403, -0.8163039088249207, -0.16998355090618134, -0.7593021392822266, 0.0455440953373909, 0.5397516489028931, 0.13414610922336578, 0.27039217948913574, -0.26213538646698, 0.08008194714784622, 0.7188833951950073, -0.02577364630997181, -0.46758323907852173, -0.38743215799331665, -0.027701225131750107, 0.21035143733024597, 0.09657048434019089, 0.4260490834712982, 0.7377418279647827, -0.07938922941684723, -0.27544769644737244, -0.07128521054983139, 0.2668440043926239, 0.03233226016163826, 0.6843734979629517, -0.7907050848007202, -0.5487232804298401, -0.6856881380081177, 0.31071940064430237, 2.6840221835300326e-05, 0.11831995099782944, 0.17202362418174744, 0.8451728820800781, 0.07847972959280014, 0.30703020095825195, 0.36876919865608215, 0.8290003538131714, -0.00045502299326471984, 0.37841182947158813, -0.5706331729888916, 0.31481021642684937, 0.587253987789154, 0.5064904689788818, 0.20636104047298431, -0.8946144580841064, 0.24826191365718842, -0.4422660171985626, -0.38014036417007446, 0.08169517666101456, 0.7531738877296448, -0.9678106904029846, -0.12001603841781616, -0.6137686371803284, 0.03853929415345192, 0.5259699821472168, 0.5204442739486694, -0.2585600018501282, -0.09627063572406769, -0.6733959317207336, -0.07250026613473892, 0.027890490368008614, 0.1267383098602295, 0.8641505837440491, -0.12110456824302673, -0.13879436254501343, -0.6062546372413635, -0.08456755429506302, -0.08616208285093307, -0.14464615285396576, -0.02066076546907425, 0.4619157016277313, -0.27311742305755615, 0.33529382944107056, 0.035755351185798645, 0.3652513027191162, 0.3826867938041687, 0.7342866063117981, 0.24225398898124695, 0.7601068019866943, 1.3722816705703735, -0.027511585503816605, -0.1559067964553833, 0.7732089757919312, 0.5252955555915833, -0.6764626502990723, 0.33237993717193604, 0.15462400019168854, 0.1610785573720932, 0.06455234438180923, 0.44379135966300964, 0.5645674467086792, -1.2633147239685059, -0.702010989189148, 0.07643356919288635, -0.1723996102809906, -0.06529980152845383, -0.07382994890213013, -0.8113938570022583, 0.19652557373046875, -0.041579727083444595, 0.3729270100593567, 0.012230287306010723, 0.719913125038147, 0.6640881299972534, -0.08561673760414124, 0.3466913402080536, -0.3648516535758972, -0.04754645749926567, -0.6150825619697571, 0.23175495862960815, -0.8978581428527832], [0.0012420756975188851, -0.04491706192493439, 0.08407123386859894, 0.13253572583198547, 0.016002627089619637, 0.07752379775047302, 0.017413923516869545, 0.2152232676744461, 0.08574067056179047, -0.024753261357545853, 0.24582251906394958, 0.0681879073381424, 0.024090278893709183, 0.22998856008052826, 0.19910939037799835, 0.049086034297943115, 0.4933650493621826, -0.17129568755626678, 0.06466909497976303, 0.5190393328666687, -0.13670209050178528, 0.24151168763637543, -0.05522744357585907, -0.03592030331492424, -0.2623381018638611, 0.5654568672180176, 0.17386086285114288, 0.06702333688735962, -0.0646543949842453, -0.04164159297943115, -0.17749275267124176, -0.214634507894516, -0.17279675602912903, 0.5254294276237488, -0.10647767782211304, -0.03228674829006195, -0.08861519396305084, -0.05536138638854027, -0.0017618014244362712, -0.3403061628341675, 0.223198801279068, -0.05190153047442436, -0.22118347883224487, 0.07897351682186127, -0.04795154929161072, 0.461351215839386, -0.06168472394347191, -0.026933515444397926, 0.019828710705041885, 0.25237444043159485, 0.12588918209075928, 0.35429075360298157, 0.14052684605121613, 0.034109532833099365, 0.14771446585655212, 0.38140106201171875, 0.14006663858890533, 0.5198906064033508, 0.2692265510559082, -0.144676074385643, 0.2388792634010315, -0.25114724040031433, -0.1293577402830124, -0.21127445995807648, -0.2419668436050415, 0.21082064509391785, -0.16017776727676392, 0.286497563123703, 0.31942495703697205, 0.25539451837539673, -0.2988409698009491, -0.043348852545022964, -0.1163279265165329, 0.24379569292068481, 0.13053485751152039, 0.4427680969238281, 0.02937816083431244, 0.38653355836868286, 0.16584239900112152, 0.05647292360663414, 0.09527736902236938, 0.467040479183197, 0.08891623467206955, 0.11337952315807343, 0.14531877636909485, 0.08579283207654953, 0.1946651041507721, 0.20927049219608307, 0.04862954840064049, 0.007435667794197798, 0.6989338397979736, 0.367175817489624, 0.32563790678977966, -0.609272301197052, 0.1650223433971405, -0.17411820590496063, -0.128233402967453, 0.1666734218597412, -0.3895379304885864, 0.33617329597473145, 0.31637877225875854, -0.14212451875209808, -0.1477639526128769, 0.17833466827869415, 0.40301355719566345, -0.08975860476493835, 0.4189393222332001, -0.25104308128356934, -0.13890720903873444, -0.41244813799858093, 0.14223778247833252, -0.005310635548084974, 0.16757819056510925, -0.2617362141609192, 0.005772612057626247, 0.23802737891674042, 0.18487650156021118, 0.10925374925136566, 0.20496946573257446, 0.03487429395318031, 0.1530938297510147, -0.07364096492528915, 0.125290647149086, 0.29069605469703674, 0.08462987095117569, 0.3110976219177246, 0.5438271760940552, -0.19986788928508759], [-0.06556697934865952, 0.0672166720032692, -0.1952698826789856, 0.20525020360946655, -0.41778871417045593, -0.0633017048239708, -0.5646219849586487, -0.12005963921546936, -0.014913289807736874, 0.35543063282966614, -0.11061595380306244, -0.31760600209236145, 0.1641114205121994, -0.07382424920797348, 0.02420283481478691, 0.1880086213350296, 0.020149072632193565, 0.7831341624259949, 0.2610371708869934, 0.30183735489845276, -0.07506000995635986, 0.29936617612838745, 0.1491236686706543, 0.1386953741312027, 0.08162175863981247, 0.26781174540519714, -0.2219134122133255, -0.12496229261159897, -0.08970621973276138, 0.43944239616394043, 0.015691641718149185, -0.06455112993717194, 0.14916633069515228, 0.17126744985580444, 0.04188288003206253, 0.007695747073739767, 0.26271575689315796, 0.3199635446071625, -0.11619747430086136, -0.13136623799800873, -0.08277197182178497, 0.1571299135684967, -0.14444923400878906, 0.023806961253285408, -0.10921082645654678, 0.019573235884308815, 0.0416710190474987, 0.05252810940146446, 0.10325629264116287, 0.11852975189685822, -0.1251603215932846, 0.22927652299404144, 0.3081311881542206, 0.007420320063829422, -0.5419320464134216, 0.12626461684703827, 0.07341320067644119, -0.2830408215522766, 0.08916997164487839, 0.05200418457388878, -0.02847239002585411, 0.179060697555542, -0.27623891830444336, 0.09042730927467346, -0.6247392296791077, -0.1389131397008896, -0.0018273650202900171, -0.03836962208151817, -0.10918355733156204, -0.18413247168064117, -0.2568190097808838, 0.004106481559574604, -0.16868337988853455, -0.2668849527835846, -0.01169215515255928, -0.22291043400764465, 0.16316169500350952, -0.2962663769721985, 0.2788025736808777, -0.1447795331478119, -0.11832638829946518, 0.09190983325242996, 0.10387211292982101, 0.35046273469924927, -0.29878684878349304, -0.4089280068874359, -0.08229118585586548, -0.11542867124080658, 0.07101067900657654, -0.04642105475068092, -0.2469242662191391, 0.023305168375372887, 0.04116916283965111, -0.07923752814531326, 0.030690250918269157, 0.03886739909648895, 0.03375530615448952, 0.7369436025619507, 0.15959633886814117, -0.021712180227041245, 0.10972773283720016, -0.12157588452100754, 0.027184974402189255, -0.16558502614498138, 0.14478260278701782, 0.6928698420524597, -0.40404629707336426, -0.002121762838214636, -0.12606072425842285, 0.02572781778872013, -0.041533879935741425, 0.20666009187698364, -0.05528222769498825, -0.504868745803833, 0.03344309702515602, 0.18349462747573853, -0.05834740772843361, 0.2167959064245224, -0.1800411492586136, 0.04373224079608917, 0.07220298051834106, 0.11809156835079193, -0.3051281273365021, 0.19398826360702515, -0.02135668881237507, 0.08640991151332855, -0.10507859289646149, -0.07034798711538315], [-0.31144094467163086, 0.039218250662088394, -0.17001265287399292, -0.09936484694480896, -0.14623838663101196, -0.1695217490196228, 0.005319246090948582, -0.2690069079399109, 0.3900299370288849, -0.1330554038286209, -0.017274336889386177, -0.25832250714302063, -0.035145103931427, 0.461364209651947, -0.1490982323884964, 0.11773930490016937, 0.2930264174938202, 0.06913358718156815, 0.10890892148017883, 0.16308730840682983, 0.12583310902118683, 0.11508528888225555, -0.42687442898750305, -0.0545036606490612, 0.43321746587753296, 0.14107275009155273, -0.22169357538223267, -0.16056333482265472, 1.0411335229873657, -0.09764465689659119, 0.5074723958969116, 0.08695149421691895, -0.7628225684165955, 0.13180699944496155, -0.28609520196914673, -0.03141706809401512, 0.11989668011665344, 0.0672055184841156, 0.118563212454319, 0.28158068656921387, -0.23592905700206757, -0.512973964214325, 0.0738799050450325, -0.19862863421440125, -0.1064838320016861, 0.028665272518992424, 0.13405483961105347, -0.8740820288658142, -0.04427671805024147, -0.430040568113327, 0.36597341299057007, 0.09393391758203506, -0.35730740427970886, 0.09494708478450775, -0.09942277520895004, -0.10344783961772919, 0.0613279789686203, -0.3091745972633362, 0.130235493183136, 0.012585864402353764, 0.1428074985742569, 0.16762392222881317, 0.161713644862175, -0.4115585684776306, 0.16392828524112701, -0.0352218821644783, -0.233786940574646, -0.1633990854024887, -0.3397481441497803, -0.16754484176635742, 0.1902131587266922, 0.12173301726579666, 0.07012126594781876, 0.01791198179125786, -0.30107954144477844, 0.9581673741340637, 0.20883876085281372, 0.38217273354530334, 0.10819737613201141, -0.24041739106178284, 0.11446123570203781, 0.22473357617855072, -0.2477290779352188, 0.06285122781991959, 0.4214271903038025, -0.17005358636379242, 0.3146297335624695, -0.19123542308807373, -0.3384552001953125, -0.7093551158905029, -0.00885041058063507, 0.3111858069896698, 0.2335587441921234, -0.13142460584640503, 0.07502847909927368, -0.45797663927078247, -0.4575234353542328, 0.7802652716636658, -0.473172128200531, 0.06256865710020065, 0.28714045882225037, -0.22804556787014008, 0.3813825249671936, -0.05156391113996506, -0.18108433485031128, 0.08435296267271042, -0.2662186324596405, -0.5742980241775513, 0.4163803160190582, 0.7901052832603455, 0.006990451365709305, -0.07474450767040253, 0.06706356257200241, -0.061567582190036774, 0.5044209957122803, 0.017658034339547157, -0.1536584496498108, -0.23786580562591553, -0.12373963743448257, 0.11661949753761292, 0.10855147987604141, -0.1862872838973999, -0.014719379134476185, -0.06756355613470078, -0.13355451822280884, 0.6717144250869751, 0.034470949321985245, -0.0790158286690712], [-0.002028272720053792, 0.3731033504009247, -0.23296409845352173, 0.08394703269004822, 0.3053445518016815, 0.27179256081581116, 0.3122035562992096, -0.46098849177360535, 0.600557267665863, -0.07166463881731033, -0.1629451960325241, -0.3559817969799042, -0.343810498714447, 0.1649673879146576, -0.008812240324914455, -0.6318787932395935, 0.1167893260717392, -0.1087251752614975, -0.15299154818058014, -0.5068265199661255, -0.059872329235076904, 0.1402597278356552, -0.07126183807849884, 0.11697831004858017, 0.4778660237789154, -0.37713444232940674, 0.29113009572029114, 0.32461509108543396, 0.5731745362281799, 0.4205646514892578, 0.32914796471595764, -0.2516857385635376, -0.18562981486320496, 0.14379382133483887, 0.2148657888174057, 0.31612542271614075, 0.23212210834026337, 0.03773915395140648, 0.10529544204473495, 0.2903198301792145, 0.30939555168151855, -0.05905354395508766, -0.4680120646953583, -0.3551698625087738, 0.2707785665988922, -0.2677071988582611, -0.059103261679410934, -0.19458352029323578, 0.10303633660078049, -0.3838878870010376, 0.4025628864765167, -0.04330700635910034, -0.44336605072021484, 0.09851489216089249, -0.23467746376991272, -0.08168228715658188, 0.3696037232875824, 0.025932319462299347, -0.28134506940841675, -0.07377079874277115, -0.29906266927719116, -0.36124950647354126, -0.06882022321224213, -0.21437744796276093, 0.4702281951904297, -0.053378377109766006, 0.3316570520401001, -0.17250989377498627, -0.1967872977256775, -0.15307684242725372, -0.27717268466949463, 0.27020061016082764, 0.5897830724716187, -0.23460346460342407, 0.12801796197891235, 0.09962432831525803, 0.14296995103359222, 0.02741515450179577, 0.009796780534088612, 0.1395798623561859, 0.07471396028995514, 0.06275396049022675, -0.17975090444087982, -0.2938990294933319, -0.23198722302913666, -0.13945280015468597, 0.048885103315114975, 0.5152100324630737, -0.12415523827075958, -0.05510895699262619, -0.2737828493118286, -0.009702378883957863, -0.48074910044670105, 0.23336529731750488, -0.2418706715106964, 0.09602537006139755, -0.020031346008181572, 0.3819591701030731, 0.3550950586795807, -0.046923600137233734, 0.6026211977005005, 0.0641794502735138, 0.686440646648407, -0.33943742513656616, -0.11712624132633209, -0.38453900814056396, -0.20325806736946106, 0.4059159457683563, -0.21361112594604492, 0.17888596653938293, 0.31418803334236145, 0.35715505480766296, 0.21210497617721558, 0.16849444806575775, -0.28619852662086487, 0.14094983041286469, 0.15535622835159302, -0.1652202606201172, -0.2990272641181946, 0.1928606629371643, 0.400225430727005, 0.08964258432388306, 0.053271904587745667, -0.4247617721557617, 0.013867371715605259, -0.5229405760765076, -0.2369554489850998, 0.09230134636163712], [0.35081809759140015, -0.21279460191726685, 0.08356401324272156, 0.03309670090675354, 0.6815125346183777, -0.07756907492876053, -0.8086824417114258, -0.04005195572972298, -0.09758267551660538, 0.5028942823410034, 0.1760794073343277, -0.5530363321304321, -0.12908323109149933, 0.16920025646686554, -0.10095798224210739, 0.11812280863523483, 0.14617730677127838, -0.9882557392120361, -0.1385752409696579, -0.9490426182746887, -0.0846506655216217, 0.4162658751010895, 0.084506094455719, -0.6520113348960876, 0.37478092312812805, 0.2881127893924713, 0.24854975938796997, 0.08350464701652527, 0.06901580840349197, 0.7150248885154724, -0.3975544273853302, -0.28531524538993835, 0.2033831775188446, -0.609466552734375, -0.11033270508050919, -0.0849938914179802, 0.4372134208679199, 0.6450074315071106, 0.011602317914366722, -0.15153883397579193, -0.26429957151412964, 0.02500223182141781, 0.1856333315372467, 0.10628530383110046, 0.06646523624658585, -0.0931536927819252, 0.08601990342140198, -0.018880022689700127, 0.05520612373948097, -0.10488002747297287, -0.032144926488399506, 0.632233738899231, -0.17401349544525146, 0.24591568112373352, -0.9432156682014465, 0.19767971336841583, 0.16348883509635925, -0.14299361407756805, 0.12822885811328888, 0.06591887027025223, 0.7843807935714722, -0.1168096661567688, -0.1800396889448166, -0.23794764280319214, -0.4296734035015106, -0.6468467712402344, 0.1602810174226761, 0.06561142206192017, 0.03427086025476456, -0.080890953540802, 0.1549801528453827, 0.16821475327014923, -0.10592684149742126, -0.30164995789527893, -0.006925665773451328, 0.03634714335203171, -0.4200277328491211, -0.20283526182174683, -0.5290206670761108, 0.1790388524532318, -0.6588783264160156, -0.03607429191470146, 0.05203733965754509, 0.9272590279579163, 0.9821489453315735, -0.06916380673646927, 0.06724386662244797, 0.16843140125274658, 0.21452559530735016, 0.059950169175863266, -0.3905716836452484, 0.8657861351966858, -0.42076754570007324, -0.21673762798309326, -0.10350407660007477, -0.11386590451002121, -0.04500504955649376, -0.07034919410943985, -0.13355642557144165, -0.09106997400522232, -0.07752320170402527, -0.3095083236694336, 0.1136673092842102, -0.5745558738708496, 0.6249163150787354, 0.527553379535675, -0.8530177474021912, 0.10489443689584732, 0.018340064212679863, -0.1746000349521637, 0.7907687425613403, -0.2767632305622101, 0.03796389698982239, 0.4129580557346344, -0.10626969486474991, 0.37301138043403625, 0.10327829420566559, -0.08400796353816986, -0.9535599946975708, -0.08726485818624496, -0.09716736525297165, -0.581049919128418, -0.547057032585144, 0.7373258471488953, -0.5315351486206055, -0.08836017549037933, -0.5312930941581726, -0.16206076741218567], [0.8658202886581421, -0.571204423904419, -0.3845628499984741, 0.33050259947776794, 0.28481364250183105, -0.5430841445922852, -0.07425554096698761, -0.31728309392929077, -0.027318527922034264, 0.3396413326263428, -0.44023019075393677, 0.057753488421440125, -0.016618279740214348, 0.06015463545918465, -0.23122166097164154, 0.09175998717546463, 0.32916703820228577, 0.1455317735671997, 0.19716903567314148, 0.21315410733222961, 0.6025727987289429, 0.11858192086219788, 0.09476321190595627, 0.15444286167621613, 0.526721179485321, 0.06202872097492218, 0.18570220470428467, -0.13464036583900452, 0.16309095919132233, 0.44043248891830444, 0.38833102583885193, 0.28380635380744934, 0.6203741431236267, 0.2218557894229889, -0.15227575600147247, -0.14143887162208557, 0.11333554238080978, -0.03203452005982399, 0.28565868735313416, 0.29660025238990784, -0.13999022543430328, -0.07214915752410889, -0.12325199693441391, 0.18570925295352936, 0.07771439105272293, -0.25510886311531067, 0.04653346166014671, 0.6314131617546082, -0.548821747303009, -0.25595709681510925, -0.5096225142478943, -0.21467195451259613, -0.13330210745334625, 0.2237032949924469, 0.10473944246768951, 0.004818383604288101, 0.2467576116323471, 0.25019121170043945, -0.706381618976593, -0.4565765857696533, 0.030936570838093758, 0.04110649973154068, -0.07799763977527618, 0.37459123134613037, 0.22886286675930023, -0.2153742015361786, -0.25925588607788086, 0.0610942579805851, 0.25965413451194763, -0.34898731112480164, -0.048831578344106674, -0.12850520014762878, -0.3136812448501587, -0.14986389875411987, 0.30041447281837463, 1.1413098573684692, 0.29994621872901917, -0.1307607889175415, 0.1780574470758438, 0.0797242745757103, 0.03870202973484993, -0.23410744965076447, 0.0056252614594995975, -0.047326695173978806, -0.1920594424009323, 0.07856164872646332, -0.44163036346435547, -0.3487633466720581, 0.006886773277074099, 0.2833232581615448, -0.061861105263233185, -0.10608896613121033, 0.21138079464435577, 0.5809049606323242, -0.21947994828224182, -0.1842472404241562, -0.2957545518875122, 0.11466214060783386, 0.4682181775569916, -0.4732043743133545, -0.5934252142906189, -0.0071055106818675995, -0.22422635555267334, 0.031324468553066254, -0.04089485481381416, 0.2944628596305847, -0.08465966582298279, -0.008774432353675365, 0.27926740050315857, 0.4669351279735565, 0.1412767618894577, 0.3381323218345642, -0.1257823407649994, 0.598621129989624, 0.4345010221004486, 0.15717445313930511, 0.004191316664218903, -0.4460022449493408, -0.014576267451047897, -0.21873801946640015, -0.22817254066467285, 0.23228400945663452, 0.11176210641860962, -0.03533535450696945, 0.0684933140873909, 0.23899313807487488, 0.011953777633607388, 0.39063823223114014], [0.05656258761882782, 0.22177045047283173, 0.2572037875652313, -0.1916319578886032, -0.36222130060195923, -0.3257300555706024, 0.4813086986541748, 0.055510081350803375, -0.004306482151150703, -0.023506009951233864, -0.27814778685569763, -0.3169375956058502, -0.1625470370054245, -0.3800956606864929, -0.1889735460281372, -0.1678634136915207, -0.035428378731012344, -0.1376005858182907, -0.22414083778858185, -0.29115819931030273, -0.23563002049922943, -0.09186190366744995, 0.04126603156328201, 0.18524572253227234, 0.015577226877212524, -0.35760432481765747, 0.09182456880807877, 0.11850501596927643, 0.3492652177810669, -0.10515066236257553, 0.1681426763534546, 0.08901401609182358, 0.05817202106118202, -0.08277307450771332, 0.20755115151405334, 0.28053897619247437, 0.08935675024986267, -0.04636180400848389, -0.16722789406776428, 0.09998732805252075, -0.020289678126573563, 0.03350147604942322, -0.026437144726514816, -0.04237843304872513, -0.4021022915840149, -0.33828315138816833, 0.06771062314510345, 0.16440868377685547, -0.18803328275680542, -0.055570319294929504, -0.22270706295967102, -0.41185569763183594, 0.31534188985824585, 0.043701719492673874, -0.21832601726055145, -0.2851303219795227, -0.5196254253387451, 0.0902903601527214, -0.2010902613401413, 0.19390633702278137, -0.2911103069782257, -0.27043160796165466, 0.14898617565631866, 0.08073614537715912, -0.07744796574115753, -0.128334641456604, 0.022206829860806465, -0.2910904586315155, -0.4580687880516052, -0.12800562381744385, -0.4043947756290436, -0.15217413008213043, -0.16085854172706604, -0.17947883903980255, -0.007051083259284496, 0.11619320511817932, -0.170256569981575, -0.05237250775098801, -0.17032110691070557, 0.053693804889917374, 0.07441545277833939, -0.21952423453330994, 0.06604422628879547, -0.22189854085445404, -0.0961429625749588, 0.13020621240139008, 0.11658693850040436, 0.02435818873345852, 0.008282641880214214, -0.06958445906639099, -0.3151955306529999, -0.039034295827150345, 0.07096284627914429, -0.1117212250828743, -0.49227896332740784, 0.13382503390312195, 0.13455411791801453, 0.04559081792831421, -0.0022690133191645145, -0.100723996758461, 0.336178183555603, -0.04487989842891693, 0.0933726578950882, -0.161063551902771, -0.02011800929903984, 0.09039204567670822, -0.22176314890384674, 0.22873152792453766, -0.47993579506874084, 0.13879267871379852, -0.1828734129667282, -0.17289778590202332, -0.48082560300827026, -0.07073929160833359, -0.20633786916732788, -0.354447603225708, -0.3233018219470978, -0.17369109392166138, -0.017451224848628044, -0.08417843282222748, 0.06432558596134186, -0.04170895740389824, -0.041798483580350876, -0.4476718604564667, 0.007880887016654015, -0.37867486476898193, -0.07476567476987839, -0.37329158186912537], [0.2996302545070648, 0.05688609555363655, -0.20462968945503235, -0.08460979163646698, 0.14059978723526, -0.0020918825175613165, -0.5236120223999023, 0.006520264316350222, -0.09356903284788132, 0.38866370916366577, -0.15517815947532654, -0.6188178062438965, 0.08983396738767624, 0.08955590426921844, 0.05950085446238518, -0.04911397397518158, 0.044753048568964005, -0.38582029938697815, -0.23174405097961426, -1.0105236768722534, 0.18816785514354706, 0.3658519685268402, -0.2466648668050766, -0.6108611822128296, 0.5102048516273499, 0.8118962049484253, 0.004937047604471445, 0.1560295671224594, -0.5266512632369995, 0.3745917081832886, -0.11502490192651749, -0.14333491027355194, 0.03307076916098595, -0.3737969994544983, -0.010570361278951168, -0.107724629342556, 0.5003332495689392, 0.8570071458816528, 0.2851550877094269, -0.2188236266374588, -0.3162705600261688, 0.11133840680122375, 0.13379745185375214, 0.07677612453699112, -0.03172195330262184, 0.13952156901359558, -0.0869409441947937, -0.06938523054122925, 0.2458987981081009, -0.08773962408304214, -0.11106386035680771, 0.8684716820716858, 0.184499591588974, 0.049593083560466766, -0.5551910400390625, 0.8911954164505005, -0.03434206172823906, -0.09324587881565094, -0.1515941321849823, 0.055056266486644745, 0.30596470832824707, -0.1074303537607193, 0.4142596423625946, -0.09253861755132675, -0.28546950221061707, -1.0241378545761108, -0.18740536272525787, -0.13918982446193695, 0.11596664041280746, 0.15631750226020813, 0.012862998992204666, 0.11824595183134079, -0.2032245546579361, -0.07447081804275513, -0.06666641682386398, -0.0052493298426270485, -0.24139763414859772, -0.9266291260719299, 0.43599316477775574, 0.2135089486837387, 0.2875659465789795, 0.18697291612625122, -0.0761466771364212, 0.3459088206291199, 0.32324036955833435, -0.2571829557418823, -0.18112987279891968, 0.10395748168230057, 0.06406793743371964, -0.07797785103321075, 0.3526787757873535, 0.6569827198982239, -0.01036714669317007, 0.05902966484427452, 0.04886303097009659, 0.13467729091644287, -0.2265610694885254, 0.007028523366898298, -0.36176222562789917, 0.05785549804568291, 0.0776735171675682, -0.11077596992254257, 0.16080071032047272, -0.5349940657615662, 0.5074218511581421, 0.746527373790741, -0.888011634349823, -0.11568700522184372, 0.08376116305589676, 0.025267833843827248, 0.25427302718162537, -0.69074946641922, -0.06905139237642288, 0.5077374577522278, 0.1626013070344925, 0.3511379063129425, -0.09749747812747955, 0.17245469987392426, -0.8541009426116943, 0.04528079926967621, 0.011472756043076515, -0.2092442661523819, 0.17047570645809174, 1.0195735692977905, -0.4943678081035614, -0.16508975625038147, -0.7204130291938782, -0.14629697799682617], [0.817265510559082, -0.3802393674850464, 0.10133738070726395, 0.18588387966156006, 0.7571054100990295, 0.36715167760849, -0.07476193457841873, -0.21258850395679474, 0.5367496013641357, 0.2926753759384155, -0.2802876830101013, 0.02974538691341877, -0.026363592594861984, -0.22898755967617035, 0.15123501420021057, -0.10313280671834946, -0.849622368812561, 0.16738168895244598, 0.03970083221793175, -0.09750314801931381, 0.5372508764266968, -0.0176946222782135, -0.39172181487083435, -0.05162647366523743, 0.245692640542984, -0.1750231683254242, 0.5510703325271606, -0.3584887981414795, -0.17983530461788177, 0.5943906307220459, 0.2984369099140167, -0.16486959159374237, 0.589665949344635, 0.32857227325439453, 0.030802959576249123, -0.22391632199287415, 0.18700870871543884, 0.20457538962364197, 0.2615911364555359, 0.3844636380672455, 0.4616111218929291, -0.6464178562164307, -0.15274778008460999, 0.2108432799577713, 0.7773049473762512, -0.4539952576160431, -0.0414569154381752, 0.39797067642211914, -0.18109600245952606, -0.2418304830789566, -0.7960464954376221, -0.13312625885009766, -0.13193264603614807, 0.1035328283905983, 0.08206456154584885, -0.2003777027130127, 0.9968159794807434, -0.13956081867218018, -0.2820243835449219, -0.41469016671180725, -0.00462203286588192, -0.21083304286003113, -0.18676097691059113, 0.13670848309993744, 0.2323783040046692, -0.03953671082854271, -0.233291357755661, 0.13243983685970306, 0.3918817937374115, 0.31658753752708435, -0.27833956480026245, 0.23361703753471375, 0.05727684125304222, -0.12867411971092224, 0.6038569211959839, 0.34776896238327026, 0.37085139751434326, -0.01618199236690998, 0.4710480570793152, -0.19509726762771606, -0.0022810862865298986, -0.21553288400173187, 0.11479870975017548, -0.1373949497938156, 0.012653687968850136, -0.10483166575431824, -0.219802588224411, 0.031118812039494514, 0.3707147240638733, 0.4932975769042969, -0.20657655596733093, 0.20520365238189697, -0.345392644405365, 0.47150129079818726, -0.34711194038391113, -0.6221684813499451, -0.35700199007987976, 0.26575717329978943, 0.4153771996498108, -0.3886980712413788, 0.06666035205125809, 0.49454522132873535, -0.036991529166698456, 0.15427909791469574, -0.1072135642170906, -0.1855846792459488, -0.26337572932243347, 0.21216008067131042, 0.007851378060877323, 0.1001996099948883, 0.017049985006451607, 0.11998510360717773, -0.42894870042800903, 0.5562233924865723, 0.10319659858942032, 0.19462543725967407, 0.03911087289452553, 0.7286064624786377, -0.26643356680870056, -0.066659115254879, -0.20354336500167847, 0.625701904296875, -0.06255769729614258, -0.12554481625556946, 0.4181979298591614, 0.21624866127967834, -0.37750324606895447, 0.5331771373748779], [-0.2868710160255432, 0.07004373520612717, 0.3558734655380249, 0.08690963685512543, -0.10308416187763214, -0.08739139884710312, 0.023683616891503334, 0.011946803890168667, -0.14123894274234772, 0.11678159236907959, -0.02625471167266369, -0.28523489832878113, -0.37142401933670044, -0.022205624729394913, 0.04202880337834358, 0.012185758911073208, 0.21434485912322998, -0.2063531130552292, -0.15498942136764526, -0.21241363883018494, -0.13492681086063385, -0.20098501443862915, -0.28635305166244507, 0.015524107962846756, -0.19000692665576935, -0.1282365918159485, 0.1832539439201355, 0.018350044265389442, -0.201632559299469, -0.040700506418943405, 0.07835008949041367, 0.0405404269695282, -0.17618310451507568, -0.0771009624004364, -0.08528485149145126, 0.2751997709274292, -0.0236906036734581, 0.0554867722094059, -0.10860852152109146, -0.15393750369548798, -0.021136701107025146, -0.14981664717197418, -0.00034675069036893547, 0.10612946003675461, 0.08109814673662186, -0.011223144829273224, 0.2552641034126282, 0.024799590930342674, 0.09744734317064285, -0.08678186684846878, -0.21165160834789276, -0.2645622491836548, 0.19727978110313416, -0.026486800983548164, -0.11181865632534027, -0.010590747930109501, -0.33792802691459656, 0.36540207266807556, 0.08245320618152618, 0.013478401117026806, -0.14083410799503326, -0.0331244170665741, -0.1559647172689438, 0.030576134100556374, 0.01940053142607212, -0.05352587625384331, 0.20978005230426788, 0.012683853507041931, 0.0008171336958184838, -0.00580415828153491, -0.3183198869228363, 0.15328530967235565, 0.053961727768182755, 0.20272676646709442, 0.19538797438144684, 0.30850115418434143, -0.004622334148734808, -0.19886164367198944, -0.05804729089140892, 0.2875176668167114, 0.1427520364522934, -0.02632872574031353, -0.18919958174228668, -0.04413682967424393, -0.0374179445207119, 0.2675054371356964, 0.34460291266441345, 0.0539998821914196, 0.053369149565696716, -0.12086647748947144, -0.34412065148353577, 0.04438074305653572, 0.05135328322649002, -0.076174795627594, -0.32720160484313965, -0.12404105812311172, 0.07940727472305298, -0.2864799499511719, 0.16692423820495605, -0.1282312422990799, 0.20048636198043823, 0.13791392743587494, 0.03380538895726204, -0.010087274014949799, -0.16064651310443878, 0.10625835508108139, -0.16066865622997284, -0.2948116958141327, 0.021181950345635414, 0.08372049033641815, -0.006833336316049099, -0.03425608575344086, -0.16149352490901947, -0.1440318077802658, -0.14971362054347992, -0.08172514289617538, -0.10290350019931793, 0.07197201251983643, -0.12756109237670898, 0.16894525289535522, 0.05251410976052284, 0.054380424320697784, 0.10797769576311111, -0.26301664113998413, 0.27952539920806885, -0.3474613130092621, -0.16365541517734528, -0.1768614500761032], [0.3583919405937195, -0.017212582752108574, -0.0343928299844265, 0.014348308555781841, -0.11370975524187088, 0.11638984829187393, -0.2088358849287033, -0.00424392893910408, 0.11829312890768051, 0.15058781206607819, 0.03553003445267677, -0.4370407462120056, -0.13801723718643188, 0.034869708120822906, 0.025190355256199837, 0.03016263246536255, -0.00370728294365108, 0.2988183796405792, -0.09387999773025513, -1.272548794746399, -0.015338467434048653, 0.6081716418266296, -0.3506371080875397, -0.6686107516288757, 0.33399391174316406, 1.6601030826568604, -0.3764011859893799, 0.019529275596141815, -1.2037421464920044, 0.07897913455963135, 0.3893759250640869, 0.25414150953292847, -0.037487130612134933, 0.1978210210800171, -0.16251833736896515, 0.05350768566131592, 0.3408469557762146, 0.5042484998703003, 0.07496979832649231, -0.37250250577926636, -0.13432125747203827, 0.0016949891578406096, 0.39913129806518555, -0.2831568121910095, -0.10537534207105637, 0.11422324925661087, -0.022261159494519234, 0.0589296817779541, -0.1298925280570984, 0.06823628395795822, 0.009132242761552334, 1.7654658555984497, 0.34541064500808716, -0.3160063326358795, -0.2070547640323639, 1.3631904125213623, 0.17590968310832977, -0.1629907637834549, 0.11601684987545013, -0.06188270077109337, 0.14231553673744202, -0.11505338549613953, 0.9783569574356079, 0.06190682202577591, -0.21767152845859528, -1.7563611268997192, -0.12751637399196625, 0.06964919716119766, 0.3431145250797272, 0.08513776957988739, 0.11045756936073303, -0.03313271701335907, 0.032676778733730316, -0.012275136075913906, 0.1272764503955841, -0.01612570695579052, -0.3362446427345276, -1.8045905828475952, 1.3387144804000854, 0.3469627797603607, 