{"inputSize": 63, "labels": ["A", "B", "C", "D", "E", "F", "G", "H", "I", "J", "K", "L", "M", "N", "O", "P", "Q", "R", "S", "T", "U", "V", "W", "X", "Y", "Z", "SPACE", "DELETE"], "layers": [{"units": 128, "activation": "relu", "kernel": [[-0.1348329782485962, 0.042816728353500366, 0.13401037454605103, -0.10415510088205338, -0.005511000752449036, 0.10301300883293152, 0.11335816979408264, 0.1287631094455719, 0.05259928107261658, -0.07089585065841675, -0.15071338415145874, 0.043960750102996826, -0.07999151200056076, -0.05330023169517517, 0.13490906357765198, 0.08184635639190674, -0.037930503487586975, -0.01968531310558319, 0.07920032739639282, 0.04029761254787445, 0.10812169313430786, 0.1346314549446106, -0.002160102128982544, -0.06377917528152466, -0.13922983407974243, 0.036403506994247437, -0.13605599105358124, -0.1096230298280716, -0.1403965950012207, 0.056202441453933716, 0.011900767683982849, 0.0878850519657135, -0.14248260855674744, -0.12772294878959656, 0.14663803577423096, -0.1270999014377594, 0.1497844159603119, -0.13781680166721344, 0.08614134788513184, -0.08891746401786804, -0.1048516184091568, -0.04301673173904419, 0.1735769808292389, 0.13310670852661133, -0.013689041137695312, 0.08812925219535828, 0.014634162187576294, -0.06167866289615631, -0.15689881145954132, 0.08795049786567688, -0.015539601445198059, 0.09330987930297852, -0.12467722594738007, 0.17345121502876282, 0.08746880292892456, 0.0584208220243454, 0.05224740505218506, 0.012226015329360962, 0.15368503332138062, 0.012805059552192688, 0.16588547825813293, -0.15564973652362823, 0.006282523274421692, -0.11176575720310211, -0.028789043426513672, 0.013274580240249634, 0.11895206570625305, 0.034683480858802795, -0.17676430940628052, -0.09334063529968262, -0.12701696157455444, -0.1252632439136505, -0.03205461800098419, 0.10218194127082825, 0.13939857482910156, 0.16074052453041077, 0.0859387218952179, 0.08533242344856262, -0.13980726897716522, -0.058231040835380554, -0.011500254273414612, -0.10305637121200562, 0.054558515548706055, 0.14775636792182922, -0.1684248447418213, -0.0784498080611229, 0.018762201070785522, -0.10238423198461533, -0.0017382502555847168, 0.10176196694374084, -0.11313209682703018, 0.06399296224117279, 0.06852777302265167, -0.16629786789417267, -0.10370049625635147, 0.12637901306152344, -0.018066272139549255, 0.17219603061676025, 0.13258162140846252, 0.1237177848815918, -0.139946848154068, 0.1065962016582489, 0.006488442420959473, -0.06713404506444931, -0.0135183185338974, 0.08040037751197815, -0.05474204570055008, 0.04038657248020172, -0.1389421820640564, -0.054520659148693085, 0.08868476748466492, 0.1614040732383728, 0.12282150983810425, -0.14973129332065582, -0.039994850754737854, 7.821619510650635e-05, -0.1499306708574295, -0.10200543701648712, -0.018070295453071594, -0.09827414155006409, -0.062191709876060486, -0.14507149159908295, 0.010669693350791931, -0.16011008620262146, -0.08348076045513153, -0.10225149989128113, -0.15074770152568817, 0.06958580017089844], [0.06094592809677124, -0.025134101510047913, -0.14989373087882996, 0.09572252631187439, -0.15170474350452423, 0.1382368803024292, 0.13992592692375183, 0.04913263022899628, 0.06624187529087067, -0.16743361949920654, -0.09667416661977768, 0.10077562928199768, 0.025031372904777527, 0.033073052763938904, 0.11083754897117615, 0.06901930272579193, 0.006191834807395935, 0.06062422692775726, -0.04074689745903015, 0.00609840452671051, -0.0040162354707717896, -0.034804075956344604, 0.0036318302154541016, 0.0675850510597229, -0.09927855432033539, 0.13741594552993774, -0.06683410704135895, 0.16935327649116516, -0.13507258892059326, -0.1663394570350647, -0.10063555091619492, -0.1421164870262146, 0.08589312434196472, -0.14614008367061615, 0.1321602761745453, 0.05537070333957672, 0.03960371017456055, 0.051356881856918335, 0.11500036716461182, -0.16146425902843475, -0.00034612417221069336, -0.07211213558912277, 0.17534139752388, -0.03194884955883026, -0.11958754062652588, -0.14770574867725372, 0.13068237900733948, -0.14812129735946655, 0.09451600909233093, -0.09322218596935272, 0.07338017225265503, -0.03726610541343689, -0.06907140463590622, -0.06749221682548523, 0.1282813847064972, 0.14641577005386353, -0.1765386462211609, -0.15992428362369537, -0.10221680998802185, -0.14924968779087067, 0.08965188264846802, -0.09514209628105164, 0.010747194290161133, 0.06144633889198303, 0.09141179919242859, -0.037726059556007385, -0.16779550909996033, -0.03240416944026947, 0.014898642897605896, 0.025512605905532837, 0.13499769568443298, 0.03219309449195862, -0.008334487676620483, 0.009339824318885803, 0.13394787907600403, -0.052527524530887604, 0.07568994164466858, 0.10778146982192993, -0.1033213660120964, -0.07820695638656616, -0.009168088436126709, 0.1336928904056549, -0.0252438485622406, -0.17666254937648773, -0.08466936647891998, -0.039854854345321655, -0.07405934482812881, -0.05497162789106369, 0.12357190251350403, 0.05905260145664215, -0.12911751866340637, -0.07479804009199142, 0.015251457691192627, -0.15836259722709656, -0.08969110995531082, 0.006035655736923218, 0.15641754865646362, 0.08530545234680176, 0.11612507700920105, -0.04382050037384033, 0.06204764544963837, 0.09073463082313538, -0.037989914417266846, -0.1295977681875229, -0.007991775870323181, 0.06457863748073578, -0.013778328895568848, 0.09850993752479553, 0.09866514801979065, 0.06061357259750366, -0.1708785742521286, 0.16832837462425232, -0.033094316720962524, -0.08220451325178146, 0.13446208834648132, -0.11459212005138397, -0.1259405016899109, -0.14618821442127228, 0.027577027678489685, 0.16087892651557922, 0.11537489295005798, -0.17031140625476837, -0.15812519192695618, 0.08268412947654724, -0.13638432323932648, -0.030579686164855957, 0.03760930895805359, 0.07153254747390747], [0.10199907422065735, -0.001988321542739868, 0.10337701439857483, 0.04596187174320221, -0.0688248798251152, 0.13217011094093323, 0.13715219497680664, 0.05328163504600525, 0.12212181091308594, -0.16670243442058563, -0.16572321951389313, -0.1357945054769516, -0.046034395694732666, -0.13402672111988068, -0.076180599629879, -0.03873702883720398, -0.06894953548908234, -0.03052179515361786, -0.13085821270942688, 0.1311589777469635, 0.12070515751838684, -0.16720770299434662, 0.01461915671825409, -0.1247878149151802, -0.14910492300987244, 0.1528744101524353, -0.14924344420433044, 0.11989152431488037, 0.1448189616203308, -0.1542835682630539, 0.11604097485542297, 0.06715318560600281, 0.13544422388076782, -0.11364451050758362, -0.15015284717082977, 0.006568640470504761, -0.04620938003063202, -0.1262020319700241, 0.07292217016220093, 0.1540762186050415, 0.15891796350479126, -0.07935118675231934, -0.15049952268600464, -0.036845266819000244, 0.11768719553947449, 0.03935840725898743, -0.11105647683143616, -0.09317642450332642, -0.09217192977666855, 0.12174496054649353, -0.10456321388483047, -0.16759765148162842, -0.08750046044588089, 0.15702879428863525, -0.09135936945676804, -0.16312837600708008, 0.03625349700450897, -0.11409902572631836, -0.14499051868915558, -0.021754220128059387, -0.06742426753044128, -0.0012243539094924927, -0.02168618142604828, 0.02198849618434906, -0.007392063736915588, -0.09941668808460236, 0.14831501245498657, 0.07416138052940369, -0.12688127160072327, 0.09494045376777649, -0.17383098602294922, -0.05145369470119476, 0.14583125710487366, -0.04617662727832794, 0.03816744685173035, 0.05766230821609497, -0.007896915078163147, 0.1606447398662567, -0.024230733513832092, 0.15441486239433289, 0.07325565814971924, -0.021820470690727234, 0.0450640469789505, -0.15391871333122253, 0.016971096396446228, 0.11552765965461731, 0.09390696883201599, 0.1679736077785492, 0.10507121682167053, -0.02750016748905182, -0.01617632806301117, -0.13963596522808075, -0.030472472310066223, 0.06477005779743195, -0.105895034968853, -0.028789803385734558, 0.10302868485450745, 0.07252059876918793, -0.16800159215927124, -0.1667919009923935, 0.051830410957336426, -0.027518928050994873, 0.0039279162883758545, 0.12357014417648315, -0.10265438258647919, 0.11124831438064575, -0.13258571922779083, -0.15445584058761597, -0.0928877666592598, -0.14907918870449066, -0.016030162572860718, 0.17528235912322998, 0.06146910786628723, -0.16726209223270416, -0.06657646596431732, 0.020412638783454895, 0.029894739389419556, 0.11742976307868958, -0.08748820424079895, 0.07359451055526733, -0.07003862410783768, 0.163537859916687, -0.018769100308418274, -0.12938985228538513, 0.09901008009910583, -0.06249384582042694, -0.0004932284355163574, 0.02744978666305542], [-0.0550311878323555, -0.3074800968170166, 0.05528455972671509, -0.04956352710723877, -0.14074036478996277, 0.06402605772018433, 0.09650412946939468, -0.2026638239622116, 0.019338559359312057, -0.23560409247875214, 0.04480144381523132, -0.02299674227833748, 0.17089258134365082, 0.3317454159259796, 0.16081702709197998, -0.07281702011823654, 0.07065051794052124, -0.19999773800373077, -0.48350614309310913, -0.01440654881298542, -0.10989830642938614, -0.295390248298645, -0.06692908704280853, 0.2864276170730591, -0.15152406692504883, 0.2148432731628418, 0.3190558850765228, 0.5474864840507507, -0.07272189110517502, -0.09725219011306763, -0.3086819350719452, 0.47259190678596497, -0.32857948541641235, 0.21884801983833313, 0.09739813953638077, 0.5130317807197571, 0.006794344168156385, 0.13677583634853363, 0.11651799082756042, 0.13923250138759613, 0.07216817140579224, -0.06991449743509293, 0.15968483686447144, -0.14241716265678406, 0.04742777720093727, -0.16451363265514374, -0.030132846906781197, -0.08657100796699524, 0.04980596527457237, 0.307488352060318, -0.09645625203847885, -0.14055275917053223, -0.17155925929546356, -0.03211572393774986, -0.07121685892343521, -0.07291661202907562, 0.10933887958526611, -0.022375822067260742, -0.2882969081401825, -0.2247304916381836, 0.08787752687931061, 0.1628180891275406, -0.012146093882620335, -0.13861630856990814, 0.3591093420982361, 0.4451442360877991, 0.36316484212875366, 0.14543788135051727, -0.26145195960998535, -0.003332937601953745, 0.17157678306102753, -0.03810020536184311, -0.16158156096935272, -0.041050024330616, 0.28018108010292053, 0.14002372324466705, -0.17216192185878754, 0.013052398338913918, 0.20456546545028687, -0.16502134501934052, -0.06094454601407051, 0.2799985706806183, 0.0535043329000473, -0.00030253984732553363, 0.07145033776760101, 0.17533256113529205, 0.4258265197277069, -0.10085751861333847, -0.018312744796276093, -0.12947042286396027, -0.2211461365222931, -0.22291268408298492, -0.05437000095844269, 0.1433691382408142, 0.018229804933071136, -0.17522142827510834, -0.10469642281532288, 0.030597219243645668, 0.009498115628957748, 0.04474371671676636, 0.026603879407048225, -0.0890183076262474, -0.07981765270233154, -0.017848625779151917, 0.388632595539093, 0.3063236176967621, 0.6208621859550476, 0.14102603495121002, -0.11042127758264542, -0.3215115964412689, 0.2617986500263214, -0.1802259087562561, -0.07830729335546494, -0.03131481632590294, 0.26039353013038635, -0.19459818303585052, 0.0400555245578289, -0.13294342160224915, 0.013831538148224354, 0.16574817895889282, -0.3198471963405609, 0.16225028038024902, -0.4465097188949585, 0.022425226867198944, 0.6991603374481201, 0.2480999380350113, 0.17297402024269104, 0.15103869140148163], [0.19610299170017242, 0.05308204144239426, 0.04529862850904465, 0.2208230346441269, 0.22941648960113525, -0.10758527368307114, 0.5499951839447021, 0.14916133880615234, 0.715464174747467, -0.535455048084259, 0.15376146137714386, 0.7286434769630432, 0.13858313858509064, 0.0434107780456543, 0.0001082020316971466, -0.6784201264381409, 0.02133156731724739, 0.5467917323112488, 0.077036052942276, -0.18243999779224396, -0.285798579454422, -0.09735656529664993, 0.4768095910549164, -0.11826810240745544, -0.07730673998594284, 0.1871999204158783, 0.30128583312034607, -0.07934597134590149, -0.33357518911361694, 0.2430218607187271, 0.6970790028572083, 0.017730671912431717, 0.3706701397895813, -0.03391488268971443, 0.2838200032711029, -0.4843946099281311, 0.442108154296875, -0.7833734154701233, -0.06642873585224152, -0.06044890359044075, -0.06657640635967255, -0.1935497671365738, 0.2067389339208603, 0.3567453920841217, 0.41779589653015137, 0.4442867636680603, 0.5983061194419861, -0.06393340975046158, -0.2843129336833954, -0.10298188775777817, -0.30317267775535583, -0.027246421203017235, 0.17685076594352722, 0.008078734390437603, 0.012296317145228386, -0.23360785841941833, -0.5255945920944214, -0.2830398976802826, -0.11929833143949509, 0.5883401036262512, -0.017002753913402557, 0.30257147550582886, -0.16970014572143555, -0.23829075694084167, -0.1857234537601471, -0.28755781054496765, -0.07196684181690216, -0.024112572893500328, 0.06943213939666748, 0.12494726479053497, 0.41531312465667725, 0.4307212233543396, -0.06611435860395432, 0.03714265674352646, -0.10145881026983261, -0.14201433956623077, -0.330120712518692, -0.254942923784256, 0.10453662276268005, -0.40187445282936096, -0.1268712878227234, -0.33143383264541626, -0.16522549092769623, -0.011734667234122753, -0.7010869383811951, -1.0055392980575562, 0.08591853827238083, -0.32804080843925476, -0.33066925406455994, -0.18966083228588104, 0.15162065625190735, 0.21091924607753754, 0.3287647068500519, -0.3612850308418274, -0.3259938359260559, -0.13117776811122894, 0.33197474479675293, -0.2677804231643677, 0.11181515455245972, -0.055640529841184616, -0.40508660674095154, -0.376296728849411, -0.3905898630619049, -0.255365252494812, -0.20663121342658997, 0.13495242595672607, -0.18342378735542297, -0.17935048043727875, 0.4066060483455658, 0.18011362850666046, -0.20071640610694885, 0.42726844549179077, 0.4709431231021881, -0.2274748682975769, -0.18128065764904022, -0.785204291343689, 0.4775378704071045, -0.22803069651126862, 0.11141305416822433, 0.04932815954089165, -0.2773652672767639, -0.4106085002422333, -0.0965803787112236, 0.056778278201818466, -0.16671478748321533, -0.1570884734392166, -0.15363578498363495, 0.33379897475242615], [0.030590413138270378, 0.4853975176811218, 0.06873629242181778, -0.05684414133429527, 0.2822788953781128, -0.0122752720490098, 0.00415015546604991, -0.10570786893367767, -0.041284941136837006, 0.056765541434288025, 0.14900577068328857, -0.29794061183929443, 0.16026802361011505, -0.1267566829919815, -0.11075087636709213, -0.05526823550462723, 0.4050496518611908, -0.37728068232536316, 0.4288671314716339, 0.00027617838350124657, -0.17522956430912018, -0.0659235268831253, -0.2064250409603119, -0.34015610814094543, -0.07489711046218872, 0.3978855013847351, -0.14301235973834991, 0.21249590814113617, -0.1245783343911171, -0.1638944298028946, 0.06499890983104706, 0.10780921578407288, -0.25791656970977783, 0.14381372928619385, -0.10462938249111176, 0.06149594858288765, -0.061396319419145584, 0.14931178092956543, 0.2843344807624817, 0.06856580823659897, 0.22444865107536316, 0.05373058840632439, 0.21705842018127441, -0.1968439519405365, -0.04685740917921066, -0.16338491439819336, -0.12525704503059387, 0.42202410101890564, -0.00476992130279541, 0.013615237548947334, 0.14096590876579285, 0.02993459440767765, -0.29713618755340576, -0.3978467881679535, 0.8015235066413879, -0.2685917019844055, 0.14545650780200958, 0.09461210668087006, -0.19854682683944702, -0.18489015102386475, 0.24193181097507477, -0.3131278455257416, 0.36970627307891846, 0.20359666645526886, 0.21039874851703644, 0.22119355201721191, -0.24129778146743774, 0.400865763425827, 0.19360943138599396, 0.17237237095832825, -0.09787928313016891, -0.5844587683677673, 0.236737459897995, 0.1902703195810318, 0.24464990198612213, 0.2890678942203522, 0.11917813122272491, 0.11129572242498398, -0.5050351619720459, -0.30227547883987427, 0.09372586011886597, 0.13231608271598816, 0.4333415627479553, 0.6443281173706055, 0.0629706010222435, -0.10172440856695175, 0.14687608182430267, 0.005049629602581263, -0.5728464722633362, 0.08401001989841461, -0.05887751281261444, -0.14700262248516083, 0.12532363831996918, 0.1261550337076187, 0.038943130522966385, 0.1606837958097458, 0.3316304683685303, -0.14083008468151093, -0.12286736071109772, -0.11566343158483505, -0.06791579723358154, -0.2595081031322479, 0.21868592500686646, 0.23346610367298126, -0.00029753270791843534, -0.020704321563243866, 0.0313737727701664, 0.007661161012947559, 0.06002173200249672, -0.3857475817203522, 0.23655728995800018, -0.293063759803772, 0.017675409093499184, -0.542020857334137, 0.05385897681117058, 0.15328162908554077, -0.4667292535305023, 0.1912778913974762, 0.6330888271331787, 0.46586424112319946, 0.06804651021957397, -0.16069400310516357, -0.18481360375881195, 0.2382604330778122, 0.21466876566410065, 0.07215963304042816, 0.12039841711521149, -0.22236698865890503], [-0.18109020590782166, -0.25195690989494324, -0.01434145588427782, 0.11322940140962601, -0.049680475145578384, 0.055938269942998886, 0.042282577604055405, -0.3397238552570343, 0.06787654012441635, -0.2540099322795868, 0.19777844846248627, 0.11540117114782333, 0.44605183601379395, -0.23785331845283508, 0.05694064870476723, 0.032044388353824615, 0.09275861084461212, 0.05129414051771164, -0.483529657125473, -0.049848224967718124, -0.026274891570210457, -0.09048955142498016, 0.059912316501140594, 0.08189624547958374, -0.26787519454956055, -0.12386644631624222, 0.24179337918758392, 0.33666372299194336, -0.2253982275724411, -0.059358980506658554, -0.18786101043224335, 0.35005709528923035, -0.10863544046878815, 0.09874718636274338, 0.31249454617500305, 0.28077027201652527, 0.10297368466854095, -0.18908171355724335, 0.15125401318073273, 0.2905600965023041, 0.17750345170497894, -0.17993777990341187, -0.15268975496292114, 0.027803601697087288, -0.14053642749786377, 0.07107130438089371, 0.1285262256860733, -0.10470746457576752, -0.0871097594499588, 0.4092046916484833, 0.08259992301464081, -0.22195787727832794, -0.10468801110982895, 0.03361877053976059, -0.16632221639156342, -0.30082228779792786, -0.09596685320138931, 0.020520692691206932, -0.04516030475497246, 0.143182173371315, 0.21493689715862274, 0.32144057750701904, -0.24925468862056732, -0.11341722309589386, 0.33815982937812805, 0.4667758047580719, -0.09967218339443207, 0.12642313539981842, -0.21416541934013367, -0.19439226388931274, 0.15358023345470428, -0.058298394083976746, -0.36963319778442383, 0.11812613159418106, 0.07569237798452377, 0.16458116471767426, -0.11491751670837402, 0.149870827794075, 0.07274730503559113, -0.011319073848426342, -0.11887911707162857, 0.0642770305275917, 0.2175670862197876, 0.04087711498141289, 0.15419626235961914, 0.16185539960861206, 0.23095901310443878, -0.10128295421600342, -0.04433455690741539, -0.1565791517496109, -0.12111059576272964, -0.2380126565694809, -0.14566606283187866, 0.08602418005466461, -0.13518774509429932, 0.08640085160732269, -0.1541948765516281, -0.06444942206144333, -0.16134309768676758, -0.27854958176612854, 0.1452566534280777, -0.041872985661029816, -0.042980194091796875, -0.13156282901763916, 0.4817572236061096, 0.28503933548927307, 0.3897874057292938, 0.04905061051249504, -0.07052040845155716, -0.242755725979805, 0.2114768922328949, 0.2010764479637146, 0.04486893489956856, -0.16547749936580658, -0.03732006251811981, 0.012479065917432308, 0.08620664477348328, -0.07437209784984589, 0.16780634224414825, 0.2141694575548172, -0.29772403836250305, -0.06224468722939491, -0.03527740389108658, 0.21943609416484833, 0.5648441910743713, 0.1339217573404312, 0.2345104068517685, -0.022084733471274376], [0.29643967747688293, -0.10667386651039124, 0.03481970727443695, 0.09385496377944946, 0.23724612593650818, -0.008582600392401218, 0.3384335935115814, -0.1714998036623001, 0.33332014083862305, -0.31810569763183594, 0.009914396330714226, 0.6691630482673645, 0.19998614490032196, -0.11464100331068039, 0.24054938554763794, -0.32233020663261414, -0.17410936951637268, 0.17530344426631927, -0.16117404401302338, -0.13780759274959564, 0.410475492477417, 0.10191385447978973, 0.03293600305914879, 0.06553953140974045, -0.15158693492412567, -0.13652408123016357, 0.03011033497750759, -0.35397642850875854, -0.3202359676361084, -0.13025760650634766, 0.3020736575126648, 0.07308811694383621, 0.3370119035243988, -0.04053422063589096, 0.04835698753595352, -0.30255594849586487, 0.31789201498031616, -0.4491881728172302, -0.09245096147060394, -0.015811072662472725, -0.09751994162797928, -0.2264598309993744, 0.30594173073768616, 0.37548404932022095, 0.19452989101409912, 0.19151245057582855, 0.39091968536376953, -0.14939184486865997, -0.23605340719223022, 0.030881306156516075, -0.27477964758872986, 0.1342194676399231, -0.07851731777191162, -0.0451255701482296, 0.06447621434926987, 0.05646989867091179, -0.22852793335914612, -0.21966652572155, -0.4347396194934845, 0.4382268190383911, -0.29932284355163574, 0.15154533088207245, -0.021865427494049072, -0.20966696739196777, -0.30075716972351074, 0.04344222694635391, 0.12712576985359192, -0.11591518670320511, 0.016775762662291527, 0.06711219251155853, 0.16876067221164703, 0.40559467673301697, 0.24724075198173523, -0.032890237867832184, -0.08809444308280945, -0.17194411158561707, 0.009617091156542301, -0.09657401591539383, -0.13917270302772522, -0.25649210810661316, -0.055649284273386, -0.2523956894874573, -0.24937130510807037, 0.043198395520448685, -0.3610384464263916, -0.7579212784767151, -0.22434481978416443, -0.04727823659777641, -0.30540183186531067, -0.13523317873477936, 0.05351847782731056, -0.02935693971812725, 0.2762349843978882, -0.3734193444252014, -0.3302783966064453, -0.17601652443408966, 0.3105502724647522, -0.15836744010448456, -0.03351696953177452, 0.12506288290023804, 0.03713615611195564, 0.20247532427310944, -0.001602247473783791, -0.21473801136016846, -0.08390115201473236, -0.08614727854728699, 0.03359096869826317, 0.060311347246170044, 0.3931663930416107, -0.1858416646718979, -0.1208728551864624, 0.20445571839809418, 0.1511787623167038, -0.2889786660671234, 0.018077027052640915, -0.656977117061615, 0.4911966621875763, -0.17836226522922516, 0.20306088030338287, 0.10731015354394913, -0.2581326365470886, -0.4157905578613281, -0.20628122985363007, 0.2640399932861328, -0.20067152380943298, -0.1351110190153122, -0.13345515727996826, 0.3003939390182495], [0.04079761728644371, 0.18283839523792267, 0.10918191075325012, -0.1599816381931305, 0.12697792053222656, -0.029918979853391647, -0.11249874532222748, 0.14949363470077515, 0.02026287652552128, -0.03805738314986229, 0.09028798341751099, -0.2007390409708023, 0.20824815332889557, -0.07164791971445084, -0.05660540610551834, -0.01717282272875309, 0.5035086870193481, -0.09814845025539398, 0.20380187034606934, 0.08041507005691528, -0.33255717158317566, -0.16932187974452972, -0.1454094499349594, 0.06945793330669403, -0.13750559091567993, 0.49160876870155334, 0.06127315014600754, -0.0033999155275523663, -0.1568034440279007, 0.099136583507061, 0.2666788101196289, 0.024120261892676353, -0.2967568635940552, 0.004424820654094219, -0.27966752648353577, -0.1282350718975067, 0.009541631676256657, 0.3142084777355194, 0.2507036030292511, 0.10411464422941208, 0.35573822259902954, 0.02635057270526886, -3.0162002076394856e-05, -0.15939190983772278, 0.07299694418907166, -0.15809796750545502, -0.028468070551753044, 0.466863751411438, 0.15545564889907837, 0.13574843108654022, 0.2830291986465454, 0.008750423789024353, 0.05051139369606972, -0.20257139205932617, 0.8009607791900635, -0.024196306243538857, 0.1330704540014267, -0.17392182350158691, -0.10293526947498322, -0.152327761054039, 0.21976977586746216, -0.13250702619552612, 0.16274702548980713, 0.34167882800102234, 0.06847110390663147, 0.1356019675731659, -0.08299510926008224, -0.010237054899334908, 0.039588142186403275, 0.4676821529865265, -0.13837413489818573, -0.407479852437973, 0.04960842803120613, 0.10141150653362274, 0.16832797229290009, 0.00910115335136652, 0.05041743814945221, 0.10554657131433487, -0.23942263424396515, -0.10682778060436249, 0.1432904601097107, 0.25739091634750366, 0.41662970185279846, 0.38490986824035645, -0.04684733599424362, -0.17551016807556152, -0.05431419610977173, 0.09350598603487015, -0.4906954765319824, -0.131193146109581, -0.3805973529815674, 0.16915306448936462, 0.24992312490940094, -0.04160279780626297, 0.2020646631717682, -0.054818108677864075, 0.2215300351381302, 0.12670476734638214, 0.05269358307123184, -0.11963154375553131, 0.08537221699953079, -0.24213439226150513, 0.024685965850949287, 0.23295530676841736, -0.010868496261537075, 0.2679515480995178, -0.04498719796538353, 0.09809090197086334, 0.045829933136701584, -0.005552143789827824, 0.2065420150756836, -0.09206433594226837, 0.05246603116393089, -0.17952243983745575, 0.21026919782161713, 0.39498820900917053, -0.18118983507156372, 0.0488743856549263, 0.4739317297935486, 0.1503230631351471, -0.09551401436328888, 0.07656048238277435, -0.08232274651527405, 0.2234603315591812, 0.06535419076681137, 0.042900074273347855, 0.08875129371881485, -0.22041113674640656], [-0.46228277683258057, -0.5027762055397034, -0.2540316879749298, 0.13924789428710938, -0.06666712462902069, 0.24431276321411133, 0.06207127496600151, 0.09693698585033417, 0.1483425796031952, 0.15985193848609924, -0.12961530685424805, 0.06503741443157196, 0.5376025438308716, -0.6690335869789124, -0.5521372556686401, 0.43452462553977966, -0.09261749684810638, -0.2661714255809784, 0.050685685127973557, -0.09395620226860046, 0.22342993319034576, 0.3410181701183319, 0.17322838306427002, 0.06346269696950912, -0.10586971789598465, 0.06496007740497589, -0.16515006124973297, -0.05436011031270027, -0.013173787854611874, -0.09634315222501755, -0.18000294268131256, 0.48890984058380127, 0.07079872488975525, -0.016559580340981483, 0.14680860936641693, 0.4037632346153259, -0.14605480432510376, 0.18642406165599823, -0.1383921355009079, 0.4967378079891205, 0.008643316105008125, 0.25735780596733093, -0.48978540301322937, -0.15097177028656006, 0.0673716589808464, -0.04088030382990837, 0.04407963901758194, 0.12153084576129913, -0.06007775291800499, 0.3503354787826538, -0.052750181406736374, -0.11508501321077347, 0.004194808192551136, -0.04119030013680458, -0.021918365731835365, -0.7041833996772766, 0.10708695650100708, 0.1731157749891281, -0.09678322076797485, 0.13892574608325958, 0.004474140238016844, 0.3095647692680359, 0.047953490167856216, -0.12072951346635818, 0.13466420769691467, 0.3606061041355133, -0.6177316904067993, 0.017056457698345184, -0.35700616240501404, 0.1919875591993332, -0.08792190253734589, -0.16972193121910095, -0.0790245309472084, 0.42212629318237305, 0.3460276424884796, 0.27873337268829346, 0.0810936912894249, 0.7200613617897034, -0.32112792134284973, -0.04373113811016083, -0.5508870482444763, -0.035350944846868515, 0.21229110658168793, 0.1462334841489792, 0.04191679507493973, -0.0768502801656723, -0.19503065943717957, 0.2027454674243927, 0.0913095772266388, -0.10823614150285721, 0.02885652519762516, 0.04447949305176735, 0.012857761234045029, -0.23288260400295258, -0.2412751168012619, -0.03352677449584007, -0.24752546846866608, 0.013153228908777237, 0.2195204347372055, -0.040583670139312744, -0.12802444398403168, -0.20425549149513245, 0.43311652541160583, -0.06780802458524704, 0.14002321660518646, 0.2688228487968445, -0.014854284934699535, -0.10274763405323029, 0.3429037928581238, -0.27653566002845764, 0.19328106939792633, 0.1917707920074463, -0.1000610888004303, 0.023355839774012566, 0.129533588886261, 0.12422076612710953, -0.06561918556690216, -0.02560942992568016, -0.03884938359260559, 0.21879421174526215, 0.18647027015686035, 0.08242026716470718, 0.035285212099552155, 0.568320095539093, -0.19565430283546448, 0.2700435221195221, -0.04138566553592682, -0.06425762921571732], [0.2713879942893982, -0.08573370426893234, 0.13499043881893158, -0.18010368943214417, -0.20079244673252106, -0.04055797681212425, 0.03984308987855911, 0.03776014968752861, 0.045896269381046295, 0.23150840401649475, 0.19249026477336884, 0.021161995828151703, -0.24861803650856018, 0.051549993455410004, 0.2794388234615326, 0.08376606553792953, -0.518648087978363, 0.09280283749103546, -0.08839226514101028, -0.038013119250535965, 0.7643133401870728, 0.41856178641319275, -0.1342240273952484, 0.02730475924909115, -0.26566725969314575, -0.2424735277891159, 0.136094331741333, 0.008472410961985588, -0.2046767622232437, 0.17599686980247498, 0.06853434443473816, 0.0872073546051979, -0.21429526805877686, 0.369509220123291, 0.080362468957901, 0.11119227111339569, 0.5349971055984497, -0.08848758041858673, 0.15485292673110962, -0.03614985942840576, -0.3045983612537384, -0.1369124799966812, 0.21124187111854553, -0.09902196377515793, -0.23907224833965302, -0.1907646209001541, 0.017978210002183914, 0.008461802266538143, 0.25049370527267456, -0.0459577850997448, 0.08642961084842682, -0.4277457296848297, -0.35830923914909363, 0.2647644579410553, 0.37609779834747314, 0.02410298027098179, 0.35727956891059875, 0.06720173358917236, -0.1666949987411499, -0.09124208986759186, -0.18973779678344727, 0.01721118949353695, 0.11454469710588455, -0.29172635078430176, -0.11048586666584015, -0.011666679754853249, -0.1345154196023941, -0.1518128216266632, 0.024807708337903023, -0.3163895308971405, 0.11289922147989273, 0.1979205459356308, 0.06623674184083939, 0.021012024953961372, -0.032016437500715256, 0.25290971994400024, -0.013961437158286572, -0.07330120354890823, -0.00371169694699347, -0.2663944959640503, 0.07122910767793655, 0.024354837834835052, -0.2846374809741974, -0.10253952443599701, -0.3113621473312378, -0.49308982491493225, 0.00844435952603817, 0.07490451633930206, -0.19690069556236267, 0.03597249835729599, 0.18221624195575714, -0.11614938825368881, 0.5910833477973938, -0.5139070749282837, -0.2026475965976715, 0.06051230803132057, 0.4536975622177124, 0.27450600266456604, -0.21408435702323914, 0.36327096819877625, -0.14439815282821655, 0.602712094783783, 0.00605976115912199, -0.1737334132194519, 0.09980703890323639, 0.03534778952598572, 0.20301169157028198, 0.006234912667423487, 0.22573277354240417, -0.3791123330593109, -0.14625020325183868, 0.2677112817764282, -0.15258178114891052, -0.33797404170036316, -0.2365114837884903, -0.45166924595832825, 0.4886999726295471, -0.2202356904745102, 0.3226375877857208, -0.09851135313510895, 0.14040398597717285, 0.0307901781052351, 0.01369902677834034, 0.07755778729915619, 0.27554383873939514, -0.16083404421806335, -0.09554093331098557, 0.33957770466804504], [-0.006567026488482952, 0.049700550734996796, 0.11104493588209152, -0.17679332196712494, 0.043076321482658386, 0.13375122845172882, -0.18146036565303802, 0.27062374353408813, 0.14247411489486694, 0.22009798884391785, 0.29264113306999207, -0.19951163232326508, 0.011742590926587582, -0.04712029919028282, 0.26696398854255676, -0.09691272675991058, 0.26255154609680176, 0.02198958210647106, 0.030114421620965004, 0.05832440406084061, -0.003106907941401005, -0.1296122968196869, 0.025518812239170074, 0.26228615641593933, -0.020957622677087784, 0.5657312870025635, 0.09959562867879868, 0.20665831863880157, -0.1583343744277954, 0.19860826432704926, -0.021443644538521767, 0.2016218900680542, -0.4046413004398346, 0.22674880921840668, 0.02573677897453308, -0.014938242733478546, 0.0867135301232338, 0.40806224942207336, 0.0735117718577385, 0.24991849064826965, 0.10163378715515137, -0.03023231029510498, -0.06293318420648575, -0.12342949211597443, 0.38147151470184326, 0.00962137896567583, 0.11158221960067749, 0.20125609636306763, 0.16962674260139465, 0.09745558351278305, 0.02936525270342827, 0.06812189519405365, 0.19535724818706512, 0.03964240849018097, 0.5739818215370178, 0.08902464807033539, 0.18361838161945343, 0.1011161357164383, 0.05686481297016144, -0.03952083736658096, -0.20003458857536316, -0.15621152520179749, 0.33324605226516724, 0.05098192021250725, 0.18677130341529846, 0.15856435894966125, 0.052383292466402054, 0.15377920866012573, 0.026587994769215584, 0.5054431557655334, 0.1911730170249939, -0.02361123077571392, 0.04869794845581055, -0.0506126806139946, 0.132829487323761, 0.18330928683280945, 0.2094091922044754, 0.19219166040420532, -0.005152196157723665, -0.36121058464050293, 0.026641879230737686, 0.025150898844003677, 0.6178349852561951, 0.10965628176927567, -0.1392057240009308, -0.03755153715610504, 0.22763049602508545, 0.20172272622585297, -0.32915976643562317, 0.023469040170311928, -0.1770673543214798, 0.2684236466884613, 0.5000402331352234, -0.1470814049243927, -0.0008570620557293296, -0.01513715647161007, 0.3419904410839081, -0.039501942694187164, -0.08716307580471039, 0.11741849035024643, -0.011537503451108932, -0.3297960162162781, 0.31124964356422424, -0.020649123936891556, -0.007058214396238327, 0.35350003838539124, 0.2344399094581604, 0.1165340319275856, 0.3899543285369873, 0.02616693638265133, 0.10178171098232269, -0.2048969268798828, -0.1619729995727539, -0.0007490133866667747, 0.2704760432243347, 0.18096405267715454, 0.09439516812562943, 0.022839615121483803, 0.33138877153396606, 0.005603207740932703, -0.13049113750457764, -0.23043718934059143, 0.11763608455657959, 0.19267943501472473, -0.02548030950129032, 0.12256162613630295, -0.278085321187973, 0.12967555224895477], [-0.3962983191013336, -0.9664385318756104, -0.3679701089859009, -0.12571357190608978, -0.03287525475025177, 0.9525160193443298, 0.10066437721252441, 0.2864778935909271, -0.03288904204964638, 0.5751680731773376, -0.17061427235603333, 0.0921364575624466, 0.8717067241668701, -0.854971170425415, -0.8494207859039307, 0.8921675086021423, -0.04185381904244423, -0.2556637227535248, 1.0362170934677124, 0.11307943612337112, 0.11508283764123917, 0.29239100217819214, -0.13930955529212952, 0.16014428436756134, 0.2964438498020172, -0.21200016140937805, -0.7389187812805176, -0.4641197919845581, 0.05749524012207985, -0.2860085666179657, -0.07537783682346344, 0.2236742526292801, 0.19020026922225952, 0.28170329332351685, -0.2800578474998474, 0.6776556372642517, -0.04683918505907059, 0.702731192111969, -0.05474475026130676, 0.7089263200759888, -0.49057403206825256, 0.41467809677124023, -0.9211244583129883, 0.016827886924147606, -0.10089103877544403, 0.027484752237796783, 0.10598333179950714, 0.2817293107509613, -0.0387883335351944, 0.2959066331386566, -0.17497341334819794, -0.15853796899318695, -0.06366446614265442, 0.1982753723859787, 0.08245682716369629, -0.6313520073890686, -0.06303392350673676, -0.0295031126588583, 0.22669988870620728, -0.11860232055187225, -0.10162698477506638, 0.20937718451023102, 0.060788076370954514, -0.08414783328771591, -0.3984878957271576, 0.18677246570587158, -1.1979621648788452, -0.2269544005393982, -0.6986725330352783, 0.6714915633201599, 0.00715335737913847, 0.15248721837997437, -0.27043336629867554, 0.6622532606124878, 0.23860161006450653, 0.46265947818756104, 0.1764622926712036, 1.1625111103057861, -0.7643648386001587, 0.033727820962667465, -0.5629400014877319, -0.035854633897542953, -0.09480687975883484, -0.07627963274717331, 0.0745902955532074, -0.20342373847961426, -0.5939076542854309, 0.21911001205444336, -0.12552350759506226, 0.06358307600021362, -0.09388888627290726, 0.004976497031748295, 0.1171412542462349, -0.13146620988845825, -0.3111126124858856, -0.44227123260498047, -0.01128446590155363, 0.05255112051963806, 0.21052663028240204, -0.30399057269096375, -0.23880258202552795, -0.07389359176158905, 1.073090672492981, -0.041241131722927094, -0.15845927596092224, -0.1788855940103531, -0.6094595193862915, -0.4012469947338104, 1.0542223453521729, -0.06325848400592804, 0.12435675412416458, 0.45658066868782043, 0.047402024269104004, 0.06772828847169876, 0.09131526947021484, 0.20083385705947876, 0.06594660133123398, -0.08716081827878952, -0.14311483502388, 0.264149010181427, 0.48536795377731323, 0.0007567328866571188, 0.29345864057540894, 0.9310163855552673, -0.7203444242477417, -0.0877910777926445, -0.5538486838340759, 0.0406637080013752], [-0.20533305406570435, -0.46042194962501526, 0.14577573537826538, -0.6728564500808716, -0.4230632185935974, -0.21069052815437317, 0.04311887547373772, -0.30476778745651245, -0.1626993864774704, 0.8603994846343994, 0.24031725525856018, -0.674159586429596, -0.6198437213897705, 0.03714620694518089, 0.0335528589785099, 0.2256128489971161, -0.8349355459213257, -0.04983220621943474, 0.4985091984272003, 0.41120702028274536, 0.7755745649337769, 0.4435277283191681, -0.16202135384082794, -0.39954474568367004, -0.1691669076681137, -0.928043782711029, 0.4216449558734894, 0.6149910688400269, -0.9909536242485046, 1.0865347385406494, -0.1250343769788742, -0.05442570522427559, -0.9595010876655579, 0.5384522676467896, 0.19211125373840332, -0.056527238339185715, 0.808688759803772, -0.1561262607574463, 0.596889317035675, -0.15331430733203888, 0.12897413969039917, -0.5688688158988953, 0.09500019252300262, -0.4742903411388397, -0.6554190516471863, -0.550456166267395, -0.5390529036521912, 0.39378827810287476, 0.5862565636634827, -0.008737131021916866, -0.04540223255753517, -0.5309054255485535, -0.625403106212616, 0.49923253059387207, 0.373555451631546, -0.010484039783477783, 1.0096263885498047, 0.5578821301460266, 0.43158385157585144, -0.8049800992012024, 0.023922018706798553, -0.2388104945421219, 0.4623669683933258, -0.19707489013671875, 0.016853556036949158, 0.2101486474275589, -0.3604441285133362, -0.015021712519228458, -0.04684184119105339, -0.5554137825965881, 0.11366245895624161, -0.09420286118984222, 0.19574487209320068, 0.3233613967895508, 0.22244173288345337, 0.6238416433334351, 0.46334680914878845, -0.16195553541183472, 0.5319223999977112, -0.6041709184646606, 0.14524555206298828, 0.024422740563750267, 0.15741904079914093, -0.6342518329620361, 0.18976221978664398, -0.5128273367881775, 0.7961481809616089, 0.7774503827095032, 0.2940222918987274, 0.5075280070304871, 0.2938917875289917, -0.18812714517116547, 0.9135523438453674, -0.36552950739860535, -0.6170238256454468, 0.5514498949050903, 0.4624779224395752, 0.31728672981262207, -0.00818368699401617, 0.12382529675960541, -0.5927171111106873, 0.5607681274414062, 0.17508605122566223, -0.28251218795776367, 0.33242496848106384, 0.13037149608135223, 0.2520504891872406, 0.1638364940881729, -0.2511279881000519, -0.23194187879562378, 0.1492805927991867, -0.16063863039016724, -0.6631454229354858, -0.00927755143493414, -0.22467783093452454, -0.37201932072639465, 0.5510991215705872, 0.17355412244796753, 0.8372156023979187, -0.17600086331367493, 0.4816223978996277, 0.6600067615509033, 0.7085772156715393, 0.11009576171636581, 0.7076290845870972, -0.3907819390296936, 0.5270378589630127, 0.21919791400432587], [0.0048677390441298485, 0.0830501988530159, 0.10788997262716293, 0.13956454396247864, -0.2649186849594116, 0.14793194830417633, -0.15463846921920776, 0.41263365745544434, 0.0344790443778038, -0.08389630168676376, 0.058679599314928055, -0.035922251641750336, 0.01896507665514946, -0.1058371365070343, 0.05963001027703285, 0.08862371742725372, 0.196730375289917, 0.3958565294742584, 0.19276276230812073, 0.0316680371761322, -0.05504076927900314, -0.16849738359451294, 0.06853402405977249, 0.3576107621192932, 0.20436958968639374, 0.4408082365989685, 0.40585803985595703, -0.07361641526222229, 0.19014228880405426, 0.5015556216239929, -0.1304568499326706, 0.10259560495615005, -0.4082389175891876, 0.17105180025100708, -0.17105188965797424, -0.09037378430366516, 0.05472357198596001, 0.44932690262794495, -0.3053140938282013, 0.08135887235403061, 0.14558804035186768, 0.26711758971214294, 0.06341221183538437, 0.01884574070572853, 0.4591134190559387, 0.039977725595235825, 0.03886711224913597, 0.346109002828598, 0.12457756698131561, 0.2927544414997101, -0.05595770105719566, -0.2993154525756836, 0.20061267912387848, 0.10069004446268082, 0.3012562096118927, 0.027235783636569977, 0.11240537464618683, 0.16358108818531036, 0.15015347301959991, -0.16518670320510864, -0.195104718208313, 0.15490393340587616, 0.06912340968847275, 0.27009326219558716, 0.022505981847643852, 0.004630199633538723, 0.3160566985607147, -0.15086022019386292, -0.30187416076660156, 0.11851049214601517, 0.1990206092596054, -0.07374070584774017, -0.1420464962720871, 0.047269564121961594, 0.32227733731269836, 0.2348969280719757, 0.07568349689245224, 0.24934075772762299, 0.37419015169143677, -0.08376003801822662, 0.029530342668294907, 0.17634114623069763, 0.5439015030860901, 0.016445642337203026, -0.06365226209163666, 0.0650639459490776, -0.04091748222708702, 0.29042893648147583, -0.0325089655816555, -0.04709417745471001, -0.40638232231140137, 0.16184663772583008, 0.44298455119132996, 0.02846560627222061, 0.1441202461719513, 0.18759700655937195, 0.15074260532855988, -0.13655100762844086, -0.019634181633591652, -0.013029871508479118, 0.10766147077083588, -0.3545866310596466, 0.20820054411888123, 0.1371593475341797, -0.05064632371068001, 0.07217646390199661, 0.10748926550149918, 0.1669158935546875, 0.2998250722885132, 0.19662849605083466, 0.3277771472930908, -0.14345280826091766, -0.13376720249652863, 0.04745442420244217, 0.23357604444026947, 0.32992568612098694, -0.03538437560200691, 0.10998458415269852, 0.25228574872016907, -0.0840621143579483, 0.09538893401622772, -0.16846686601638794, 0.1594056785106659, 0.11830799281597137, 0.12259260565042496, 0.1283739060163498, -0.3522011935710907, 0.05488913133740425], [0.16875328123569489, 0.49228858947753906, -0.09197590500116348, -0.2289613038301468, -0.3536434471607208, -0.2307092249393463, -0.2915476858615875, 0.021633107215166092, -0.12445535510778427, -0.24744915962219238, 0.059262752532958984, -0.023445867002010345, -0.038850732147693634, -0.10835302621126175, -0.015292501077055931, -0.12302692979574203, 0.00041081130621023476, 0.17951732873916626, -0.3762025535106659, 0.03435349464416504, 0.14871914684772491, -0.0359610952436924, 0.07199929654598236, 0.49043628573417664, -0.16970661282539368, -0.07495401054620743, 0.3318324387073517, 0.426981121301651, 0.07497169077396393, -0.15059027075767517, -0.10936277359724045, -0.028411446139216423, -0.0730513483285904, -0.18750719726085663, 0.1519375890493393, -0.23554164171218872, -0.13511091470718384, -0.1098068431019783, 0.07955287396907806, -0.2707751393318176, 0.12721124291419983, 0.19836875796318054, 0.051099613308906555, -0.0645516887307167, 0.11561793833971024, -0.09853123873472214, -0.04699406027793884, -0.07927361875772476, 0.28642502427101135, 0.3533617854118347, -0.16050082445144653, 0.17835702002048492, 0.17284055054187775, 0.028322432190179825, -0.0752497985959053, -0.015699924901127815, 0.005013450514525175, 0.12088195979595184, -0.05809770151972771, -0.018046699464321136, 0.053475067019462585, -0.11225145310163498, -0.2302335649728775, 0.6347428560256958, 0.49216601252555847, -0.18549413979053497, 0.044943686574697495, 0.1560109704732895, 0.2900402545928955, -0.6233252286911011, 0.18336011469364166, -0.13563114404678345, -0.0230557918548584, 0.07686901092529297, -0.04283106327056885, -0.013705895282328129, 0.010990060865879059, 0.017722824588418007, 0.6147578954696655, 0.060695528984069824, -0.07245179265737534, 0.025024250149726868, 0.289692223072052, -0.0868963897228241, 0.10121533274650574, 0.3367713987827301, -0.004637567792087793, 0.16357164084911346, 0.1903255432844162, 0.008524889126420021, 0.09206657111644745, -0.04275600239634514, -0.0854327604174614, -0.06515998393297195, 0.2586236298084259, -0.3025711476802826, -0.19793953001499176, -0.06980077922344208, -0.1779460459947586, 0.06294193118810654, -0.03347673639655113, -0.134073406457901, -0.11957765370607376, 0.06560394167900085, 0.025294963270425797, 0.19150973856449127, 0.36510008573532104, 0.22151319682598114, -0.025376304984092712, -0.14704780280590057, -0.15315678715705872, -0.13191765546798706, 0.02394203282892704, 0.05478470027446747, -0.03248351439833641, 0.04923323169350624, -0.05201908200979233, 0.1429549902677536, 0.05213988572359085, 0.15075252950191498, -0.2051428258419037, 0.018485523760318756, -0.002603433094918728, 0.04850985109806061, 0.49065661430358887, 0.32319918274879456, 0.37654873728752136, 0.07254770398139954], [0.024851445108652115, 0.061524100601673126, 0.05764119699597359, -0.053783200681209564, 0.11474351584911346, 0.02671724371612072, 0.2745533585548401, 0.04320283606648445, 0.013325336389243603, -0.3647415041923523, -0.06661589443683624, 0.3310558497905731, 0.007426629774272442, 0.010129781439900398, -0.2423829436302185, -0.4128022789955139, -0.1284797042608261, 0.34322038292884827, 0.09880542010068893, -0.11790042370557785, -0.4183274507522583, -0.24816623330116272, -0.13080385327339172, 0.013565280474722385, 0.05900225788354874, -0.1657235026359558, -0.03425982967019081, -0.22043417394161224, 0.16438741981983185, 0.0697823241353035, 0.23070499300956726, -0.16485385596752167, 0.46752285957336426, -0.2913309633731842, 0.1018964871764183, -0.05648787319660187, -0.24655455350875854, -0.19377487897872925, -0.2048773467540741, 0.12177962064743042, -0.09771315008401871, 0.17972680926322937, -0.018439821898937225, 0.3828853666782379, -0.3397546410560608, -0.06315411627292633, -0.08105448633432388, 0.2519400119781494, -0.1201745867729187, -0.09198828786611557, 0.02272450178861618, -0.07490413635969162, 0.08642655611038208, -0.30065932869911194, -0.025564953684806824, -0.07824201136827469, -0.710762083530426, 0.012411832809448242, -0.37891629338264465, 0.12290993332862854, -0.266847163438797, 0.019501732662320137, 0.014161503873765469, -0.18632014095783234, -0.06181278079748154, 0.1652989238500595, -0.015953920781612396, -0.2976478636264801, 0.10319336503744125, 0.15645422041416168, -0.036871783435344696, 0.13925066590309143, 0.009102503769099712, -0.08868763595819473, -0.35966333746910095, -0.20013485848903656, 0.05931263789534569, -0.021182430908083916, -0.0557684525847435, -0.17705337703227997, 0.11639607697725296, -0.296953409910202, 0.27698618173599243, -0.22245419025421143, -0.022617973387241364, 0.3660862445831299, 0.06867411732673645, -0.2747197151184082, -0.13277259469032288, -0.08578179031610489, 0.4237348139286041, 0.28213992714881897, -0.0224679596722126, -0.2317318469285965, -0.3352240324020386, -0.09596903622150421, -0.19067732989788055, -0.08120767772197723, -0.027375314384698868, -0.16331949830055237, -0.2849482595920563, -0.32005831599235535, -0.033424608409404755, 0.1514526903629303, 0.08083588629961014, -0.05920613557100296, 0.19302448630332947, -0.13676634430885315, 0.1298709213733673, -0.0703752264380455, -0.0457550473511219, -0.16190725564956665, 0.10899002104997635, 0.13174766302108765, -0.0593075305223465, -0.2205319106578827, -0.08260718733072281, -0.15551882982254028, -0.16785989701747894, 0.13486741483211517, -0.11964411288499832, -0.32540902495384216, -0.0783940926194191, 0.03456783667206764, 0.10310050845146179, -0.1623804122209549, -0.24704831838607788, -0.18487097322940826], [-0.4131021797657013, 0.13996988534927368, -0.16939368844032288, -0.14767809212207794, 0.18980008363723755, 0.050988808274269104, 0.4755045473575592, -0.2731489837169647, 0.15588171780109406, 0.09103292971849442, -0.27218854427337646, 0.01629343442618847, 0.03683410957455635, -0.3175432085990906, -0.046377986669540405, 0.10644426941871643, 0.21940739452838898, 0.1396741420030594, 0.19946780800819397, -0.3221133351325989, -0.13679757714271545, 0.2850787937641144, -0.28734999895095825, 0.09894128143787384, 0.053956739604473114, 0.1739288568496704, 0.4286176562309265, -0.06953950971364975, -0.011167788878083229, -0.260137140750885, 0.1298021674156189, -0.20113065838813782, 0.15339234471321106, -0.42081737518310547, 0.2810688018798828, 0.2602301836013794, -0.03788053244352341, -0.01677204854786396, 0.3456161320209503, 0.16808761656284332, -0.36110153794288635, 0.2749387323856354, -0.02625134401023388, -0.20198798179626465, 0.07193674147129059, 0.5039638876914978, 0.5100449919700623, -0.49348926544189453, -0.36446404457092285, 0.40092092752456665, -0.18119892477989197, 0.2721044719219208, 0.7391173839569092, 0.029047071933746338, 1.3587440252304077, 0.19032715260982513, -0.32958361506462097, -0.1695179045200348, 0.032029327005147934, 0.30578821897506714, -0.0968744084239006, -0.000875296420417726, 0.1475832611322403, 0.42687752842903137, -0.0496542863547802, 0.09181924909353256, -0.04309573769569397, 0.07458996027708054, 0.2781858742237091, 0.38042759895324707, 0.3163816034793854, -0.035755034536123276, -0.3955425024032593, -0.49398094415664673, -0.08472727239131927, -0.4287130832672119, -0.4248809814453125, 0.0609254352748394, -0.09487661719322205, -0.21184104681015015, -0.5277554988861084, -0.4100416898727417, 0.3071494996547699, 0.5173723697662354, 0.07669347524642944, 0.05005452036857605, -0.44234153628349304, -0.33942142128944397, -0.18869565427303314, -0.05354128032922745, -0.20967791974544525, 0.12568482756614685, -0.10862156003713608, 0.38279083371162415, -0.12796153128147125, -0.3236430585384369, -0.02722790837287903, -0.10192681103944778, 0.6654042601585388, 0.17727063596248627, -0.04163093492388725, -0.003128750016912818, -0.04055129364132881, -0.08226420730352402, -0.04234565421938896, -0.24642610549926758, 0.703718364238739, 1.0467318296432495, 0.030934486538171768, 0.19809670746326447, 0.41395002603530884, 0.1868826299905777, 0.5717777013778687, 0.5623829960823059, -0.3581114113330841, 0.3279852867126465, -0.22957266867160797, 0.0766434445977211, -0.3206295967102051, 0.07339619845151901, -0.44161584973335266, -0.45238417387008667, 0.2371443212032318, -0.15326492488384247, -0.08201894909143448, -0.09590458869934082, 0.06811724603176117, 0.13268475234508514], [-0.30376720428466797, 0.07172966003417969, -0.24813377857208252, 0.0918368324637413, 0.17180074751377106, 0.045051246881484985, 0.017489595338702202, 0.23201492428779602, -0.0574052520096302, -0.21085287630558014, 0.00124262273311615, -0.13480569422245026, -0.32677993178367615, 0.24181173741817474, 0.07148613035678864, -0.228384330868721, -0.09974753856658936, 0.1417708843946457, -0.23980264365673065, 0.11325810104608536, -0.08191527426242828, 0.011326313950121403, -0.032661646604537964, -0.014378553256392479, 0.17205582559108734, 0.18589994311332703, 0.1409907191991806, -0.11162003874778748, -0.14257317781448364, 0.09184907376766205, 0.43349018692970276, -0.2012941688299179, 0.037395916879177094, 0.15324799716472626, -0.18702751398086548, -0.27523085474967957, -0.07159820199012756, -0.1365494579076767, 0.01792076602578163, -0.3123587369918823, 0.6012368202209473, 0.32202163338661194, 0.22378921508789062, 0.01504035759717226, -0.12751293182373047, 0.04368703067302704, 0.028049791231751442, 0.0011458012741059065, 0.18735916912555695, -0.09759379923343658, -0.4733221232891083, 0.276048868894577, 0.056255705654621124, 0.023511473089456558, 0.09749923646450043, -0.09112363308668137, 0.03798677399754524, -0.20818008482456207, -0.14335930347442627, -0.145931676030159, -0.23483653366565704, -0.23771566152572632, 0.0404740646481514, -0.2375619262456894, -0.35912445187568665, -0.14738932251930237, 0.1388663351535797, -0.10842139273881912, 0.17044536769390106, -0.5598551034927368, -0.1041434109210968, 0.06742542237043381, -0.4447077512741089, -0.2913151979446411, -0.00431431457400322, 0.04662201926112175, 0.108865886926651, -0.1491418033838272, -0.019323255866765976, 0.04131611809134483, 0.4646897614002228, -0.20718993246555328, 0.22748605906963348, 0.10482389479875565, -0.1491536945104599, 0.1180076003074646, 0.3696672320365906, -0.1504582315683365, -0.03604560345411301, 0.05858190357685089, 0.16745255887508392, 0.06987780332565308, -0.12539686262607574, -0.14547526836395264, 0.0114975580945611, 0.4167789816856384, 0.03700072318315506, -0.004340313374996185, -0.19683963060379028, 0.14338435232639313, 0.17647185921669006, 0.07976586371660233, -0.12454753369092941, -0.05857187137007713, 0.30714577436447144, -0.5801042318344116, -0.03219592943787575, -0.09419852495193481, 0.05494818091392517, 0.17435908317565918, -0.3027254641056061, -0.02569407783448696, -0.10655578225851059, -0.11246965825557709, 0.37947529554367065, -0.12016566097736359, 0.10762732475996017, -0.07610171288251877, 0.12380390614271164, 0.5523726940155029, 0.24292244017124176, -0.1468949317932129, 0.01413080282509327, -0.13620556890964508, 0.38891616463661194, -0.17720192670822144, 0.3826999366283417, -0.1861727088689804], [-0.07172513008117676, -0.19593070447444916, 0.1461607813835144, -0.08386346697807312, -0.12265079468488693, -0.2803352475166321, -0.0019333191448822618, 0.11135175079107285, -0.2181626707315445, -0.3279772996902466, -0.30240166187286377, 0.16469022631645203, 0.10771112143993378, 0.1211232990026474, -0.08495690673589706, -0.07803497463464737, 0.170213520526886, 0.15409433841705322, 0.12314967066049576, -0.18509940803050995, -0.160985067486763, -0.04549494385719299, -0.2762892246246338, 0.20506547391414642, -0.16915296018123627, 0.12515167891979218, -0.0823039710521698, -0.22540417313575745, 0.27494773268699646, -0.156957745552063, -0.054955460131168365, -0.07827045023441315, 0.26960045099258423, 0.01543488446623087, 0.04040518403053284, -0.06280267983675003, -0.34638309478759766, 0.08447852730751038, -0.321766197681427, -0.11993641406297684, -0.17204532027244568, 0.07553409039974213, -0.19249942898750305, 0.3737713694572449, -0.26002049446105957, -0.09862023591995239, -0.08791115134954453, 0.04817715287208557, 0.056719280779361725, -0.12587156891822815, 0.03385598585009575, -0.16198201477527618, 0.02506268583238125, -0.018627190962433815, 0.10996650159358978, 0.028987562283873558, -0.2310258448123932, -0.14190615713596344, -0.1741960644721985, -0.1933738887310028, -0.05167578533291817, 0.1615729033946991, 0.22600403428077698, 0.025310218334197998, 0.042504530400037766, 0.10167866945266724, 0.20242519676685333, -0.23855485022068024, 0.10726136714220047, 0.13330227136611938, -0.1001218631863594, 0.17893379926681519, 0.033295925706624985, -0.12945157289505005, -0.21446429193019867, -0.04075690358877182, -0.1176091879606247, 0.24254795908927917, -0.08884868025779724, -0.15508125722408295, -0.15662673115730286, -0.18868562579154968, -0.11246661841869354, 0.10234367847442627, -0.06292720884084702, 0.3605733811855316, -0.1596672236919403, -0.19117364287376404, -0.039306338876485825, 0.09830199927091599, 0.492979496717453, -0.08297508209943771, 0.08931314945220947, -0.09029021859169006, -0.06668487936258316, -0.09513802826404572, -0.12307566404342651, 0.08785400539636612, -0.0629388839006424, -0.0738622173666954, 0.11701709032058716, 0.022760706022381783, 0.053217001259326935, 0.3059033751487732, 0.10249640047550201, 0.19049853086471558, 0.03053855150938034, -0.06792912632226944, 0.02711496129631996, -0.09275665134191513, -0.12186787277460098, -0.037922684103250504, 0.0328991562128067, -0.14590077102184296, -0.1609271764755249, 0.11622174084186554, -0.12276899814605713, -0.1349475383758545, -0.3290630877017975, 0.00025261062546633184, 0.0904855728149414, -0.22621546685695648, -0.022993674501776695, 0.14515672624111176, -0.05648970603942871, 0.06571446359157562, 0.05885825306177139, -0.14479582011699677], [0.1242833063006401, 0.015377712436020374, 0.0832361951470375, -0.03934462368488312, 0.06385643035173416, -0.0406290628015995, 0.1875164806842804, -0.23296119272708893, 0.262127548456192, -0.06721586734056473, 0.10232257097959518, 0.1827271580696106, 0.09953133761882782, -0.1293381303548813, -0.10440634936094284, 0.08044996857643127, 0.22023352980613708, -0.006904544774442911, -0.008721277117729187, 0.17343111336231232, -0.029825663194060326, -0.19234566390514374, 0.22556287050247192, 0.23263023793697357, -0.11727175116539001, -0.15194986760616302, -0.21413719654083252, -0.1629514992237091, -0.15222105383872986, -0.1660168468952179, 0.3005644977092743, 0.004690080415457487, 0.18351209163665771, 0.11100668460130692, 0.019786998629570007, 0.04695025458931923, 0.15204250812530518, -0.08246178925037384, 0.1521146297454834, 0.13614213466644287, 0.09023138135671616, 0.03969782218337059, -0.09625910222530365, -0.06042896583676338, 0.005747790448367596, 0.11358452588319778, 0.04635625332593918, 0.0036068924237042665, 0.06639476865530014, 0.23198233544826508, 0.22195062041282654, 0.2537047863006592, 0.021743254736065865, -0.1319870799779892, 0.824260950088501, 0.25586140155792236, -0.027349239215254784, 0.0733533650636673, -0.19376789033412933, -0.09489287436008453, -0.027424490079283714, 0.15372686088085175, 0.11423403024673462, 0.08109889924526215, 0.0003312777553219348, -0.21305528283119202, 0.08304394036531448, -0.2657851576805115, 0.13805042207241058, 0.007687917910516262, 0.04000270739197731, 0.07555634528398514, 0.14162150025367737, 0.03696029260754585, -0.11240686476230621, 0.133416548371315, 0.043955978006124496, 0.09290718287229538, -0.21362221240997314, -0.07142500579357147, 0.028432726860046387, 0.10456479340791702, 0.2962151765823364, 0.35002195835113525, 0.1712639480829239, 0.07639672607183456, -0.14828349649906158, 0.07461154460906982, -0.25479549169540405, -0.03593302518129349, -0.1711501032114029, -0.22457608580589294, -0.11999843269586563, -0.035629503428936005, 0.051463883370161057, -0.010648450814187527, 0.325970321893692, -0.0006693629547953606, -0.007421956397593021, -0.07189968228340149, -0.1688501238822937, -0.10122908651828766, -0.058241840451955795, 0.037319425493478775, -0.04984470456838608, 0.1258929818868637, -0.028484968468546867, 0.26788875460624695, -0.07332585752010345, 0.1953856199979782, 0.11619522422552109, 0.11031179875135422, -0.024744627997279167, -0.06914065033197403, -0.1194499135017395, 0.19967690110206604, -0.22668299078941345, -0.02555355243384838, 0.22950410842895508, 0.3596048355102539, 0.13494238257408142, 0.11083019524812698, -0.2286520153284073, 0.07776472717523575, -0.12216930091381073, 0.04271836206316948, 0.15013492107391357, -0.13600124418735504], [-0.7768085598945618, -0.04441330209374428, -0.5379382371902466, -0.12859398126602173, 0.24235394597053528, 0.26559245586395264, 0.023239731788635254, 0.6788718104362488, -0.17741306126117706, 0.14923526346683502, -0.08819521218538284, 0.12096476554870605, -0.11606966704130173, 0.4064115881919861, 0.22986508905887604, -0.18627415597438812, 0.13160590827465057, 0.2650873363018036, 0.10080762952566147, 0.06053116172552109, -0.026663199067115784, 0.14517046511173248, -0.003864317201077938, -0.3890987038612366, 0.2055860161781311, -0.04534924030303955, -0.1418135166168213, -0.03921520337462425, -0.053726937621831894, 0.15239238739013672, 0.6066637635231018, -0.27554139494895935, 0.14851263165473938, 0.41727185249328613, -0.029122965410351753, -0.1417360156774521, 0.007543960586190224, -0.005977587308734655, -0.14744850993156433, -0.06398244947195053, 0.5614727735519409, 0.5299280881881714, 0.6885661482810974, 0.1937391310930252, 0.23163115978240967, -0.09138604998588562, 0.08304136991500854, -0.22671398520469666, 0.08660988509654999, -0.11879250407218933, -0.8443898558616638, 0.11569403856992722, -0.012558124028146267, -0.06732768565416336, -0.016749488189816475, 0.06223607808351517, -0.06783182173967361, -0.040880609303712845, 0.07690873742103577, -0.0030768406577408314, 0.025878965854644775, -0.40596434473991394, -0.02868374064564705, -0.3772873282432556, -0.5416914820671082, -0.02676486037671566, 0.22802318632602692, -0.09612005949020386, -0.140472874045372, -0.441597044467926, -0.11613405495882034, 0.04264359176158905, -0.9165655970573425, -0.8677330017089844, -0.33280977606773376, 0.1829182356595993, 0.07721267640590668, -0.12586309015750885, -0.45638176798820496, 0.11780814081430435, 0.5758284330368042, -0.028107451274991035, 0.41976043581962585, 0.009484505280852318, -0.15782003104686737, 0.04559510946273804, 0.5165600776672363, -0.20309080183506012, -0.10270686447620392, 0.021199176087975502, 0.041732270270586014, 0.10886804014444351, 0.04292333126068115, -0.06177062913775444, -0.2040540874004364, 0.6007714867591858, 0.3173709809780121, -0.0916859433054924, 0.2061423808336258, 0.06161564961075783, 0.18147140741348267, 0.1509641706943512, -0.10907261073589325, 0.15977290272712708, 0.5066475868225098, -0.6337347030639648, -0.46167808771133423, -0.19967539608478546, 0.32603156566619873, 0.48171529173851013, -0.4884461462497711, -0.08713515847921371, 0.03528239578008652, -0.12426282465457916, 0.5378347039222717, 0.11492815613746643, 0.1444186121225357, -0.0765378475189209, 0.13912427425384521, 0.7064818143844604, 0.22227510809898376, 0.034301791340112686, 0.10682124644517899, -0.42199501395225525, 0.16813872754573822, -0.45172473788261414, 0.22184690833091736, 0.12026070058345795], [-0.06958845257759094, -0.07634750008583069, 0.16425201296806335, 0.24353665113449097, 0.2259647399187088, 0.011988610029220581, -0.12000367790460587, 0.12296938896179199, -0.5510441064834595, -0.27827054262161255, -0.36896204948425293, -0.34355419874191284, -0.19071683287620544, -0.04465635493397713, 0.00862904079258442, -0.08608557283878326, 0.03153971955180168, -0.008349343203008175, 0.12061716616153717, -0.39248788356781006, -0.4619583189487457, 0.33049142360687256, 0.036357056349515915, 0.024433942511677742, -0.1460607647895813, 0.15828543901443481, 0.05473685637116432, 0.15461836755275726, 0.06482880562543869, -0.1126411184668541, -0.11346956342458725, -0.5435360074043274, 0.09621702879667282, -0.20447476208209991, 0.07892478257417679, 0.07692503929138184, -0.3926350474357605, -0.06762176752090454, -0.17155008018016815, 0.10861443728208542, 0.03470759093761444, 0.20370569825172424, -0.017881525680422783, 0.10297518968582153, 0.1674479991197586, 0.21850642561912537, 0.09823456406593323, 0.03015414997935295, -0.09639690071344376, 0.19798824191093445, 0.08840102702379227, 0.06864763051271439, 0.10783638805150986, 0.24969607591629028, 0.03320755064487457, 0.29588961601257324, -0.18819497525691986, -0.36899805068969727, -0.07983262091875076, -0.033365484327077866, 0.06383633613586426, -0.15499275922775269, 0.20438291132450104, -0.01628168299794197, -0.1346554458141327, -0.08387260884046555, -0.13693097233772278, 0.31796470284461975, -0.05877011641860008, -0.005991614423692226, -0.1393941193819046, 0.2076774686574936, 0.05708311125636101, -0.009427076205611229, 0.3619755208492279, 0.02569068782031536, -0.09025106579065323, 0.007894286885857582, 0.03316435217857361, 0.19937670230865479, 0.06390202045440674, -0.14622874557971954, 0.24882669746875763, -0.18477196991443634, -0.16356860101222992, 0.3882599472999573, -0.100163534283638, -0.043359193950891495, 0.22160881757736206, 0.18811658024787903, 0.6353550553321838, -0.05478304252028465, -0.07432147115468979, -0.08788758516311646, -0.016042595729231834, -0.16344672441482544, -0.31383392214775085, 0.48436063528060913, 0.2229628562927246, 0.11643081903457642, -0.2623969614505768, 0.16124002635478973, 0.08373633772134781, 0.5837225914001465, -0.16091451048851013, -0.14989745616912842, -0.17111705243587494, 0.13434939086437225, -0.09322981536388397, -0.0956311896443367, 0.0717892050743103, -0.15677814185619354, 0.16155825555324554, -0.02906700223684311, -0.12309839576482773, 0.2012324035167694, -0.46135154366493225, 0.24252836406230927, -0.434750497341156, 0.030686184763908386, -0.1366713047027588, -0.06835146993398666, 0.3422881066799164, -0.15450963377952576, 0.13236595690250397, 0.23271356523036957, 0.22959385812282562, 0.1630822718143463], [0.34095466136932373, -0.02894308604300022, 0.31765449047088623, -0.15728795528411865, 0.17191366851329803, 0.1754196584224701, 0.3921912908554077, 0.20903711020946503, 0.06539787352085114, 0.12228437513113022, 0.2375880479812622, 0.07372499257326126, -0.1852714717388153, 0.10996728390455246, -0.026744922623038292, -0.05007341504096985, -0.015017984434962273, 0.28088438510894775, 0.19254504144191742, 0.054449234157800674, -0.25424548983573914, -0.05234622582793236, 0.14226727187633514, -0.16512620449066162, 0.1547938585281372, -0.07803603261709213, -0.40300223231315613, 0.12140193581581116, -0.34914982318878174, -0.10739915817975998, 0.22666670382022858, -0.07805385440587997, -0.0213600005954504, 0.005668165627866983, -0.5200471878051758, 0.16238731145858765, 0.2544189691543579, -0.010417593643069267, 0.012908709235489368, -0.027962559834122658, 0.24166473746299744, 0.17698659002780914, 0.16258889436721802, -0.3670024275779724, -0.2115744650363922, -0.355550080537796, -0.02582555264234543, 0.5890315771102905, 0.002721719676628709, -0.0074182478711009026, 0.2382558137178421, -0.1514066606760025, -0.4443420469760895, -0.45671433210372925, 0.5857496857643127, 0.14776469767093658, 0.05720726400613785, 0.10854629427194595, -0.10348467528820038, -0.23963508009910583, 0.13338394463062286, 0.09366455674171448, -0.04793237894773483, 0.28355422616004944, -0.14700248837471008, 0.15933404862880707, -0.07319798320531845, 0.02517099305987358, -0.06057565286755562, 0.10747936367988586, 0.1641465425491333, -0.2852517366409302, 0.31956952810287476, 0.33448100090026855, 0.09289494901895523, 0.14218789339065552, -0.004366082604974508, 0.07159910351037979, -0.2252654731273651, 0.033049918711185455, 0.11929763853549957, 0.004958260804414749, 0.3128198981285095, 0.15806008875370026, -0.011194898746907711, 0.13135641813278198, 0.20702369511127472, -0.019695358350872993, -0.23365339636802673, 0.2004634141921997, -0.001825136598199606, 0.0584561787545681, 0.1847134679555893, -0.2898500859737396, 0.13826251029968262, 0.2734464406967163, 0.5999561548233032, -0.0006472052773460746, -0.21105577051639557, -0.22451992332935333, -0.04752299562096596, 0.02247611992061138, 0.23808695375919342, -0.037689127027988434, 0.1656937152147293, 0.26997488737106323, -0.19012250006198883, -0.018882595002651215, 0.1435667723417282, 0.23826317489147186, 0.07341469079256058, -0.30329325795173645, -0.16949398815631866, -0.2794664204120636, 0.17465229332447052, 0.14857032895088196, 0.014012432657182217, -0.115971639752388, 0.34336546063423157, 0.4916655123233795, 0.3404342830181122, 0.04322986304759979, -0.3718221187591553, 0.17921124398708344, 0.18609419465065002, 0.1238519698381424, 0.0018051861552521586, 0.03054680861532688], [-1.0745819807052612, 0.13523037731647491, -0.2539728283882141, 0.08297576755285263, 0.3226231336593628, 0.2773737907409668, -0.14455841481685638, 0.9597480893135071, 0.04162135720252991, 0.14547045528888702, 0.0702948346734047, -0.0678679347038269, -0.2532655894756317, 0.5763095021247864, 0.18580150604248047, -0.1342831254005432, -0.1330302357673645, 0.5370498299598694, -0.03810272365808487, -0.021199185401201248, -0.06054353341460228, 0.06113838031888008, -0.009479363448917866, -0.7313671708106995, 0.49619412422180176, -0.006897287908941507, -0.5869432687759399, -0.4333498775959015, 0.2936074435710907, 0.3480164706707001, 0.7887593507766724, -0.34618496894836426, 0.08982854336500168, 0.7157867550849915, -0.4395054578781128, 0.029722485691308975, -0.002886639442294836, -0.0709073469042778, -0.08669164776802063, -0.04350762069225311, 0.6583458185195923, 0.7201031446456909, 0.7931691408157349, -0.03346450999379158, 0.15840916335582733, 0.17390748858451843, -0.0878065899014473, -0.01275869831442833, 0.05789758637547493, 0.02567266672849655, -1.1447913646697998, -0.12948225438594818, 0.15238407254219055, 0.08667751401662827, 0.046743787825107574, -0.1559978574514389, -0.15843017399311066, -0.37271299958229065, 0.24130183458328247, 0.04887716472148895, 0.057054098695516586, -0.6749963164329529, 0.2080872803926468, -0.3254440724849701, -0.47323843836784363, -0.11817161738872528, 0.1797477751970291, -0.3392934799194336, 0.15568970143795013, -0.2786218822002411, -0.22842270135879517, -0.2524920105934143, -1.2012672424316406, -1.0819838047027588, -0.16842246055603027, 0.12048811465501785, 0.1955675333738327, -0.021923428401350975, -0.5835921168327332, 0.2413010150194168, 1.2788703441619873, -0.10877230018377304, 0.4666662812232971, -0.36360859870910645, 0.09477253258228302, -0.1466420739889145, 0.5267277359962463, -0.016086159273982048, -0.1933593451976776, -0.13844044506549835, -0.1550740748643875, 0.11750651150941849, 0.1541997492313385, -0.023585136979818344, -0.00525027047842741, 0.9163485169410706, 0.4629907011985779, -0.07133477926254272, 0.47548919916152954, -0.12277399748563766, -0.027187565341591835, -0.024341097101569176, 0.20694680511951447, -0.018482202664017677, 0.7575504779815674, -1.195503830909729, -0.38622236251831055, -0.4431018829345703, 0.20349186658859253, 0.6182680726051331, -0.471967488527298, -0.08098670095205307, 0.0841081365942955, -0.048939209431409836, 0.7294306755065918, 0.1570366472005844, 0.02324133738875389, -0.14985311031341553, -0.08618700504302979, 0.5533210039138794, -0.022250913083553314, -0.04491373524069786, -0.04620545357465744, -0.4328673481941223, 0.42035937309265137, -0.9188691973686218, -0.17352919280529022, 0.02103346958756447], [-0.3409854471683502, 0.31038907170295715, -0.05304820090532303, 0.35237085819244385, 0.013828795403242111, 0.17647172510623932, -0.5587798357009888, 0.07800804823637009, -0.772657573223114, -0.13137592375278473, -0.6028711199760437, -0.6966381072998047, -0.3135768175125122, 0.05270872637629509, -0.22704988718032837, -0.16149957478046417, 0.08780886977910995, 0.040372226387262344, 0.1806403249502182, -0.5170536041259766, -0.43350231647491455, 0.6119064092636108, 0.24353504180908203, -0.29357701539993286, -0.06799648702144623, 0.04480977728962898, -0.08404762297868729, 0.4123767018318176, 0.1912594884634018, 0.07081110030412674, -0.38033726811408997, -0.6124995946884155, -0.06452087312936783, -0.35264912247657776, 0.42714208364486694, 0.32550281286239624, -0.3875296711921692, -0.1601409763097763, 0.1407194882631302, 0.5686018466949463, -0.20313075184822083, 0.24014630913734436, 0.16697818040847778, -0.01368554588407278, 0.1992446333169937, 0.3657303750514984, 0.35795775055885315, -0.28258851170539856, -0.18546952307224274, 0.27198559045791626, 0.08601804822683334, -0.04194028675556183, 0.23649662733078003, 0.3807971179485321, -0.31779736280441284, 0.3518182039260864, -0.17935732007026672, -0.43950361013412476, 0.41523605585098267, -0.1049908772110939, -0.17898058891296387, -0.10429807007312775, 0.0628991350531578, 0.01417833287268877, 0.17607548832893372, 0.07288240641355515, -0.07700027525424957, 0.495489239692688, 0.039585065096616745, 0.14543376863002777, -0.34954965114593506, -0.007134486921131611, -0.2092648446559906, -0.1684015542268753, 0.5618718266487122, -0.36058416962623596, -0.436379075050354, 0.20542201399803162, -0.042013417929410934, 0.666990339756012, 0.03447319567203522, -0.506091833114624, 0.11845839768648148, -0.39572873711586, -0.2371814101934433, 0.4441068768501282, -0.10617431253194809, -0.1930268406867981, 0.3303590714931488, 0.2306980937719345, 0.6132209300994873, 0.35447317361831665, -0.4859132170677185, 0.31480613350868225, -0.23978900909423828, 0.1546059101819992, -0.5975045561790466, 0.6976283192634583, 0.33599206805229187, 0.4901922345161438, -0.4190094470977783, 0.19696402549743652, -0.0595882385969162, 0.6411013603210449, -0.33021658658981323, -0.05750807374715805, -0.017316017299890518, 0.14151284098625183, -0.025960706174373627, -0.22474829852581024, 0.18118663132190704, -0.2528300881385803, 0.35330790281295776, -0.08336978405714035, 0.030632881447672844, 0.5089985132217407, -0.3440103232860565, 0.6160532236099243, -0.43352210521698, -0.13519786298274994, 0.12184876203536987, -0.012281415984034538, 0.4250323474407196, -0.21718063950538635, 0.3385370671749115, 0.002590862801298499, 0.40027981996536255, 0.29239845275878906], [0.15329889953136444, 0.3145284950733185, 0.3591252863407135, 0.2029566764831543, 0.23521900177001953, 0.13319450616836548, 0.40404289960861206, 0.6389380693435669, -0.06629589200019836, -0.13595165312290192, 0.19141696393489838, -0.15896634757518768, -0.08913329243659973, 0.025722665712237358, -0.2031651735305786, -0.17098616063594818, 0.0813799723982811, 0.010990843176841736, -0.05011933669447899, 0.031598951667547226, -0.06482365727424622, -0.10138288140296936, 0.4186219274997711, -0.3480449616909027, 0.15302114188671112, 0.08809845894575119, -0.27791115641593933, -0.19554153084754944, -0.37797269225120544, 0.20811407268047333, 0.23713545501232147, -0.09459542483091354, -0.22227156162261963, 0.23574630916118622, -0.33617907762527466, 0.0753859132528305, 0.1725999414920807, 0.0658927857875824, 0.4044543504714966, 0.04287143424153328, 0.11185717582702637, 0.5154160857200623, 0.29547119140625, -0.13169313967227936, -0.090113565325737, -0.32011860609054565, 0.06901829689741135, 0.7612231969833374, -0.10716019570827484, 0.1217394545674324, 0.37800073623657227, -0.16614589095115662, -0.6002715826034546, -0.2856689691543579, 0.1865038424730301, 0.1264839768409729, 0.21911215782165527, 0.05518440157175064, 0.21621663868427277, -0.014633212238550186, 0.40327078104019165, 0.009378021582961082, -0.008114167489111423, 0.33892297744750977, -0.13053418695926666, 0.2089853733778, 0.17865318059921265, -0.17569342255592346, 0.18587027490139008, 0.14316868782043457, 0.04199816659092903, 0.024490654468536377, 0.4062429666519165, 0.5059040784835815, 0.14692413806915283, 0.37692463397979736, 0.06009083241224289, 0.09510969370603561, -0.3265206217765808, 0.04598889499902725, 0.606791079044342, 0.05167267844080925, 0.18182751536369324, -0.19233065843582153, -0.16384592652320862, 0.09620268642902374, 0.5562648177146912, 0.10266468673944473, -0.41437211632728577, 0.023941179737448692, -0.3324090838432312, 0.017804831266403198, -0.015907693654298782, -0.09192543476819992, 0.15391220152378082, 0.38443708419799805, 0.5826095342636108, 0.032440025359392166, -0.14199790358543396, -0.29724839329719543, -0.2554308772087097, -0.014558590948581696, 0.08425721526145935, -0.03375104442238808, 0.11711961030960083, 0.43605053424835205, -0.19758102297782898, -0.09111157059669495, 0.17370650172233582, 0.15127897262573242, 0.00043036669376306236, -0.3173743784427643, -0.11690281331539154, -0.27030423283576965, 0.26266610622406006, 0.0011673429980874062, -0.046466875821352005, -0.12149228900671005, 0.610255777835846, 0.32799944281578064, 0.28765803575515747, 0.11671502143144608, -0.06059664115309715, -0.009988336823880672, 0.10293403267860413, 0.308445006608963, -0.11365553736686707, -0.2608914375305176], [0.19102849066257477, 0.2580752372741699, 0.10965458303689957, -0.09038335829973221, -0.25111210346221924, -0.45918264985084534, -0.16988441348075867, -0.21716900169849396, -0.06337011605501175, -0.1778464913368225, -0.07630477100610733, -0.2148056924343109, 0.12821894884109497, -0.36785706877708435, -0.06282206624746323, -0.17492984235286713, -0.13024941086769104, 0.30381256341934204, -0.24487492442131042, -0.057403210550546646, -0.03191167116165161, 0.03586459532380104, -0.12888073921203613, 0.4965885579586029, 0.017911210656166077, 0.006446274928748608, 0.31957772374153137, 0.11659500747919083, -0.08896524459123611, -0.1255589723587036, -0.17521387338638306, -0.045099299401044846, -0.057369526475667953, -0.2883850634098053, 0.2835794687271118, -0.3568309545516968, -0.025104118511080742, -0.087135910987854, 0.4580680727958679, -0.28590866923332214, 0.17720597982406616, 0.08513879030942917, -0.1995963752269745, 0.05582270398736, -0.024111995473504066, -0.04148043319582939, 0.08514656871557236, 0.21248184144496918, -0.08629415184259415, 0.3165115714073181, 0.29294347763061523, 0.40014782547950745, 0.2360503077507019, 0.0868149921298027, -0.14175450801849365, 0.04519357159733772, 0.03309626877307892, 0.28107309341430664, -0.043687853962183, -0.009142602793872356, 0.01011611893773079, 0.017899004742503166, 0.08687596023082733, 0.3813978433609009, 0.26195797324180603, -0.1869485229253769, -0.11527898907661438, 0.14368313550949097, 0.26719003915786743, -0.6223255395889282, -0.016151731833815575, 0.043312910944223404, 0.4407024085521698, 0.22830559313297272, -0.12890097498893738, -0.3596896827220917, -0.29756391048431396, 0.2957639992237091, 0.36658382415771484, -0.0975157842040062, -0.20864753425121307, 0.11940531432628632, 0.28645169734954834, 0.196264386177063, -0.017516588792204857, 0.07297748327255249, -0.47517964243888855, 0.1586749255657196, -0.009228483773767948, -0.07543034851551056, 0.06999390572309494, 0.22164969146251678, 0.024297181516885757, 0.10695932060480118, 0.057406097650527954, -0.41990435123443604, -0.23973560333251953, -0.05638491362333298, -0.08875219523906708, -0.04653364047408104, -0.11802124232053757, -0.00739020761102438, 0.05560990422964096, -0.12076233327388763, -0.46249204874038696, 0.26194608211517334, 0.09147199243307114, 0.3744870126247406, -0.2243080735206604, -0.2781752943992615, -0.3448548913002014, 0.07570198178291321, -0.11341968178749084, 0.08502737432718277, -0.18469320237636566, 0.023287292569875717, -0.14459531009197235, 0.11649118363857269, -0.07893981784582138, -0.0696149691939354, 0.10529228299856186, 0.1947573721408844, -0.11590609699487686, 0.14669564366340637, 0.030492687597870827, 0.3517216742038727, 0.42816340923309326, -0.16359195113182068], [0.14278875291347504, 0.15992265939712524, 0.1106080636382103, -0.11407233029603958, -0.12455491721630096, -0.07325907796621323, -0.03468175604939461, 0.17781256139278412, 0.06202992424368858, -0.09162214398384094, -0.16946201026439667, 0.26010027527809143, -0.11995957791805267, 0.07018040865659714, -0.41018226742744446, -0.35035523772239685, 0.08553458750247955, 0.030638141557574272, 0.09501274675130844, -0.03486919030547142, -0.16719754040241241, 0.018478546291589737, 0.03854573518037796, -0.07955444604158401, -0.0012734817573800683, -0.05211710184812546, 0.18648140132427216, -0.11438100039958954, -0.07222636789083481, 0.059364110231399536, -0.08714102953672409, -0.19267559051513672, 0.24168546497821808, -0.04092290624976158, -0.07081866264343262, 0.25160953402519226, -0.009106528013944626, 0.016789769753813744, -0.031367503106594086, -0.062029365450143814, 0.07281018048524857, 0.08502814173698425, -0.15484417974948883, -0.028831854462623596, -0.3070720434188843, 0.08303491771221161, -0.13832968473434448, 0.1432415395975113, 0.08408620953559875, -0.1747504621744156, 0.11682520061731339, 0.08901313692331314, -0.07423735409975052, 0.10114850103855133, 0.19472256302833557, 0.08140808343887329, -0.3661845922470093, -0.07312072813510895, -0.2530616819858551, 0.17647162079811096, -0.07452407479286194, 0.0883508026599884, 0.17276445031166077, 0.052096083760261536, 0.029473312199115753, 0.2163434624671936, 0.13495510816574097, -0.051396600902080536, 0.05426390841603279, 0.018782153725624084, 0.12462429702281952, 0.015088590793311596, 0.1439390629529953, 0.19717231392860413, -0.09736549109220505, 0.11795448511838913, -0.2199423909187317, -0.08787033706903458, 0.06390675157308578, 0.11745133250951767, 0.1436602622270584, -0.21575288474559784, 0.09515930712223053, -0.04423219710588455, 0.11006046086549759, 0.5622376203536987, -0.13027513027191162, -0.11799677461385727, 0.09530782699584961, 0.03216007351875305, 0.41954320669174194, 0.0876181423664093, -0.13561943173408508, -0.21163399517536163, -0.2307455837726593, -0.20127137005329132, 0.028460439294576645, -0.0302753746509552, -0.10917798429727554, 0.13209034502506256, -0.12372910231351852, -0.3184219300746918, -0.02342524379491806, -0.018839137628674507, 0.13841533660888672, 0.10870372503995895, 0.1097579374909401, -0.11651640385389328, -0.055690571665763855, 0.09190360456705093, 0.06130467355251312, -0.067029669880867, -0.17417407035827637, 0.008242675103247166, -0.003196450648829341, -0.2792567014694214, -0.31097692251205444, 0.0865011066198349, -0.028545519337058067, -0.23407568037509918, -0.22189922630786896, -0.36845463514328003, -0.0670851469039917, -0.12261158227920532, -0.24216017127037048, 0.12009511142969131, -0.02649877592921257, -0.04525340721011162], [-0.030586600303649902, 0.23311662673950195, -0.2668887674808502, 0.3744908273220062, -0.05611454322934151, 0.09643487632274628, 0.2184457927942276, -0.2344844490289688, 0.25288358330726624, -0.15932275354862213, -0.14231345057487488, 0.5294876098632812, 0.24500665068626404, -0.32780566811561584, 0.04534214735031128, -0.051121022552251816, 0.06686139106750488, 0.3850092887878418, -0.19808627665042877, -0.11252985894680023, 0.052493274211883545, 0.4783865213394165, 0.14936606585979462, -0.030343588441610336, -0.07249710708856583, 0.050764188170433044, 0.3272746801376343, -0.10268858820199966, 0.27734747529029846, -0.20477920770645142, -0.09481052309274673, -0.15779531002044678, 0.5411927700042725, -0.5517604351043701, 0.2582055330276489, 0.09585517644882202, -0.30448710918426514, -0.17615710198879242, -0.08245821297168732, 0.2335691899061203, -0.4712677299976349, 0.11059827357530594, 0.02940945513546467, -0.023676473647356033, -0.0990053340792656, 0.3433830440044403, 0.3404127061367035, -0.45332297682762146, -0.35822048783302307, 0.40992674231529236, -0.17698967456817627, 0.4538116753101349, 0.691228985786438, 0.3572003245353699, 0.8119185566902161, 0.4121183156967163, -0.3221563994884491, -0.34665927290916443, 0.09323056787252426, 0.507707953453064, 0.013275772333145142, 0.00965529028326273, 0.30355218052864075, 0.046804413199424744, 0.001747161615639925, -0.19045808911323547, -0.05018186569213867, 0.027245838195085526, 0.10400496423244476, 0.1655781865119934, 0.3991672992706299, 0.5750502347946167, -0.38838428258895874, -0.35332971811294556, 0.09539058059453964, -0.25265374779701233, -0.135654017329216, 0.043987978249788284, 0.2281617522239685, 0.1385185718536377, -0.4608757793903351, -0.1379333883523941, -0.1058635488152504, 0.07807767391204834, 0.008116409182548523, 0.3142463266849518, -0.2884509563446045, -0.3237864673137665, 0.08657629042863846, 0.2382335364818573, -0.365386962890625, -0.07161377370357513, -0.027518119663000107, 0.24141579866409302, -0.1511639505624771, -0.3312639594078064, -0.039898794144392014, -0.12489599734544754, 0.4828205704689026, 0.31287816166877747, 0.10462317615747452, 0.18721729516983032, 0.016792116686701775, -0.08860378712415695, -0.06406175345182419, -0.43997254967689514, 0.7822819948196411, 1.1233488321304321, 0.21517640352249146, 0.2096823751926422, 0.22141577303409576, 0.309656023979187, 0.533617377281189, 0.5758004188537598, -0.030150504782795906, 0.1975622922182083, 0.1404375582933426, 0.18592894077301025, -0.24193905293941498, -0.2723304331302643, -0.20209543406963348, -0.34866300225257874, -0.04876621440052986, -0.26133009791374207, -0.21291875839233398, -0.03301588445901871, 0.20891129970550537, 0.10913068801164627], [0.6793947219848633, 0.0033234315924346447, 0.2514391541481018, -0.08293762803077698, -0.14416348934173584, 0.01755634695291519, -0.030739203095436096, -0.48647138476371765, 0.1725529134273529, -0.2752862274646759, 0.12812259793281555, 0.09283404797315598, -0.07169209420681, -0.09668640792369843, 0.12200424820184708, 0.09143821150064468, 0.03308933600783348, 0.3413393199443817, -0.17171651124954224, -0.09565537422895432, 0.07300111651420593, 0.05075465515255928, -0.15493452548980713, 0.1834235042333603, 0.48409348726272583, -0.19322870671749115, 0.5957523584365845, 0.21654754877090454, -0.027050625532865524, 0.16511212289333344, -0.5770083069801331, -0.03740237280726433, 0.06688930839300156, -0.41768839955329895, 0.39505332708358765, -0.10684402287006378, -0.0874612033367157, -0.2606966197490692, -0.0065645077265799046, -0.457775354385376, -0.03745878115296364, -0.2575128972530365, -0.33121398091316223, 0.20778073370456696, -0.0836508646607399, -0.05210300162434578, -0.20940054953098297, -0.11092512309551239, -0.2401394248008728, -0.5118449926376343, 0.6662331223487854, 0.03326963633298874, 0.11624553054571152, -0.06642972677946091, -0.13712212443351746, 0.016968660056591034, -0.03854765743017197, 0.04163828492164612, -0.14235690236091614, 0.1415991634130478, 0.03287604823708534, -0.4771154224872589, 0.01765412464737892, -0.3866761326789856, -0.5834097266197205, 0.2187131941318512, 0.2628946602344513, 0.055554889142513275, 0.019064046442508698, -0.23558039963245392, 0.009194026701152325, 0.23848365247249603, 0.6812148690223694, 0.6580792665481567, -0.042962394654750824, -0.2746378481388092, -0.17127643525600433, -0.12990787625312805, 0.221045583486557, -0.05389838665723801, -0.7166604995727539, 0.08370480686426163, 0.4922631084918976, 0.18574337661266327, 0.1331646889448166, 0.2876177728176117, -0.10097910463809967, -0.09020141512155533, 0.06825391948223114, -0.10607130080461502, -0.003920515533536673, 0.10567158460617065, 0.10701391845941544, 0.28494882583618164, 0.12051495909690857, -0.05704944208264351, -0.00024286263214889914, 0.03184177353978157, -0.39963698387145996, 0.19858980178833008, -0.05070799961686134, 0.061007991433143616, -0.0448978953063488, 0.1931883692741394, -0.5616313815116882, 0.5230216383934021, 0.19359004497528076, 0.30196118354797363, 0.03814966231584549, 0.15841776132583618, -0.38688939809799194, -0.07952255755662918, 0.2648956775665283, 0.03327246382832527, -0.3429265320301056, -0.009239810518920422, -0.052173346281051636, 0.2522899806499481, -0.14757110178470612, -0.6730608940124512, 0.033742766827344894, -0.07619602978229523, -0.1386212259531021, 0.16709111630916595, -0.18237565457820892, 0.4532422125339508, 0.18961554765701294, 0.004419182892888784], [-0.08857395499944687, 0.14526978135108948, 0.1741742491722107, -0.13928963243961334, -0.005219714250415564, -0.01591457985341549, -0.04092616215348244, 0.08156787604093552, 0.19264106452465057, 0.09872236847877502, -0.023759936913847923, 0.286105751991272, 0.32324641942977905, 0.2763930559158325, 0.01593521609902382, 0.10444846004247665, 0.07024537771940231, 0.07956736534833908, -0.28127917647361755, 0.1474706530570984, 0.11137078702449799, -0.22254763543605804, -0.1372232735157013, 0.1204715222120285, 0.04737120494246483, 0.04704658314585686, 0.0023154187947511673, -0.16796711087226868, 0.22850370407104492, -0.131929412484169, 0.2511122524738312, 0.2756296694278717, -0.013810744509100914, 0.0030474953819066286, -0.0548262819647789, 0.04562857747077942, -0.03606486693024635, 0.21539506316184998, -0.11935589462518692, 0.07001113891601562, -0.0632714033126831, -0.05964193865656853, 0.16411623358726501, 0.24957270920276642, 0.02103540487587452, -0.039100319147109985, -0.09694737195968628, 0.2118169218301773, -0.22984878718852997, 0.17367354035377502, -0.07640641182661057, 0.054676130414009094, 0.052932996302843094, 0.03160339593887329, 0.023081770166754723, 0.3287958800792694, 0.05167986825108528, -0.14818315207958221, -0.09457607567310333, -0.26850706338882446, -0.18726029992103577, 0.12066818028688431, 0.36609557271003723, 0.04415246471762657, 0.10861099511384964, -0.24307860434055328, -0.1164616271853447, -0.3874928951263428, -0.06354491412639618, 0.14022520184516907, -0.08872446417808533, 0.047667745500802994, -0.2249412089586258, -0.025687169283628464, -0.003467477159574628, -0.15274623036384583, 0.023183763027191162, 0.09754043817520142, 0.1552373468875885, -0.2623041868209839, 0.04345808923244476, -0.11345971375703812, -0.04999309405684471, 0.03908601403236389, 0.0347466804087162, 0.302203506231308, -0.03661292418837547, -0.21766430139541626, -0.032098762691020966, -0.39380398392677307, 0.08949927985668182, -0.2575875222682953, -0.12371411174535751, -0.020445840433239937, -0.03671493008732796, 0.003977304324507713, 0.028155475854873657, -0.4694017171859741, -0.23989497125148773, -0.026665372774004936, 0.47830677032470703, -0.11586552113294601, 0.033538587391376495, -0.4084429442882538, 0.03881695866584778, 0.13720138370990753, -0.02205967903137207, -0.1422833800315857, 0.10985369235277176, 0.19355404376983643, 0.06427989900112152, 0.37218746542930603, -0.3133770525455475, -0.10064797848463058, -0.09972213953733444, 0.2881428897380829, 0.01540647353976965, -0.20314240455627441, -0.11680814623832703, -0.01950732432305813, -0.1758168488740921, -0.259247362613678, -0.2845802307128906, 0.31746384501457214, -0.21321603655815125, 0.03936821594834328, -0.03513830155134201, 0.10710395872592926], [-0.20187917351722717, -0.12202990055084229, -0.2295820116996765, -0.19594083726406097, -0.3302120864391327, -0.0216095969080925, -0.2085629254579544, -0.19205696880817413, -0.019194429740309715, 0.04420066997408867, 0.11793740093708038, -0.027942540124058723, 0.005592070985585451, 0.03082118183374405, 0.029430853202939034, 0.050739485770463943, -0.08133401721715927, 0.19222106039524078, 0.07921047508716583, 0.07044610381126404, 0.10226427018642426, 0.035217806696891785, 0.09097704291343689, 0.33477115631103516, 0.00533285504207015, 0.005864941980689764, 0.29121509194374084, 0.24064983427524567, 0.12147253006696701, 0.011857623234391212, -0.07509355992078781, -0.3190491795539856, 0.16891692578792572, 0.10755854099988937, 0.35499337315559387, 0.0647590309381485, -0.3299615681171417, -0.11564509570598602, 0.010589269921183586, 0.05540494993329048, -0.1665084809064865, 0.22825050354003906, 0.03411180153489113, -0.03929904103279114, -0.12734971940517426, 0.09531652182340622, -0.15117688477039337, -0.26497235894203186, 0.10148986428976059, 0.2138870507478714, -0.07052545994520187, 0.14663580060005188, 0.39490237832069397, 0.39969539642333984, 0.2673546075820923, 0.06118706241250038, -0.0964127629995346, -0.05626578629016876, 0.15609996020793915, -0.19816707074642181, -0.2695596218109131, 0.08076617866754532, 0.3342549502849579, -0.022266115993261337, -0.030521411448717117, 0.07686316967010498, -0.12535648047924042, -0.09803685545921326, -0.16958357393741608, 0.11561089009046555, -0.08106721192598343, 0.12483308464288712, -0.09592517465353012, -0.13491316139698029, -0.07619054615497589, 0.15024533867835999, 0.09338963031768799, -0.04698602482676506, -0.028390735387802124, 0.07120497524738312, 0.11942946165800095, 0.07822006195783615, 0.19106030464172363, -0.08547661453485489, 0.3382604718208313, 0.25101783871650696, -0.237343430519104, 0.21744480729103088, 0.3477281928062439, 0.09948942810297012, 0.015051288530230522, -0.08521785587072372, -0.08359846472740173, 0.22190043330192566, 0.014467843808233738, 0.06710895895957947, -0.09970127046108246, 0.1431734710931778, 0.316120982170105, -0.019783249124884605, -0.21710266172885895, 0.22549653053283691, -0.004029096104204655, 0.25789085030555725, -0.2301071733236313, 0.21419242024421692, 0.026404907926917076, 0.4803454279899597, 0.08457235991954803, -0.1502133011817932, 0.25188934803009033, -0.06068312004208565, 0.10508286207914352, 0.3431433439254761, 0.030436264351010323, 0.4234907627105713, -0.029763204976916313, 0.46367940306663513, -0.23639966547489166, -0.16300874948501587, -0.09828273206949234, 0.03162151202559471, 0.48362550139427185, -0.06006508320569992, -0.09185515344142914, -0.00015521023306064308, -0.04001518711447716, -0.1111367717385292], [0.6987383365631104, -0.13125772774219513, 0.6071152091026306, 0.12723414599895477, -0.3113090991973877, -0.16927069425582886, -0.06111645698547363, -0.2421078234910965, -0.09193660318851471, -0.3413349390029907, 0.10664459317922592, -0.08551327139139175, -0.2700028419494629, -0.1962594836950302, 0.2840767502784729, -0.013071641325950623, -0.045454178005456924, 0.46790406107902527, -0.40210646390914917, -0.05453263595700264, 0.013506743125617504, -0.2551797330379486, 0.10284044593572617, 0.08579538762569427, 0.3711940050125122, 0.1852455586194992, 0.2255408763885498, 0.1742558628320694, -0.010243047960102558, 0.03910555690526962, -0.5786149501800537, -0.17252326011657715, -0.1549830138683319, 0.05565165728330612, 0.2344740629196167, -0.16343340277671814, 0.06648977845907211, -0.012647388502955437, -0.28005650639533997, 0.15567229688167572, -0.4341070055961609, -0.44094306230545044, -0.22692809998989105, -0.0490589514374733, -0.10668546706438065, 0.0970039963722229, 0.06696680188179016, 0.12164435535669327, -0.1256105750799179, -0.42663130164146423, 0.33814990520477295, 0.07884691655635834, -0.19290103018283844, -0.059062108397483826, 0.10963695496320724, -0.03901388868689537, 0.06819813698530197, 0.2488023191690445, -0.0424005351960659, -0.005930449813604355, -0.23280924558639526, -0.47468864917755127, 0.3130970597267151, -0.3528909981250763, -0.45857521891593933, 0.33363762497901917, 0.07636936008930206, 0.15014483034610748, -0.05081379413604736, 0.04948587343096733, 0.16110049188137054, 0.08199860900640488, 0.749276876449585, 0.4057590365409851, 0.0672752782702446, -0.12461511790752411, -0.05108005553483963, 0.009088477119803429, 0.5984257459640503, -0.06336011737585068, -0.5520905256271362, -0.026548845693469048, 0.1798715740442276, 0.14521712064743042, -0.10528258234262466, 0.2385157197713852, -0.06652561575174332, -0.09645793586969376, 0.11524537950754166, -0.20633728802204132, -0.12125227600336075, 0.18176484107971191, -0.03089601919054985, 0.23732560873031616, 0.17757409811019897, -0.002610155614092946, -0.07714683562517166, 0.3114301860332489, -0.15900544822216034, 0.11948571354150772, 0.1621701717376709, -0.13047507405281067, 0.1853872835636139, 0.011243333108723164, -0.48489394783973694, 0.2958408296108246, 0.46244850754737854, 0.40451550483703613, 0.047723740339279175, 0.5440054535865784, -0.2683095335960388, -0.025024376809597015, -0.07208570092916489, 0.004219622816890478, -0.6954256296157837, -0.23381385207176208, -0.014648079872131348, 0.1621646285057068, -0.0003605546080507338, -0.8686208724975586, -0.27882859110832214, -0.15224528312683105, 0.010700250044465065, -0.006456579547375441, 0.09167733788490295, 0.25180307030677795, -0.02117793634533882, -0.16975849866867065], [-0.018758902326226234, 0.12590233981609344, -0.23686079680919647, 0.0019610989838838577, 0.22396539151668549, 0.06989136338233948, 0.3394325375556946, -0.2409871220588684, 0.3420567810535431, 0.061426855623722076, 0.29964858293533325, 0.19476814568042755, 0.3643221855163574, -0.09590805321931839, 0.653063952922821, 0.10229156911373138, -0.17627617716789246, 0.2433091253042221, 0.024929707869887352, 0.11018141359090805, 0.1918909102678299, -0.2507530450820923, 0.012218882329761982, 0.02189728617668152, 0.09073422849178314, -0.005823782179504633, -0.06806806474924088, -0.010965495370328426, -0.11662924289703369, -0.06040434539318085, 0.1747559756040573, 0.4640631079673767, -0.07060354948043823, 0.12283138930797577, -0.17041973769664764, 0.058115530759096146, -0.08105310052633286, -0.11466839164495468, -0.005519735626876354, 0.20929516851902008, -0.002215062966570258, -0.1525830775499344, -0.08683665096759796, -0.15447981655597687, 0.3793739974498749, -0.11966586858034134, 0.39567333459854126, -0.3032720685005188, -0.2751617729663849, 0.21693235635757446, 0.07590953260660172, 0.06463169306516647, -0.18016836047172546, -0.2123030722141266, -0.25635862350463867, 0.10317478328943253, 0.21110457181930542, -0.12094291299581528, -0.12296077609062195, 0.09676769375801086, 0.09704215079545975, 0.15426631271839142, 0.13494135439395905, 0.17599432170391083, 0.14957299828529358, -0.16785471141338348, -0.1375199556350708, -0.2504849135875702, 0.15728344023227692, 0.22407737374305725, 0.2693769931793213, -0.1273653507232666, -0.02246868424117565, -0.18511591851711273, 0.006599270738661289, -0.336625874042511, 0.08698894828557968, 0.35630303621292114, -0.13644546270370483, -0.26812267303466797, -0.16650322079658508, -0.07694626599550247, 0.1805259883403778, 0.3913338780403137, -0.03253258392214775, 0.27926120162010193, 0.004102114122360945, -0.17394928634166718, -0.3137282133102417, -0.32787641882896423, -0.2198985069990158, 0.11660163104534149, -0.1835831254720688, 0.10740280151367188, 0.13278338313102722, -0.12725526094436646, -0.016342729330062866, -0.5327929854393005, -0.057827167212963104, -0.1740262508392334, 0.394988477230072, 0.02818950079381466, 0.02911868877708912, -0.30179527401924133, 0.060948461294174194, -0.1210554763674736, -0.20596842467784882, -0.002925723558291793, 0.29664188623428345, 0.31490498781204224, 0.008336425758898258, 0.3751722574234009, -0.006485908292233944, 0.33221280574798584, 0.06891383975744247, 0.40892595052719116, 0.17416056990623474, -0.396342396736145, 0.10590718686580658, 0.09414989501237869, -0.09101942181587219, -0.11577523499727249, -0.0704604908823967, -0.04794461652636528, -0.20420798659324646, 0.0603996105492115, 0.10216990113258362, 0.015229122713208199], [-0.09996803104877472, -0.06241314113140106, -0.15658174455165863, -0.18774347007274628, -0.13482588529586792, -0.12778149545192719, -0.03527587279677391, -0.050086215138435364, 0.027136677876114845, -0.05074566230177879, -0.1527024507522583, -0.12449739873409271, -0.1398102343082428, 0.1849612593650818, -0.26354125142097473, -0.12741440534591675, -0.18659555912017822, 0.058776043355464935, 0.16898705065250397, -0.052041761577129364, 0.03430573269724846, 0.034313857555389404, -0.002259516157209873, 0.21502450108528137, 0.11242252588272095, -0.3147488236427307, -0.014661763794720173, 0.3165068030357361, 0.1464012861251831, 0.2566660940647125, -0.1758187860250473, -0.14071263372898102, 0.022500142455101013, 0.2107556313276291, 0.4050743877887726, -0.1625632643699646, -0.10851877182722092, -0.19229656457901, -0.12894541025161743, 0.0508200041949749, 0.11215599626302719, -0.010895723477005959, -0.10275280475616455, -0.00871661864221096, -0.0015506329946219921, 0.27730467915534973, -0.09196655452251434, 0.1283196657896042, 0.3286304771900177, 0.06124754995107651, 0.23195397853851318, 0.09384383261203766, 0.016480281949043274, 0.3703538179397583, -0.15371231734752655, -0.12837786972522736, -0.03801167011260986, -0.08993776142597198, 0.32756224274635315, -0.2062447965145111, -0.03179018571972847, 0.21487973630428314, 0.2581934332847595, -0.15410800278186798, -0.09895391762256622, 0.06918077915906906, -0.05760973319411278, 0.04410174861550331, 0.05822660028934479, 0.25753793120384216, 0.08586215227842331, -0.10699351131916046, -0.1342744678258896, 0.12614800035953522, 0.2736019790172577, -0.21210910379886627, -0.02937084063887596, 0.17983810603618622, 0.23431846499443054, 0.23150448501110077, 0.1903567612171173, 0.08420326560735703, 0.2007817029953003, -0.17479391396045685, 0.16622495651245117, 0.17115293443202972, -0.08541861176490784, 0.23060515522956848, 0.35893547534942627, -0.14417803287506104, 0.04374345764517784, -0.016138015314936638, -0.002143596764653921, 0.20463304221630096, -0.11510275304317474, 0.15915626287460327, -0.02619854360818863, 0.09159112721681595, 0.3502471148967743, 0.050471071153879166, -0.07208936661481857, -0.00802858266979456, -0.09332302957773209, 0.20237912237644196, -0.08610787242650986, -0.0009636004106141627, 0.1102152094244957, 0.19680333137512207, -0.08002056926488876, 0.0665990337729454, -0.08511961996555328, -0.05414297804236412, 0.19775860011577606, 0.4096068739891052, 0.0714779645204544, 0.11601150780916214, 0.005011376459151506, 0.1906447857618332, -0.18948769569396973, -0.0041758716106414795, -0.028202760964632034, 0.12714459002017975, 0.3930296301841736, 0.06448998302221298, 0.2403024286031723, -0.250912606716156, 0.20808184146881104, -0.07975145429372787], [0.6460316777229309, -0.2490912526845932, 0.6745697855949402, -0.08505336195230484, -0.09337692707777023, -0.07967006415128708, -0.0005566214676946402, -0.1927604228258133, 0.1114388182759285, -0.21961474418640137, 0.31232354044914246, -0.07952356338500977, -0.4386572241783142, 0.10145945101976395, 0.25227323174476624, 0.08753043413162231, 0.02913881093263626, 0.3135428726673126, -0.5343518853187561, 0.0211090799421072, 0.11996053159236908, -0.2015647143125534, -0.06405287981033325, 0.1720409244298935, 0.36860305070877075, 0.10211541503667831, 0.3517553508281708, -0.27401962876319885, 0.10900731384754181, 0.2560104727745056, -0.6520318984985352, 0.050236355513334274, 0.0856129378080368, 0.2076498568058014, -0.18776129186153412, 0.06314481049776077, -0.004188335966318846, 0.16473828256130219, -0.4551306664943695, 0.48931291699409485, -0.4335988163948059, -0.4375869035720825, -0.22277849912643433, -0.08822132647037506, -0.06900450587272644, -0.003910494968295097, -0.28902870416641235, -0.036043278872966766, -0.12249755859375, -0.465878963470459, 0.37402328848838806, -0.2517835795879364, -0.3909355700016022, -0.09890768676996231, -0.18813306093215942, -0.2055564969778061, -0.015618829056620598, -0.04497166723012924, -0.05302712321281433, 0.04581179469823837, -0.07421667873859406, -0.5158829689025879, 0.3082168996334076, -0.11287540197372437, 0.04454963281750679, 0.6289004683494568, -0.1010170727968216, -0.04077209159731865, -0.19834260642528534, 